-0.032738246
-0.0678723
-0.2674302
-0.026430862
0.051416274
0.08753697
0.010369313
-0.034887705
0.088558346
-0.05347549
0.09743467
0.095657244
0.051718745
-0.041856263
-0.17574435
0.111378245
-0.015921148
0.05142923
0.04640877
-0.09574138
0.08175124
-0.18757111
-0.05795573
0.038995877
-0.07368163
-0.08107725
0.040528078
-0.1255661
-0.05820508
0.13096952
0.07362415
0.18196002
0.012901294
0.026479626
-0.03334994
0.055218946
-0.016551768
0.00885317
-0.1633286
-0.07282571
-0.020298209
0.12447905
0.096047536
-0.030285113
0.01785109
0.08681875
-0.03757086
-0.19042091
-0.04809823
-0.03183157
0.04895899
-0.05746949
0.0823676
0.08630182
-0.048775993
0.031515967
0.095746316
-0.03694607
-0.06644578
0.013844267
0.03646967
-0.012954553
-0.0014981192
0.08237535
-0.04115731
-0.002843328
0.026383325
0.05684636
-0.08129263
-0.2005033
-0.11557629
0.00024528633
0.056967154
0.16049407
0.0039765527
0.044339795
-0.06381544
0.11355887
0.059362378
0.00016012636
-0.015461326
-0.099221244
-0.111445084
-0.010439928
0.032564715
0.022015022
-0.12131797
-0.04075837
0.026635982
0.011978
0.008729117
0.092244074
-0.19708858
-0.3636504
0.0116144875
-0.00729068
0.03927162
-0.03602699
-0.035974607
-0.10899696
0.00015106126
0.07059145
0.028985387
0.19490863
-0.0120271165
-0.03583966
-0.093261085
-0.13467497
-0.17804845
0.23415206
-0.10450482
0.011310987
-0.093494646
-0.05752554
-0.06272642
0.048789762
0.048961192
0.018193038
-0.21414997
0.21383893
-0.20316651
-0.09883678
0.055286195
0.1177612
-0.06305318
0.053038336
0.03173224
0.102649
