-0.00026738644,0.019158702,-0.02939447,-0.026380643,-0.013894978,0.009386338,-0.0015385927,0.026193652,-0.008910633,-0.002107802,-0.021446692,-0.019323299,-0.047377683,-0.038168773,-0.028656306,-0.011954258,-0.00012251062,0.006292607,-0.039892696,-0.029584642,0.00642689,0.030396597,-0.007531127,0.027940087,-0.0055366373,0.0034260936,0.03129741,-0.033131085,-0.022483498,-0.009055085,-0.013920989,0.030801244,-0.023606107,-0.01815646,-0.027847007,-0.037874393,-0.03106323,0.0146039035,-0.003266333,-0.0044215024,-0.014073404,-0.03610247,-0.013936989,-0.052257415,-0.04198581,-0.032053817,0.008039183,0.00893879,-0.021341942,-0.0018033205,0.023310518,0.037708186,0.015490278,0.0058570467,0.025218762,-0.020069454,0.006504602,-0.027805679,-0.02485512,-0.01876612,0.015288595,0.011591757,-0.026012328,0.0015161488,0.00053417764,-0.028330147,-0.026290957,-0.01911573,0.0012141983,0.010801435,-0.055336576,-0.03356806,-0.0018868704,0.0152068855,0.01407559,0.029617403,0.0075425715,-0.034498673,0.003718241,-0.019543726,-0.030029133,0.035057686,0.02908356,-0.035103746,0.0064893644,-0.0063654487,-0.0064897835,-0.017385,0.011581225,-0.025653198,0.0020255558,-0.00052226224,0.0005807136,-0.014560714,-0.06446527,-0.054217134,-0.0031547092,-0.017941263,-0.060878128,-0.058612145,0.015351467,0.004102887,-0.025983993,-0.00054616714,-0.017906953,0.007944444,-0.0137370415,-0.015749043,0.009361485,0.012982184,-0.012135169,0.023563765,-0.021852506,0.032141697,0.02411941,-0.03116967,-0.012423933,-0.007957591,-0.014915056,-0.0232268,-0.021842074,-0.038565572,-0.049088385,-0.012853964,-0.060464744,-0.051425315,-0.03870504,-0.06765093,-0.03208707,-0.032669555,0.026901072,0.030094936,0.01016203,0.033425402,0.05195936,0.015261742,0.025320841,0.009643178,0.013598664,0.025168875,0.03371524,0.02232114,0.032331504,-0.0064095994,-0.040739506,-0.036456473,-0.00321089,-0.037051383,-0.04474803,-0.056464892,-0.05695331,-0.03306055,-0.007746967,0.031452354,0.045994643,-0.03756018,0.028849931,-0.034365516,0.013190396,0.008301404,0.02624641,0.028923381,-0.0025819961,0.0030444122,0.030363964,0.0262301,0.00017672646,0.020073382,-0.032364517,-0.003370951,0.026092082,-0.025108205,0.016797796,-0.012758066,-0.06802859,-0.0152494265,-0.02508578,-0.046301395,0.012028394,-0.025299288,-0.0013843961,0.011048604,0.03845349,0.016050281,0.026446752,0.03639955,0.004192448,0.007959175,-0.002159581,0.050403833,0.08810402,0.08609533,0.02843458,0.038069684,0.0048339115,-0.004249395,-0.020876685,0.0108650355,-0.030552182,-0.014736591,-0.01403597,0.00066426495,-0.063160606,-0.068871126,-0.041014258,0.021768404,-0.017691523,0.015318407,0.011500618,0.023195833,0.01952737,0.028452108,0.029156879,-0.009209061,0.005521291,0.015972443,0.0036365248,0.021538777,0.08017348,0.02471208,0.040741686,0.07713014,0.05049131,0.024138974,-0.030984145,0.01322583,-0.03461988,-0.02471452,-0.03317061,-0.02113714,-0.020003641,0.008229595,0.0040635825,0.060541045,0.01109808,0.0072890194,0.0510332,0.013764293,0.023515595,0.03301777,0.02950769,0.01487439,-0.0054956414,0.021632243,0.043228753,-0.0030583174,0.069459826,0.030999182,0.041545507,0.027566584,0.012985323,0.03016847,0.029100854,-0.015007493,-0.03133007,-0.02863045,-0.055518687,-0.0044578663,-0.04393071,-0.056765407,-0.042362187,0.026405256,0.05009851,0.077186875,0.062936,0.016424539,-0.020321693,0.0054589626,0.031987242,0.008987655,0.011175252,-0.0096734725,-0.024401855,0.015950743,0.018676221,0.015914857,0.08835778,0.016876755,0.026819225,0.03711035,-0.00076631934,-0.030641818,-0.037996475,0.013123622,-0.02183241,-0.016874196,-0.049575202,-0.00609607,-0.014993153,7.9116326e-05,0.025179105,0.08938198,0.06931082,0.032558434,-0.000583717,-0.038618416,0.007098173,-0.0057826024,0.009976088,0.002090619,-0.01556342,0.0050985296,0.011934053,0.06365304,0.07476827,0.018981729,0.032719005,0.030382589,0.009315439,-0.011447895,-0.03604109,-0.009433482,-0.0032915748,-0.042155944,-0.00040814467,0.018418927,0.008324137,0.0248215,0.04131482,0.07290875,0.058577746,0.06147173,-0.023185927,-0.03244665,0.018206626,0.054301646,0.005442987,0.016095016,0.017961206,-0.008003232,0.022184087,0.03401478,0.0932266,0.05720921,-0.007818391,0.021501247,0.021448584,0.029870383,0.027971918,0.027034873,-0.0096266745,-0.014775051,0.030533953,0.018680507,-0.015969118,0.0381744,0.018494168,0.076103196,0.05342123,0.068042904,-0.026020711,-0.020330254,-0.03068717,0.013201663,-0.0035315382,0.047906905,0.01853714,0.05968918,0.022566319,0.06268479,0.007550359,-0.02439694,-0.015937796,0.030930033,0.0147231165,0.02948585,0.027934987,-0.030323785,-0.019502169,-0.0006189317,-0.025450246,0.029009208,-0.029398017,-0.026718287,-0.031775035,-0.005985638,0.077573925,0.06271688,-0.005572009,0.0010086598,0.013777265,-0.012194008,0.041686714,0.06502387,0.032913517,0.064254455,0.042468075,0.061240394,0.011522536,0.019317864,0.010055935,-0.011241095,-0.021887278,-0.021699928,-0.024334133,0.025806012,0.020442322,-0.021648763,-0.04619094,0.023268681,0.018654589,-0.011444488,-0.0042676916,0.05820558,0.061815884,0.010701589,0.024958856,0.014818889,-0.019587358,0.028778365,-0.0060631097,0.0025246248,0.03261851,0.0018524134,-0.02433987,0.008691451,0.005777139,-0.002559499,0.0061845444,0.029750548,0.0019132158,-0.022042941,0.0068367138,0.019065944,0.007845217,-0.05442777,-0.027876684,-0.016506338,0.007272482,0.037551574,-0.022856947,0.020611133,0.043969043,-0.027572433,-0.056975663,-0.03367612,0.024931027,-0.025333857,-0.0012093039,-0.03976608,-0.03660002,-0.038567893,-0.016446073,0.019463604,-0.02757708,0.030088153,-0.021171642,0.0040023127,0.0012250246,-0.031663354,0.031544466,0.015866013,0.02222007,0.014882366,-0.015770722,0.069782436,0.050262056,0.036570102,-0.025799392,-5.7527326e-05,-0.03368117,-0.064004794,-0.043552127,-0.044905502,0.024178192,0.02119063,-0.008820931,-0.04844007,-0.04138482,-0.019504031,0.0070185764,0.028513225,0.01410656,-0.016394092,-0.0016087507,-0.042663507,-0.030648556,0.016870562,-0.021239119,0.011906009,-0.034979798,0.0013400011,-0.02605692,0.025611637,0.01332283,0.03812862,0.0443824,0.041898735,-0.00018042825,-0.029160192,-0.037357695,0.001975244,0.015547118,-0.05096855,0.024513908,-0.048578728,-0.06141187,-0.043857206,0.011417015,0.024895566,-0.044054925,0.013684586,0.004052907,0.0083941,0.028781181,-0.022605695,0.0013856573,0.0026003155,-0.015677381,0.03248821,0.015530672,0.03624281,-0.011222406,-0.03747108,0.017228741,0.029622832,-0.021035768,-0.025095401,-0.0017205778,-0.02738136,0.019340036,-0.015437745,-0.014841286,-0.07476178,-0.044665374,-0.048459243,0.019869784,-0.023746325,-0.009502154,-0.029800666,0.025333744,0.024044685,-0.031899035,-0.033840694,-0.033661436,-0.0086355405,-0.021426253,-0.009704144,0.0146068195,0.023409221,-0.025722975,-0.019135218,-0.020692442,-0.0246685,0.008052862,0.021435393,-0.022987721,0.019250616,0.011164157,0.015607577,-0.055977926,-0.076391384,0.015465624,-0.028305318,-0.0016613551,-0.017743846,-0.024868382,-0.022534138,0.01459397,-0.0034668949,-0.038219478,-0.02419784,-0.012034345,0.017502896,-0.026175551,0.06170318,0.02759978,0.019368174,0.03430776,0.026455346,-0.004673892,-0.009325375,-0.026907075,-0.03479652,-0.033455092,0.008861333,-0.001741912,-0.051278077,-0.01233871,-0.0037695619,-0.036030848,-0.03146806,-0.041416276,0.0024991087,-0.011152539,-0.02837217,0.0014315807,0.010898975,0.02341627,0.021709708,-0.006552241,-0.03865866,-0.045358993,0.06615648,0.038510114,0.02563213,-0.031610735,0.044432808,-0.018221358,-0.016418668,-0.06720551,-0.049021266,-0.05160931,0.012818519,-0.038256917,-0.024982724,-0.0005820232,-0.04882061,-0.04909446,-0.0042058323,-0.00388822,-0.031725064,0.023476318,-0.020094248,0.009410912,0.029666826,0.013342209,-4.750039e-06,0.025435302,-0.0077212146,-0.03619728,0.036970552,0.008048087,-0.016004898,-0.012734448,-0.01818639,0.0130292,-0.017633772,-0.02911302,0.01887477,0.02558445,0.00071588834,-0.009380737,0.0065789837,0.00316103,-0.029764043,-0.017821785,-0.028292492,-0.019674448,0.020034365,-0.019923279,0.0068214885,0.010857787,0.0013003002,-0.025163874,0.027278949,-0.030234177,0.0125670945,-0.051994562,-0.028602105,0.003537652,-0.015173505,0.03752837,-0.018908255,-0.020915942,0.0050937245,0.03669313,0.06916869,0.015288779,0.026704913,0.009456041,0.024149971,0.041586973,-0.026630895,0.015374715,0.051543422,0.011255954,0.037992697,-0.0045496635,0.032899138,-0.032343935,-0.004634621,-0.0075677135,0.0064615356,0.006098226,0.013824131,-0.02575543,-0.032442912,-0.0053271586,-0.03195964,0.024460984,-0.041690562,-0.0050935447,-0.0030833757,0.012114383,0.032329343,0.023182234,-0.0052140304,0.054850224,0.037271056,0.04173713,-0.006261505,0.036119133,0.046437085,0.018081209,-0.02202822,0.028740253,-0.0243776,0.009917488,0.0055161044,-0.0170883,0.010756951,-0.03461891,0.0015432064,-0.033118792,-0.020569164,-0.019217724,0.0082372585,-0.03345341,-0.012783374,-0.027172152,-0.03579104,-0.039810427,-0.035674054,0.040146604,-0.009568764,0.01805255,0.026367616,0.04749751,0.046366606,0.040158805,-0.020587618,0.0017967465,-0.016487781,-0.01826464,0.009279674,0.03412314,-0.028465655,0.021561403,-0.01863785,-0.0069612972,0.025513921,-0.012342857,-0.0070304144,-0.038233656,0.024241593,-0.006710137,-0.03393398,0.0036292898,-0.02374131,-0.0077920286,0.00048935285,0.022627454,-0.004361953,0.030325023,0.033480503,0.03136722,-0.008634453,0.004718374,-0.007682134,-0.030479306,-0.0029691393,0.02635414,0.030108757,0.0034869856,0.0081115365,-0.015461488,0.026958656,-0.014884868,-0.025077205,0.0031034853,0.02076518,-0.031537764,0.030691657,0.0085619,-0.03685963,-0.01562272,0.031774186,-0.019870024,-0.0024958292,0.00051404396,-0.034496516,0.030147547,0.01890229,0.019352617,-0.01716873,0.03668224,-0.020276628,0.03361594,-0.03635722,-0.032328032,0.022013443,0.0040056454,0.0020603314
-0.019777086,-0.014981266,-0.0104424115,-0.034449723,0.0022741426,0.0077564763,0.004266622,0.019484662,0.04372969,0.015201065,0.00033009582,0.0034442237,-0.0035790277,0.004779431,0.01846053,0.0155700985,0.033782654,-0.006504699,0.029142149,-0.018058918,0.005818971,0.03301377,0.035011068,-0.025141578,0.005196462,0.004479608,-0.01674715,-0.012339102,0.009673357,-0.024826681,0.005862838,0.015822172,-0.011938786,0.03377637,0.001344532,0.025096029,0.0417982,-0.003878439,0.04148152,0.017445432,0.020840393,0.027471377,0.032842156,0.017179007,0.03256857,0.012189421,0.03404325,0.0048275413,0.020550748,-0.0039573596,-0.031894874,0.008986557,0.0043705036,-0.015650328,-0.016470248,0.0067116753,-0.0064563537,0.023356626,0.0019260523,0.013628212,0.017154956,-0.0068905596,0.020008067,0.03787976,0.015603369,0.02484818,0.030219162,0.047633532,-0.018271765,-0.020150037,0.03194322,-0.023682518,0.0007394649,0.009193333,0.051588535,0.0012993179,0.05300299,0.0558813,0.01641603,0.00013710382,0.038963124,-0.013620779,-0.009600263,-0.019003984,-0.0049296473,0.007871424,0.004430577,-0.0074865823,-0.036045842,0.0026912494,0.0046084463,0.016663637,0.04447077,0.063934065,0.011089763,0.010069485,-0.043274716,-0.061428808,-0.038830858,0.019982308,0.015590571,0.048679814,0.037762195,-0.0069950274,0.029337749,0.05352682,-0.001987635,0.054097734,0.021235747,0.025601026,-0.022716125,0.013579147,-0.031771127,-0.0017119482,0.012512056,0.010806415,0.030502075,0.03427347,0.037000645,0.029039748,0.032795846,0.03248779,0.013205797,0.032919705,0.011529279,0.0034411328,0.018580873,0.02125996,0.004232705,0.037056398,0.03884337,0.021215172,-0.026469298,-0.036353998,0.011446763,0.0074516106,0.031674832,-0.036246438,-0.041891377,0.017450789,0.02280995,-0.029446227,0.014474475,-0.030816494,0.023402156,0.012237969,0.03883647,-0.026347358,-0.027357867,0.058743577,0.06916566,0.06910711,0.089251384,0.0063566184,0.02744127,-0.032144364,0.015382927,0.016643336,0.004963077,-0.014349302,-0.051805995,-0.046129,-0.03305724,-0.01976811,0.033445913,0.0007369184,-0.019884197,-0.010183005,-0.029140756,-0.02712197,0.023155386,0.025975138,0.01284654,-0.004894927,0.038997497,0.017757772,-0.01962509,0.035874467,0.07058897,0.010287937,-0.020423252,0.027121624,0.057952527,0.024253948,0.03967265,0.05445104,0.06660354,0.04143965,0.038154144,0.036639582,0.0065148706,0.042110067,0.07409745,0.07377519,-0.013492398,0.039234594,-0.010774777,-0.03452551,0.011042879,-0.0013857118,0.022860898,9.365884e-06,0.011844218,0.040015884,0.0067984066,0.037410233,0.016743192,0.040449325,-0.0014699803,0.038187407,0.08046312,0.072409995,0.0362208,0.061261576,0.06046529,0.034200437,0.048083317,0.033722833,0.07541038,0.04406714,0.05769751,0.08948412,0.023541642,0.0078819925,-0.01019042,-0.010294592,0.008159311,0.018267,0.027821016,-0.008694449,0.013829559,0.025788512,0.009541556,-0.0047166576,-0.03139577,-0.015366157,-0.017965216,-0.014952399,-0.0138811115,0.06529014,0.0013919366,-0.015313765,0.005833259,0.008540622,0.030399201,0.08911888,0.10442777,0.06263974,0.08975669,0.07667412,0.06590566,0.039187334,-0.028175915,-0.011493,-0.026579078,0.030897005,-0.015933085,0.030665584,-0.020412734,-0.058580253,-0.0073982845,-0.01740821,-0.020246612,-0.052744117,-0.09372415,-0.0071988897,-0.039485395,-0.04373828,-0.008781252,-0.007949193,-0.06962316,0.014473962,0.035756353,0.04604929,0.07490595,0.034091763,0.046452645,0.09493045,0.06395228,0.059880096,-0.01675918,-0.027574847,-0.004673573,-0.024807163,0.016410261,0.023608532,-0.04736108,-0.06627581,-0.024544697,-0.09611276,-0.07621828,-0.11779874,-0.06472927,-0.030196236,-0.048125282,-0.042954195,0.030582704,-0.045046404,0.018024087,-0.024909664,-0.0039887815,0.04145243,0.03297704,0.022459889,0.02160073,0.009523629,0.017741974,0.037055954,-0.015983379,0.018411797,-0.016860865,-0.016140306,-0.0095447665,-0.048233207,-0.03487281,-0.044231985,-0.051594652,-0.08039595,-0.03870815,0.025333127,-0.0056684595,0.035302795,-0.06165495,-0.08549376,-0.06761586,-0.036160633,-0.041075945,-0.06156264,-0.04481984,-0.014297522,-0.05656516,-0.058796637,-0.0015574007,-0.016338298,-0.022155017,-0.0059651444,-0.0074535185,-0.035266016,-0.028125493,-0.0074576414,-0.055293087,-0.009512911,-0.027429394,-0.037830137,-0.0044365115,-0.042482663,0.013068662,0.10689252,0.11557044,0.12402847,0.017719077,-0.083876334,-0.11030136,-0.08066558,0.014220854,-0.04437669,-0.047045995,-0.035455093,-0.08095286,-0.051883735,-0.0033830947,-0.046118803,0.008799105,-0.023956403,0.016801111,-0.03282632,0.017453063,-0.03998695,-0.04195403,0.014319003,0.03511808,-0.017936517,0.0052537774,0.05741921,0.045080993,0.12698351,0.09645447,0.09479965,0.017778797,0.008831809,-0.033912048,-0.06593826,0.008753012,-0.008623909,-0.035085026,-0.07294605,-0.061761532,-0.009758712,-0.04685981,-0.041497532,-0.0075378735,0.004285653,0.010432736,-0.0014431315,-0.013367529,-0.017216979,0.011112426,0.016291257,0.043925893,-0.02948246,-0.01843549,-0.0449556,-0.016230164,0.07058163,0.12674746,0.044469442,0.07470861,0.031517364,-0.011671071,0.037036374,0.018496009,-0.042973485,0.005952666,-0.04782752,-0.00030592567,-0.030350983,0.004608853,0.026617292,0.039509494,-0.026509484,-0.022631632,-0.016242512,-0.02063806,0.05423578,0.032645974,-0.016103718,-0.03651288,-0.0714121,-0.06670667,-0.101743996,-0.041572273,-0.058630306,0.05733022,0.047568582,-0.02690733,0.0070082974,0.02305187,0.0181005,0.03952434,0.039097928,0.004293636,-0.0012913839,-0.032841034,0.012841977,0.021288203,-0.017205462,0.037103146,0.040311035,-0.012294339,-0.005527125,0.02782939,-0.005315933,0.042074326,-0.004929496,-0.062757075,-0.15718655,-0.21217883,-0.15884894,-0.11679357,-0.17888635,-0.10146014,-0.077393375,-0.08013462,-0.039433643,0.04696857,0.026761085,0.100695275,0.08137804,0.047063187,-0.03444201,-0.0037361225,0.00809185,0.03976293,-0.026222127,0.03370559,0.036952615,-0.031669404,0.0094966935,0.047213413,-0.0066072517,0.0177708,-0.023359086,-0.083832406,-0.10301808,-0.15594701,-0.20027848,-0.22772987,-0.19682176,-0.22836475,-0.15061574,-0.116799235,-0.080061115,0.03788012,0.012588144,0.045780607,0.07935654,0.032397788,0.025854915,-0.0034702928,0.030387934,0.047013633,0.0035971594,0.009766691,0.046494838,-0.0064458884,-0.017985092,0.044043776,0.04588552,-0.012947623,-0.015037198,-0.06191539,-0.10766301,-0.08203673,-0.16425708,-0.12471097,-0.1719564,-0.13601935,-0.13601652,-0.082285,-0.0041916985,0.010323456,0.014736793,0.0058798343,0.037762117,0.020745333,0.0173274,0.04050903,0.0032484804,0.0101031205,-0.017087338,0.02533365,0.037778523,-0.03294879,-0.01614937,0.048495617,0.040922098,0.016084153,0.03864541,0.034577176,-0.0045426544,-0.040201623,0.009502656,-0.001585069,0.015403641,0.0388678,-0.037942786,-1.796825e-06,-0.031614047,-0.0030906221,-0.002516518,-0.0327179,-0.0019384008,0.03760824,-0.012141542,-0.028809609,0.0021917147,-0.017487532,0.018220011,0.006989606,0.03637598,-0.011906424,-0.0032900579,0.048385553,0.0058594355,0.037044052,0.058377206,0.017262205,0.067336805,0.09622321,0.08904784,0.066839695,0.14626071,0.07861943,0.07270777,0.06759192,-0.023932984,-0.03701032,-0.039944645,-0.12029274,-0.05489546,-0.012150566,0.0032218236,-0.01626221,-0.010732964,-0.021737844,0.03162196,-0.018078487,0.022259505,-0.029244091,0.00029556084,0.011089935,0.035427198,0.035966575,0.022119464,0.009440533,0.03955322,0.09329368,0.020516142,0.04997766,0.07216468,0.10273814,0.103306115,-0.029634446,-0.08273659,-0.11598288,-0.044908095,-0.10154287,-0.062164556,-0.009930472,0.01734226,0.00947249,-0.02731567,0.0074351337,-0.018804016,0.019992182,-0.0012185894,0.003908545,-0.019957116,-0.023771724,0.03154677,0.02527137,0.00776056,0.04226664,-0.013046071,0.038780984,0.00286626,0.012236213,-0.009356295,0.05599485,0.012486764,-0.013986856,-0.03183106,-0.011809964,-0.078131355,-0.07213118,-0.0604823,-0.010225832,-0.022974791,-0.01990217,-0.022862805,-0.038505144,-0.0022157854,0.02217649,0.014969615,-0.017029162,-0.029629523,-0.021873247,0.010670592,0.033291806,-0.02782642,-0.04899172,-0.0489186,-0.0061632623,-0.016299155,-0.02034843,0.06717532,0.02375177,-0.012687296,-0.025862321,-0.0143769765,0.030844074,0.0200764,-0.039253857,-0.032667167,-0.018835692,-0.051725358,0.020886904,0.022311635,0.018400226,-0.017543726,0.014195306,-0.03448962,-0.0068844636,-0.0051971055,-0.011545204,0.01644864,-0.010792636,-0.0077794343,-0.027945686,-0.06887618,-0.047615845,-0.042980555,0.0103681255,-0.0064549427,0.021095099,-0.013417271,-0.0013113387,0.00820093,0.02438454,0.031813852,-0.03290542,-0.057973336,-0.05648002,-0.02846693,0.021758439,0.0016803071,0.028546449,0.023813872,-0.0016916441,-0.022550788,0.035577167,0.030520933,0.019441195,-0.014123763,0.03571643,0.0039462466,0.018001087,0.006588013,0.009482266,-0.052293595,-0.057703465,-0.025683364,-0.029779863,-0.015284532,0.06549817,0.055327307,0.052493423,-0.02040261,0.014761837,-0.011522812,-0.019536188,-0.01586786,-0.01704531,0.018006304,-0.0063447836,0.025497677,0.0067546307,-0.0059127877,-0.020638831,-0.03269611,-0.009358135,-0.028413694,0.0013180287,0.0133305015,0.008760797,-0.017532952,0.01277804,-0.0064832936,-0.05120694,-0.064836554,-0.00566542,0.015698526,-0.03407861,0.008468184,0.015671283,0.007525494,0.04073174,-0.003412631,0.03127159,-0.003649547,-0.0033133854,-0.017148929,-0.007972668,0.012431143,0.015327963,-0.0012707189,0.034030106,-0.02471903,0.013773557,0.033411063,-0.0038031037,0.030550117,0.002750165,-0.033690732,-0.025205415,0.006486859,-0.026275763,0.0005299511,0.032893367,0.016671287,0.005741851,0.024024414,-0.006998467,-0.008019491,-0.008880112,-0.02457277,0.007828453,0.005541796,-0.014014299,-0.03563094,0.01786264,-0.021195872,-0.006418363,-0.029945783
-0.020148508,0.014898568,-0.033275962,-0.019924957,0.027338486,-0.014060763,-0.0048777005,0.005323123,0.04179377,0.027687546,0.0575503,0.07233671,0.043238938,0.04375818,-0.007607874,0.01957761,-0.018199628,-0.05674643,-0.08180611,-0.04412026,-0.01625152,-0.02957187,0.007032538,0.009100792,-0.015018844,-0.002596503,0.035553597,0.00016861036,-0.028432626,-0.0025609273,0.01774524,-0.0085374685,-0.0122135505,0.04479747,0.03514118,0.014520923,0.030898716,0.042485498,0.069678895,0.063106,0.030738976,0.058339108,0.037198495,0.023212466,-0.02043708,-0.024382232,-0.077317595,-0.050305847,-0.028495284,-0.032874055,-0.04440544,-0.016151179,-0.00074218836,-0.030789677,-0.024837736,0.033401392,0.02672278,0.019582434,0.024755014,0.016832922,0.026590392,0.039961703,0.016047092,0.01997976,0.057335425,0.023363732,0.037187535,0.029494373,0.06234616,0.09769364,0.102285706,0.048339106,0.006799891,-0.087520026,-0.08303992,-0.11764946,-0.04809905,-0.05294867,-0.049585223,-0.016502794,-0.02323984,-0.023798358,0.014669818,0.0068866746,-0.025567988,-0.023472859,0.01667054,0.02916324,0.008805399,0.0009798661,0.053279553,0.022913983,-0.0152873425,-0.01495521,0.056667935,0.073031574,0.031674862,0.08638743,0.023329236,0.07139642,0.004645872,-0.08157117,-0.12041818,-0.11841922,-0.12553531,-0.10169341,-0.06706467,-0.05336663,0.015320636,-0.016238749,-0.033035967,-0.019045621,-0.033419706,0.029033955,-0.018514212,-0.025268285,-0.00014829294,-0.012922291,0.00097498286,0.013994181,-0.026148574,0.060121614,0.10357849,0.06000703,0.0786083,0.08535363,0.15135007,0.13009116,0.0014995016,-0.05494372,-0.20064285,-0.16766311,-0.10872108,-0.15288182,-0.10026739,-0.09160298,-0.052498903,-0.049989484,0.0024193444,-0.0319056,-0.0080546485,0.012782828,0.022710273,0.0062403185,-0.010867579,-0.008551258,0.0017117688,-0.018728632,-0.033540342,-0.007963247,0.003732832,-0.07501722,0.013052182,0.04428779,0.12855616,0.099813804,0.10068721,0.02171831,-0.07241435,-0.14531706,-0.1311517,-0.17715442,-0.11964986,-0.05881216,-0.044932898,-0.012985972,-0.0038007123,-0.013562521,0.008370552,-0.018303653,0.02466537,0.011768084,-0.031784344,0.024246486,-0.05846619,-0.09272074,-0.11875947,-0.06474776,-0.031570815,-0.06489427,-0.060403664,0.09897531,0.23825888,0.31432134,0.2467467,0.13161778,-0.015391371,-0.115838505,-0.17051749,-0.14901955,-0.1502636,-0.081767336,-0.085439734,-0.03686771,-0.051061735,-0.032899242,0.026509998,-0.025076497,-0.012752337,0.009559766,-0.028158154,-0.08202877,-0.12593848,-0.123132825,-0.08040825,-0.005526707,-0.04339918,0.0142793795,-0.04792917,0.06830317,0.18541896,0.335453,0.27453414,0.21605799,0.08200829,-0.060080737,-0.08365819,-0.17146157,-0.19212358,-0.18572827,-0.119463,-0.052767165,-0.053112835,-0.0028019198,0.026227407,0.008846203,-0.0027372253,-0.043664582,-0.028276134,-0.038146466,-0.030281017,-0.08550284,0.01910603,0.017730603,0.0066727814,0.0029243801,-0.030585632,0.021222787,0.074010774,0.16046228,0.17116435,0.23333544,0.16026556,0.07659136,-0.08131082,-0.09804493,-0.12934408,-0.13229959,-0.112625055,-0.09019456,-0.044661086,-0.053138826,-0.0126664,-0.010677469,-0.017736455,-0.047744576,-0.08819353,-0.015816903,0.039547477,0.05099752,0.042194508,0.097507544,0.034566466,-0.032096997,-0.08889121,-0.078753345,-0.02337027,0.022749113,0.11484629,0.2566211,0.2085124,0.15204303,-0.029276174,-0.0697948,-0.09263539,-0.12873425,-0.13869688,-0.09064675,-0.020315291,-0.0053956704,0.03534645,-0.02532966,-0.007168742,-0.045408476,-0.030709505,0.012766903,0.06880089,0.05871532,0.106488034,0.064407,-0.05982382,-0.101697676,-0.19576688,-0.13865715,0.0017508202,0.04639336,0.05879336,0.20350508,0.31002742,0.17431878,0.06378702,-0.058127157,-0.12092135,-0.14900726,-0.11436011,-0.03669343,-0.026616111,-0.027558617,0.0058850455,-0.034274444,-0.02184965,-0.029139843,0.010068796,-0.047487993,-0.020396106,0.022182558,0.02900957,-0.085432045,-0.088550866,-0.17362407,-0.17882435,-0.12636606,-0.008167093,0.041063014,0.10763472,0.20345213,0.21662576,0.155128,-0.0050189863,-0.12833846,-0.12814084,-0.13784514,-0.11984144,-0.06235967,-0.05037159,-0.0111255655,0.006902602,-0.022524772,-0.010858925,-0.010481834,-0.03507134,-0.021825867,-0.016341044,-0.002727542,0.059339963,-0.052440796,-0.065364435,-0.120574534,-0.15015355,-0.06831705,0.03394577,0.11119139,0.049420524,0.0882358,0.18711434,0.079033025,-0.054036535,-0.11271535,-0.13335161,-0.11490099,-0.090639345,-0.03950006,-0.049470767,-0.03657626,0.0047167586,0.012812899,0.014116974,-0.0043796427,0.031964988,-0.01517384,-0.028448474,-0.008997639,-0.003693931,-0.08854973,-0.057636283,-0.06998906,-0.07596258,-0.040354967,0.060049787,0.11163863,0.13446787,0.129275,0.09898067,-0.046359748,-0.1072766,-0.15909027,-0.12161572,-0.11949917,-0.03302708,-0.03262058,-0.025875703,0.01774367,0.03063386,-0.01065128,-0.03689266,0.017529529,0.00087934197,-0.03987227,-0.04652046,-0.026707437,-0.028530331,-0.124776095,-0.07083515,-0.018151289,-0.028914357,-0.04738702,0.009876487,-0.007945167,0.03225659,0.14616446,0.03340721,-0.11931124,-0.17015989,-0.11169347,-0.06558598,-0.07531331,-0.04408853,-0.030548254,0.002595112,-0.042290036,0.0053964923,0.021253578,-0.04760858,-0.03379828,0.017820831,-0.01563774,-0.04949293,-0.015213621,-0.035204574,-0.05137607,-0.017502472,0.09200245,-0.014124791,-0.04700035,-0.14347973,-0.074819446,0.023480762,0.046455674,-0.04077171,-0.09859325,-0.14380528,-0.037718024,-0.07262562,-0.055871986,-0.091526136,-0.013584835,0.0096754795,-0.0072544254,-0.008222608,0.011656009,-0.038514715,-0.03694699,-0.033800337,-0.02117062,0.0007422674,-0.050709326,-0.048100214,-0.015613872,0.092975415,-0.001590072,-0.01234743,-0.08571472,-0.1455546,-0.0065580253,-0.017120218,-0.07321563,-0.0556475,-0.09292512,-0.12992375,-0.088057704,-0.017260237,-0.047250718,-0.033624303,-0.012767134,0.010065784,0.026063055,0.013391713,0.00070280593,0.023246853,-0.012144138,-0.0076362826,-0.013156815,-0.011328934,0.041832373,0.00012133494,0.01233635,0.032093275,-0.058071405,-0.0050771767,-0.06630817,-0.11801134,-0.040604305,0.016052347,-0.0491213,-0.050490137,-0.07950595,-0.054541115,0.015863437,-0.018410008,-0.012880981,-0.007664777,-0.029584736,-0.01015306,0.019458227,-0.031388946,0.025281267,0.043339424,-0.0018335431,0.0025164573,0.0072923824,0.019248346,0.008806014,0.02708031,0.07582462,0.04924939,-0.012253815,-0.09215896,-0.09448643,-0.04861054,0.049524065,-0.029457752,-0.0870449,-0.0056330725,0.015879571,0.021791415,-0.008861646,0.034194574,0.03688907,0.021872338,-0.008636891,-0.045565452,0.034064963,-0.036270816,0.012315606,0.017231774,0.04359828,0.0766555,0.0788841,0.021281337,-0.014407318,0.019550372,0.09181898,0.038003895,-0.06793817,-0.06913962,0.044109683,0.0019252881,0.012102904,-0.08044864,-0.0040766634,0.08356759,0.03780477,0.031064365,0.06897009,0.017760778,0.03862653,-0.0024376232,0.0149760535,0.009078512,0.019615894,0.02824592,-0.022808233,0.008820695,0.049318224,0.054511655,0.044303205,0.00059966766,0.050063185,0.046827808,-0.005907383,0.018426796,0.012469613,-0.059381377,-0.00040408786,-0.051597737,-0.0076532713,-0.032264847,0.008821509,0.027826877,-0.0022611206,-0.03759331,0.029511176,0.027237417,0.02808199,0.02766556,0.0067719156,-0.007038682,-0.0328766,0.013457257,-0.032636385,0.0070863073,0.026479043,0.084500685,0.0011013646,-0.03393546,0.026315102,0.0015535633,0.001947314,0.042352002,0.02623152,-0.019031521,0.020368988,-0.059705976,-0.024961479,-0.012286421,-0.035238896,0.0075120702,0.0045035533,-0.010215924,-0.048080742,-0.05125736,-0.016525084,0.012916768,-0.00583152,0.008809283,-0.033509612,-0.018917605,0.026718335,0.021561004,0.0419876,0.04806753,0.0026649835,0.0144144995,0.009462213,-0.03300392,0.0017062462,0.04941073,0.049445517,0.002509889,-0.030839482,-0.04327512,-0.05839984,-0.045442175,-0.10878903,-0.011436244,-0.05431552,-0.10555756,-0.016169082,-0.07558468,-0.022285461,-0.028467083,-0.027052306,-0.0025460082,-0.019490946,0.026265316,-0.025427537,0.048067845,0.05688044,0.068748325,0.004078491,0.009167839,0.030562282,0.061164994,-0.02008389,0.017308505,0.01733242,0.043240413,0.00938048,0.048767813,-0.09159215,-0.0058948332,-0.06811571,-0.08636208,-0.04065284,-0.014702526,0.005913852,-0.029715879,0.023726873,0.03441137,0.02169647,0.034052964,0.008039684,-0.00144687,-0.024195917,-0.01932541,-0.0040616663,0.02380284,0.060939875,-0.008671961,0.006850751,0.04016522,-0.017441863,-0.046038475,-0.003288217,0.034803033,0.0032354777,-0.037823763,-0.07913211,-0.09924171,-0.11696421,-0.084889986,0.04207167,0.014444536,0.019777209,0.0626548,-0.0013314056,0.0056619663,-0.032206323,0.006838753,0.02212743,-0.004722556,-0.018147701,0.03507652,0.026893057,0.031807587,0.03691705,0.022962332,0.05049894,0.044261966,0.02064883,0.010898763,0.015334699,0.10351761,0.008840368,0.025479099,-0.0049411175,-0.019340917,-0.081751995,-0.07091131,0.013439173,-0.0033108192,0.026828753,0.010561053,-0.0025004153,0.017613234,0.00079281244,0.009016872,-0.0028965941,0.005344751,0.01324692,0.024937324,-0.033382762,-0.012508971,-0.025408981,-0.0060318676,0.03708889,-0.001900656,0.028977135,0.05397175,-0.012057877,0.066445686,0.032509584,0.036590744,0.066236734,-0.0067649004,0.057857554,0.019813089,-0.013457861,0.012908532,0.0149419205,-0.0069170757,-0.011555284,-0.021603962,0.027855834,0.03094886,-0.0038099177,-0.031670596,-0.002184838,0.0023847737,0.02425593,0.0033405882,0.016583003,0.023068728,-0.005207438,-0.009995625,-0.015292503,0.001809341,0.040252075,0.003801869,0.03771297,0.033731204,0.023946581,0.04557899,-0.020687649,-0.008122911,0.036054563,0.0024657804,0.04328606,0.019655902,-0.009032501,0.027518542,-0.019784765,0.001383568,0.008027643
0.016029794,-0.032952126,0.0017519891,-0.0092471335,0.023155943,0.012015853,0.014314178,0.021473568,-0.007995751,-0.0022881962,0.02865192,-0.028785327,-0.024690486,0.002608223,-0.0141505,0.0020454535,0.031549156,-0.004141928,-0.030452216,-0.016234402,0.032798953,-0.007846635,-0.015659925,0.016075946,0.0044212937,-0.031488556,0.029742386,0.020111602,0.031042326,0.015628546,-0.012041211,-0.011658831,0.017307933,-0.0070874305,0.006808202,-0.034659114,-0.017654369,0.013265986,-0.002037451,-0.0175072,-0.031339884,0.022691922,-0.007191299,-0.035117287,0.034392558,0.017306892,-0.021399546,-0.026085023,0.034506097,0.00014283265,-0.021479826,0.020550845,-0.0074391984,0.002446536,-0.018604774,-0.030249814,-0.02371867,-0.003921535,-0.025855273,0.035200316,0.0001107841,-0.014130626,0.013989668,-0.03166771,-0.018273957,0.013368492,-0.030918812,0.017054882,0.0024733895,-0.029826865,-0.035507604,0.011109994,0.01663986,-0.0072722384,-0.031666204,-0.020632204,0.0037715156,0.001286213,0.009141906,0.0063168113,-0.0018711482,0.018848622,0.03464335,0.029743347,0.032452714,-0.012053691,-0.012189815,-0.0039500482,0.010093053,0.014112274,-0.0032454976,-0.023063172,-0.0271903,0.03338104,-0.011031348,-0.006119744,-0.022727696,-0.01821576,0.0072636497,0.014243486,-0.014817998,-0.013593164,0.027793983,-0.018664034,-0.026750006,-0.0056184125,0.034001254,0.0077681886,0.004930587,-0.0044468716,0.022317458,-0.017701818,0.024214678,0.008437291,0.003970828,0.004916988,-0.022507282,0.02624583,0.018663311,-0.027861474,-0.033583518,-0.0112813,0.02112147,-0.019773707,0.031441953,-0.019763552,-0.034866232,0.013059801,-0.023579633,-0.0071227336,-0.0125473365,-0.003687858,-0.031503998,-0.03288351,0.0153529635,-0.0040731207,-0.021559926,-0.000909809,-0.03259759,0.009480085,0.016960822,0.034636308,-0.029090317,-0.004322954,0.018905709,0.032398935,-0.025246833,0.015480606,0.014312752,0.020055063,-0.02670026,0.023527026,-0.017706567,-0.02479445,0.0031351312,0.026199289,-0.027433122,0.015770575,-0.006943777,0.009540229,0.026773538,0.009153779,-0.029899638,-0.010960683,0.0069708787,-0.030175094,0.005918477,-0.019189123,-0.007099185,0.0127789425,-0.028734915,-0.022917071,0.015820077,-0.03563351,0.025506867,-0.026691955,-0.0006629985,0.0061404444,0.012265456,-0.024576927,0.0021064784,0.011729178,0.026371365,-0.030997276,-0.021675829,0.0061517176,-0.004546805,-0.027123889,-0.031755812,-0.032810763,-0.025647365,-0.015605014,-0.025061494,-0.031475402,0.00274556,0.020934142,-0.016838819,0.003579909,-0.00042906773,0.016692376,-0.02529949,0.0012495086,0.034337323,0.025574848,-0.03632391,-0.007613534,-0.0022030156,-0.014848892,-0.027211979,-0.029542511,0.019337216,-0.016082527,-0.0068949033,0.005811271,-0.025796503,-0.00029736166,0.01889907,-0.022912923,0.008853587,-0.0020602348,0.01919093,0.023509957,0.009417557,0.0009862203,-0.030743953,0.014219503,0.021769175,-0.013040737,-0.036033895,0.02828913,-0.0077520944,0.006771323,-0.011445749,0.020008817,0.03139533,0.01834394,-0.01585785,0.01982312,0.01288613,-0.00079028134,-0.033401325,-0.019977821,-0.039975397,0.020715743,0.031960454,0.018200006,0.009311853,0.0070479168,0.033807307,-0.018234294,-0.01187734,-0.0321545,-0.003536556,0.0024430333,0.009773021,-0.025261706,-0.004697418,-0.030057551,-0.028826335,0.0039123055,-0.03732296,0.0061122254,-0.037026487,-0.029414522,-0.01238205,-0.039839245,0.023727972,0.025515767,-0.022623004,0.0030578873,0.014448286,0.0084593035,-0.008038772,-0.037013657,0.023757607,-0.03319285,-0.007643904,0.001793379,-0.011747684,-0.01258303,-0.030866804,0.0019734064,-0.0040556192,0.030687755,-0.012045505,0.026357457,0.001427026,-0.017115857,-0.01066042,-0.00740942,-0.0027104206,-0.009681349,0.006346785,0.025801692,0.0019761338,0.009608495,0.019182567,0.0047799125,0.0130583495,0.015700186,0.029810391,-0.035326008,0.010574188,-0.0028971648,-0.0072950358,-0.01404875,0.021370422,0.032653272,-0.029146068,0.019308353,0.02464364,0.006085529,0.0004999236,0.027909404,0.001221942,-0.009499281,-0.0045402036,0.009636107,0.0071199164,-0.0045719957,0.00878006,0.0077330684,-0.030826086,0.0064503364,0.019021902,0.002362918,-0.0063145612,0.024420874,-0.03577071,-0.021107538,-0.019574424,0.029626094,-0.034756288,0.0032799884,-0.03471776,-0.0012277343,0.013312049,-0.008352691,0.0346884,0.00039184798,-0.018323747,0.009517173,0.018859344,-0.0003148584,0.02945533,-0.023689022,0.012413697,0.017271286,0.015525247,-0.0018678972,0.008398287,-0.030361108,-0.030473579,-0.0024528217,-0.0049094185,0.025778536,0.023617381,0.02032264,-0.020646846,-0.031534847,-0.03353048,0.012839969,-0.032274626,-0.035690133,-0.018049292,-0.030155312,-0.014083551,-0.022035575,-0.018455975,0.033802576,-0.0064505315,0.029584588,-0.0004340896,-0.0064306427,-0.013352286,-0.027984064,-0.030241003,0.022815961,-0.013011667,-0.037135042,0.030978832,0.0008681976,-0.023800364,-0.028089054,-0.031536028,-0.034032386,0.0282287,0.020940287,0.0018402305,-0.030631829,-0.009427498,-0.033569537,0.01230786,-0.009468983,-0.007659424,-0.010841839,0.016150417,0.017963385,0.0062890286,-0.0043212203,-0.004252826,-0.0026179182,-0.028990576,0.032572947,-0.017096438,0.018678164,-0.02222575,-0.0021462946,0.010783222,-0.032148946,0.016980726,-0.027407877,0.004583321,-0.00861088,0.017685346,0.032044064,0.005520892,-0.0013203855,-0.01777067,0.013295688,-0.017190091,0.014760619,-0.015525261,0.02421264,0.026128918,0.018720187,-0.0024908755,0.015623402,-0.032035753,0.027658578,-0.011613089,0.010650148,-0.0077258623,-0.0138239125,-0.018622339,0.020981755,-0.020102598,-0.0056168516,0.01899556,0.0035494803,-0.030295461,-0.03628506,-0.018931057,0.029610777,-0.028019367,0.019340537,0.025499063,-0.014825596,-0.01577167,-0.025686035,0.0055194665,-0.005240978,-0.00057016587,0.011250066,0.011996447,-0.013426754,0.0018735833,0.00863077,-0.0010110828,0.00519353,-0.01620357,0.027600529,-0.005791101,-0.006514626,-0.03224412,-0.025720278,0.0014484902,-0.0058953166,-0.017956516,0.018313171,-0.0065032863,0.009135201,0.027916798,-0.01682303,-0.017862018,-0.0072481614,-0.0030275057,-0.017875576,-0.008293157,-0.0009812665,0.014321,0.029143224,0.022641812,0.00202307,-0.0031428412,0.009687775,-0.0025479784,-0.0063317968,0.011283237,-0.03013225,-0.032315325,-0.0016846956,-0.011922351,-0.018325448,-0.033261664,0.024086324,-0.00142615,-0.021482252,-0.018270686,0.0061545526,-0.027384885,0.001961337,-0.00070355606,0.012078852,0.014147768,-0.023499588,0.015397132,0.027195714,0.0016068013,0.015043202,-0.017987937,0.0021832837,0.0069189663,-0.017701292,0.020710139,-0.03600363,-0.0150855705,-0.02248632,-0.022662176,-0.023663078,-0.035409167,0.0037906307,-0.008710675,-0.030803889,-0.0020583207,-0.009102065,0.011927455,-0.02976145,-0.010405688,0.0071858447,0.014976877,0.00258163,0.009624666,0.03549597,-0.012773681,0.023863608,0.030378714,-0.033747386,0.0048728418,0.015267711,-0.010599455,0.015966495,-0.0018266072,0.02429991,-0.0016784876,-0.025239376,0.024309367,0.0069637075,0.026121834,0.004395023,0.016230026,0.019641045,0.003155414,-0.010698598,0.0057780673,-0.025455689,0.0012327106,-0.011571497,0.0020881714,-0.028340947,0.02175343,-0.033166096,0.014880997,0.022857416,-0.03367052,0.030819362,-0.030233335,-0.012775964,0.012829503,-0.017182332,0.02693571,-0.020275917,-0.009103533,-0.02745114,-0.020915836,0.029409086,0.021347495,-0.0020574788,0.000286101,-0.03254514,0.025197778,-0.0066974238,-0.015449922,-0.02850287,0.02925164,0.016691878,0.021365894,0.0036466278,-0.024274368,0.01448301,0.0038157154,0.011415008,-0.009635454,-0.017958956,0.026456347,0.006536686,-0.020847127,-0.0035951643,-0.013858724,-0.009223773,0.013773528,-0.034617536,0.02573492,0.018005306,-0.0048964354,-0.01714059,0.005686588,-0.023869462,0.022263326,-0.019253423,0.006916074,-0.035279132,0.016699476,0.023939194,0.026679387,0.0029197321,0.02108705,0.012113248,0.023784898,0.019829717,-0.03154444,0.0032442461,-0.01378619,-0.020105548,0.02007819,-0.010234163,0.00027210568,0.016487159,0.017618215,0.013029215,-0.011301261,-0.035024755,-0.036488663,0.009427406,-0.0005111819,-0.022020852,0.014994621,0.031656187,0.020673774,-0.005260135,0.004616549,-0.02295538,0.016732512,-0.027682088,0.024656873,-0.01633681,-0.014267823,-0.030091478,-0.008827137,-0.003759613,-0.01703655,0.02420181,0.017842725,-0.034446668,-0.007502541,0.008213442,0.031204501,-0.011095289,0.020387955,-0.0023970308,-0.014411826,0.021170266,-0.031542175,0.029881658,0.035371196,-0.010322499,0.014107454,0.035655353,0.010798108,0.013829517,0.013019511,-0.014611624,0.008717798,-0.019034773,0.030497214,-0.01530766,0.008118642,-0.010560593,0.017595736,0.00015224043,0.0184435,-0.010591345,-0.022187795,0.012780062,-0.02038988,-0.029236704,0.014344396,-0.020967897,-0.013548299,-0.009342209,0.0024391755,-0.011841312,-0.012340289,-0.0090565365,0.024782415,0.010801396,-0.01720969,-0.024691574,0.0008275099,0.0114416145,-0.00074735656,0.020906799,0.030039938,0.010469526,0.011782317,0.020725133,-0.012248756,0.0062497393,0.028330065,-0.017549615,0.002290178,-0.013924175,-0.027356619,0.019438114,0.029064681,-0.019286,0.012979642,0.010274029,0.013407383,0.020489633,0.03450976,0.027824787,-0.031376716,-0.014009446,0.01896605,-0.020388264,0.0070127435,-0.015310859,0.0070932284,0.01742645,0.011225425,0.025944136,-0.0042920522,0.019401638,0.011552104,-0.011292859,-0.025517907,0.032024004,-0.011151478,0.026582468,0.022354819,-0.0011381162,-0.029538054,0.0022402678,-0.018019596,0.008686762,-0.014574291,0.028170938,-0.030761652,-0.008306213,0.006149099,0.003464084,0.029340208,-0.011284441,-0.028509095,0.023645833,0.009979643,0.023526538,-0.0211377,-0.020976625,-0.01442483,0.002540187,0.012099912,-0.020522628,-0.0033596016,-0.0065856087,0.032572087,-0.0130197285,0.034506008,-0.021931794,-0.015244936,-0.027621988,0.025894433,-0.024659907,0.014815974,-0.012896527,0.036796447,0.0063575255,-0.029765302,0.0065161963,0.004339839,-0.034543153,0.007167522,0.034074854
0.010277722,-0.0001899302,-0.0074036513,0.009522388,-0.015972158,0.0350233,0.036876764,0.024638278,0.0062641813,0.010908097,0.009049158,0.0589109,0.011003426,0.027285634,0.07133826,0.09141602,0.0010935275,-0.023119282,0.029365765,0.033204872,0.06137094,0.019147592,-0.0351647,-0.041120004,0.021261556,-0.0046019475,-0.011389388,0.011249319,-0.007019112,0.017072862,0.009057369,-0.015309036,-0.028416006,0.02475048,-0.008022741,0.011723229,0.037238147,0.019429496,0.04318476,0.022163425,0.06818608,0.07823721,0.1012549,0.04275329,0.028001996,0.019120762,-0.000114700546,0.046893835,0.031782325,0.039785907,-0.0066514867,-0.0030858505,-0.014385165,-0.0038858003,0.01503136,-0.032070257,0.0262203,0.024991913,0.014617888,0.026492499,-0.006169091,0.025073092,0.018831518,-0.003696786,0.027287653,0.025621688,0.026068892,0.005882089,0.0009730586,0.035181765,0.046567034,-4.6688518e-05,0.015594765,0.038129587,0.071291156,0.06527643,0.0086859865,0.024252517,0.012823259,0.01910917,0.017589737,0.01219256,0.02506983,0.022733767,-0.020237999,0.023406811,0.022190863,0.0021120678,-0.028528316,-0.014272682,0.035641864,0.037368935,0.06814954,0.06836727,0.042060204,0.03528942,0.023380687,-0.02220289,0.045320373,0.033674672,-0.01050859,0.030961856,0.018169992,-0.0055065276,0.0012513854,0.012079415,0.054630097,0.04302252,0.0254466,-0.024045963,-0.013344505,0.024267176,-0.0056911143,0.021371825,0.023874529,-0.017238487,-0.027530354,-0.0413109,0.03385072,0.037066497,0.0042407587,0.010525428,0.031563673,0.111005016,0.053131692,-0.014020387,-0.0064465874,0.0021324381,0.043280996,0.023609512,-0.056811415,-0.008893508,-0.034434382,0.007529356,0.027426979,0.028106868,0.013829332,-0.01690011,-0.024024248,-0.024167905,-0.01641063,0.004795242,-0.021325216,-0.017127493,-0.0268676,0.0066805156,-0.021786256,0.024165362,-0.02854474,-0.006590937,0.033221208,0.061141968,0.064642705,-0.013001981,0.053840693,0.110676736,0.043980666,0.13800961,0.03908721,0.034087196,-0.025049107,0.023160603,-0.02412309,0.031158637,-0.005367899,0.0047922977,-0.023813391,-0.02123463,0.0039595235,0.02773398,-0.026054027,-0.004918416,0.018261272,0.022227807,-0.024366599,0.027266014,-0.040861845,-0.06143836,-0.022736011,0.0029202048,-0.03811685,-0.072705075,-0.03308434,-0.06330046,-0.009544934,-0.056912858,-0.028990204,0.015148829,0.02827658,-0.0093531925,-0.022390636,-0.058404967,-0.058140557,-0.04872698,0.001595667,0.013053908,0.0008169511,-0.039211188,-0.04360848,0.0016292229,0.025194595,-0.025460342,0.014322129,-0.021715933,-0.0031331836,-0.06753776,-0.0073635625,0.06242701,-0.08260253,-0.12751016,-0.0670659,-0.0050381487,-0.08153753,-0.017350523,-0.06645771,-0.047152046,-0.06030288,-0.051656336,-0.035366587,-0.050148446,-0.050371863,-0.0022665472,-0.020257236,-0.012155557,-0.025926532,-0.03637662,-0.034176856,-0.01606818,-0.0012818441,0.013144887,0.018428434,-0.0054215854,-0.0085022375,-0.03827563,0.042274274,-0.052578688,-0.12768239,-0.12427713,-0.02787209,0.0055756494,0.0027448735,0.00030876734,-0.046782445,-0.07477953,-0.084508896,-0.064446956,-0.020025572,-0.038368125,-0.036630288,0.0054417145,0.009438319,-0.022539373,0.015892735,0.023789497,-0.014585643,0.004059759,-0.018722603,0.0062287184,0.021160848,-0.027061826,0.0148253655,0.02565652,-0.0038992302,0.0011574437,-0.0069657946,0.02330027,0.030868761,0.03562509,0.020844953,-0.013531695,0.05229302,0.015864138,-0.046244923,-0.05447422,-0.014604573,0.010550593,-0.0035721718,-0.007776978,-0.050838877,0.011768602,0.019978631,-0.022166908,-0.028731236,0.029624688,-0.0007374168,-0.023192404,0.0015522789,-0.045190692,0.04152823,-0.04274647,-0.01876379,0.048843883,0.06497629,0.060299695,-0.00019613226,0.052637946,0.09625585,0.03986563,0.11908895,0.05059753,0.04669479,-0.017056158,-0.048943207,0.005866038,0.018642005,0.010559764,-0.015190509,-0.020745855,0.005077785,0.026078776,0.021976665,0.021272853,-0.029408198,0.022218203,-0.0041139545,-0.053011693,-0.05885811,0.05317958,0.061697546,0.028770115,-0.011721471,-0.015556068,-0.059487343,-0.055990357,-0.021614252,0.026260376,0.042481113,0.010831736,0.0015231088,-0.027994875,-0.040928513,0.014262746,0.01166478,0.022502085,-0.005721561,0.0064112754,-0.01024984,-0.0090060895,0.004214451,-0.009868151,-0.0068415534,-0.020465577,-0.0032040123,0.015597587,-0.0059351083,-0.012569572,0.06933892,-0.09906015,-0.029749207,-0.027900249,-0.010454123,0.03664062,0.01635676,0.031001339,0.003598761,0.02633312,-0.00068022875,-0.044882495,-0.004145442,0.054516286,0.022286784,0.024210593,-0.017607316,0.0030376178,0.02073475,0.0030016005,0.0051596845,-0.01730078,-0.037988145,0.039928425,-0.021190694,-0.0126720285,-0.00078436,0.0219921,-0.0045608203,-0.012963931,-0.026990917,0.03917566,0.1069269,0.084422335,-0.032587726,-0.03130066,-0.01564234,-0.009762444,0.03575384,-0.011080906,0.031826444,0.067201786,0.03999994,-0.0029832495,-0.0018115122,0.042267412,0.011686847,-0.008322982,0.007324851,-0.019900054,-0.017838735,0.065036386,0.025214303,-0.06943158,-0.08180521,-0.00814462,-0.02898165,-0.028627306,-0.015916338,0.11117586,-0.005174785,-0.086101376,-0.100133516,-0.07433289,-0.039044395,0.0036298544,0.04070961,0.017157964,0.11465373,0.0726519,0.04547881,0.0014805647,-0.019675257,0.011690312,0.041961882,-0.008669368,0.008840409,-0.019556874,-0.0049070017,-0.0089094965,0.011816309,-0.0052634077,-0.08265556,-0.04564568,-0.001895566,-0.05765159,-0.011903663,-0.0012939791,-0.14990436,-0.16736959,-0.055737432,-0.036727928,-0.020835964,0.035036936,0.1152031,-0.04307725,0.042771947,0.043408353,-0.0034715962,0.05046768,0.015886556,0.0066036666,-0.014935294,-0.014285637,0.03372351,-0.01504283,0.021223186,0.0063678105,0.0042265537,-0.08648485,-0.08787875,-0.034140524,-0.008441355,0.0015856985,-0.04932981,-0.07666852,-0.14091833,-0.1615219,-0.03889146,-0.0034768668,0.01397057,0.058178082,0.08365618,0.025955174,0.05268353,0.008578606,-0.019357374,0.019049214,0.022245383,-0.002961161,0.023071658,0.0068695755,0.015124667,0.024839131,0.012213993,0.05521742,0.0415002,0.007398075,-0.04819654,-0.013453419,-0.048808824,-0.065744385,-0.16956858,-0.20965557,-0.15842777,-0.054911487,0.03675625,0.061598063,0.0660158,0.022260703,0.05118802,0.045546457,0.05227078,0.027515747,0.021271296,0.024354806,0.0059389053,-0.0026623008,0.0061638136,0.014699786,0.017760152,0.06896532,0.09115028,-0.017737828,0.046555247,0.041209888,0.009316798,0.08825086,0.05800589,0.0043657124,0.018787663,0.05431034,0.031545714,0.141685,0.18436693,0.124923274,0.078878246,0.019179923,-0.03880232,0.018508561,0.036524348,0.13655895,0.08525804,0.08273476,0.048979204,0.04168673,-0.018498352,0.017376693,0.055712122,0.052510437,0.051056016,0.03744849,0.060699373,0.0692078,0.0856925,0.09593129,0.21906622,0.15036467,0.2136368,0.18824233,0.22663967,0.15853202,0.1303196,0.10552498,0.06887639,-0.026944831,-0.036213484,-0.0061263917,0.016822988,0.025798537,0.0824602,0.031261608,-0.011707586,0.047376208,0.003077587,-0.0074456823,-0.009124007,0.00023874766,0.041736968,-0.02148391,0.010762313,-0.0026885225,0.12923805,0.11806212,0.25785437,0.23514858,0.13620424,0.26131535,0.22109427,0.18971527,0.10363559,0.014431719,0.013799238,-0.023109807,-0.055546466,-0.00897272,-0.05293931,0.006358033,0.04185193,0.027460368,0.01755638,-0.0132379485,-0.024340738,-0.02469527,-0.0057973135,0.04184323,0.043871533,0.013347809,0.06467813,0.055711262,0.04088471,0.077050254,0.14037575,0.16868567,0.17788716,0.14879715,0.12034038,0.022773419,-0.004100777,-0.024723452,-0.051361777,-0.016801938,-0.06416887,-0.05785587,-0.017478472,-0.034194995,0.0077197263,-0.03639143,0.021829369,0.018244375,-0.008126987,0.015617804,-0.015446936,0.012934708,0.010820212,-0.01717281,-0.020085,-0.003171925,-0.001802245,0.006737706,0.07211012,0.07764036,0.06037458,-0.07102031,-0.09565299,-0.10127297,-0.085174136,-0.1403108,-0.11345611,-0.09654444,-0.088981405,-0.059829257,-0.0031322816,-0.014434389,-0.033316,-0.008447974,-0.00216336,-0.006557404,-0.027442638,0.0118454695,-0.019638397,0.011882645,-0.06861196,-0.10873392,-0.1251819,-0.1191382,-0.040460642,-0.091645606,-0.060703017,-0.19747554,-0.10850537,-0.19830711,-0.23406845,-0.19020121,-0.20999065,-0.19031753,-0.20173946,-0.10130008,-0.09790626,-0.046038784,-0.067738876,-0.061851434,-0.044727944,0.007157981,-0.024908239,0.017505264,0.010933893,0.0143127,-0.018788721,-0.039648376,-0.07510869,-0.12480026,-0.10904629,-0.15944636,-0.15073767,-0.14657609,-0.18338667,-0.2968314,-0.2773977,-0.24884954,-0.27312633,-0.20395547,-0.23889126,-0.2343686,-0.17674357,-0.10237119,-0.115057774,-0.04045207,-0.019595359,-0.007461392,-0.04415509,0.023452343,-0.038726337,-0.028701946,0.021111133,0.0006946298,-0.02016963,-0.010273505,-0.053805027,-0.09312089,-0.09837279,-0.0670504,-0.0923856,-0.14196013,-0.2031093,-0.18081687,-0.22129512,-0.19150464,-0.18504833,-0.18568423,-0.17328705,-0.13894115,-0.10311312,-0.09909745,-0.06875846,-0.080064304,-0.006746692,-0.0057050725,0.015855018,-0.008198461,-0.031346824,0.00554024,0.014527524,0.028833069,0.014143666,0.013754309,0.020706175,-0.03942992,-0.0074978913,-0.022070894,-0.038085956,-0.06924035,-0.15509391,-0.112322,-0.106744215,-0.13922189,-0.10954225,-0.13813043,-0.12254622,-0.10569463,-0.069980785,-0.07625572,-0.0801616,-0.012942758,0.003149531,-0.015053673,0.01957328,0.023380414,-0.009651567,0.0013791546,0.006291084,-0.006998536,-0.008795952,-0.015854536,-0.02115407,0.0035272446,-0.033910286,-0.043617424,0.00055925903,-0.042163197,-0.03513435,-0.056469187,-0.10846447,-0.08183063,-0.047557894,-0.10946378,-0.10479461,-0.07774513,-0.052909907,-0.030256035,-0.011364692,-0.0347397,-0.0049653477,0.029565139,-0.0276597,-0.028104046,-0.029003123,0.021348529
-0.032758284,-0.017367892,0.024121225,-0.021419449,0.028966134,-0.017618537,0.005542603,0.009327165,0.008003992,0.04065535,0.05477763,0.003943868,0.04093917,0.031068988,0.033246934,0.01538202,0.049636003,0.068684965,0.021019729,0.013535744,-0.015743013,0.01503626,-0.0056296266,-0.009162557,0.03394889,-0.008671007,-0.021815289,0.003212545,-0.019602193,-0.010478725,0.018866032,0.008230265,-0.026018616,0.03264702,0.028302738,-0.015528978,0.038191035,0.0410315,-0.010267171,-0.003217154,-0.0036996233,0.03987089,0.030606046,0.0394233,0.015345111,0.05771628,0.035661906,-0.0005976162,0.0017254272,0.020033136,0.012333014,-0.0047621992,-0.024442298,-0.021404792,0.03169273,-0.020043228,0.025381757,-0.011896545,0.00046825994,-0.03484672,-0.012916177,0.031175854,-0.02506143,0.027434997,-0.0010730847,0.050542016,-0.0014095799,0.00931865,0.017259907,0.025577879,0.033814296,-0.008067365,0.04520386,0.05166361,0.049785312,0.052095048,0.032239024,-0.009698797,-0.0067037246,0.022144243,0.013546901,-0.011190695,0.027494997,-0.030319376,0.030660711,0.020031739,-0.025368148,-0.03112861,0.024961423,0.03703498,0.02284979,0.023480168,0.07482038,0.09108739,0.04110731,0.09179034,0.096046284,0.05845203,0.055898022,-0.00991573,0.012453608,0.031705044,0.029359456,-0.004809558,0.005974626,0.004273397,-0.045220178,-0.006707994,-0.014185677,-0.0300093,0.0068721035,0.0023832838,-0.018922817,-0.03482825,0.025357883,-0.03071638,0.0008029345,0.04197339,0.04179666,0.042136274,0.02864138,0.056222007,0.02073967,0.06290293,0.05914621,-0.020741003,-0.009517843,-0.022772506,-0.021973314,-0.035863113,-0.013790084,-0.0815794,-0.047174517,-0.05343595,-0.0106649455,-0.042025976,-0.029478861,-0.007016946,-0.012345051,0.031812318,-0.013062321,0.0046553523,0.010118744,0.00917284,-0.011130655,0.036276862,0.05593196,0.0373713,0.09943554,0.04201183,-0.007583252,0.02585961,0.037478935,-0.050934274,-0.05284625,-0.07488183,-0.044622496,-0.049739778,-0.07034225,-0.07664707,-0.137489,-0.09538211,-0.070486315,-0.004036779,0.019871078,0.04302408,0.05267298,0.04139095,-0.027517384,-0.03204011,-0.002440205,-0.038165372,0.03004516,0.03653517,0.10223393,0.07612642,0.14558946,0.05316996,0.0077581746,-0.003909196,-0.004886512,-0.05228416,-0.06456559,-0.11578704,-0.08545714,-0.075733766,-0.06618327,-0.11088734,-0.15728283,-0.12600514,-0.093392566,-0.051974513,-0.033821303,0.034024317,0.032342747,0.04081609,-0.015047742,0.02779557,-0.0012970316,-0.0049299584,0.039991222,0.067290395,0.0941749,0.14315434,0.05499625,0.037432145,0.0059659365,0.0135027915,-0.021385713,-0.11415741,-0.13665909,-0.13830091,-0.14552532,-0.14860708,-0.07534013,-0.102242574,-0.123626135,-0.06840294,-0.043222174,-0.024136344,0.0020323754,-0.005480934,0.020312399,-0.017551852,-0.011456119,0.04082699,0.00086173316,0.042126365,0.08017722,0.026908817,0.05470145,0.10102371,0.07901308,0.06498931,0.034811,0.019300926,-0.07077836,-0.13512902,-0.10483243,-0.1118816,-0.13687186,-0.07808449,-0.058306225,-0.05661317,-0.0039834334,-0.004902914,-0.035164207,-0.008618753,-0.0070958007,-0.029623123,-0.020730214,-0.028013475,0.032055896,0.038396314,0.04037812,0.051986083,0.062372454,0.07965626,0.056001913,0.10055087,0.089612976,0.08539054,-0.055402223,-0.026750358,-0.13905081,-0.1375406,-0.063968256,-0.056053214,0.023381438,-0.029442053,0.07107189,0.031265166,0.1014239,0.10546496,0.0071853236,0.022606706,-0.011318224,-0.010311739,-0.0077255634,-0.03617448,0.04060838,0.02676033,0.024640707,0.046414997,0.04786007,0.08711611,0.10417406,0.078674816,0.10784871,0.071695015,-0.047890026,-0.08948355,-0.13357061,-0.11487798,-0.024904605,0.030408664,0.03787281,0.06884689,0.11062305,0.09798349,0.11807224,0.13540347,0.033983618,0.053353727,0.04107776,0.037106927,0.041311603,0.030197179,-0.011972507,0.04118966,0.019047286,0.037410416,0.0774356,0.0769882,0.017598204,0.059561126,0.029571826,0.08569508,-0.030117255,-0.13097532,-0.112389505,-0.05008524,-0.017407939,0.09292006,0.118629016,0.11632784,0.08769588,0.08954735,0.12559113,0.12740652,0.084586956,0.06701208,0.0328404,-0.010349897,0.008321053,0.011987821,0.043966357,0.030783283,0.05225283,0.048908755,-0.0015215075,0.018057035,0.06430698,0.108592175,0.046447072,0.04596157,-0.060054716,-0.10487775,-0.091176525,-0.055189967,-0.030960592,0.07831904,0.10130808,0.090866335,-0.025954561,-0.025132505,0.0131669305,0.040358346,0.09708843,0.09177695,0.05220027,0.048260234,-0.0014742059,0.007923952,0.031580664,0.02671515,0.061054632,0.042169455,0.0042803697,0.0423845,0.05870176,0.049419194,0.0644972,0.03347793,-0.034108847,-0.09254272,-0.15569709,-0.063306026,-0.020317245,0.03759981,0.035221398,-0.053085707,-0.047338925,-0.08960363,-0.030758338,0.006605348,0.04823008,0.07001344,0.06500181,-0.008739046,0.024534594,0.032624613,-0.013438327,0.032303482,0.059105463,0.0529712,0.049550228,0.06021759,-0.004105689,0.08220983,0.054390006,0.0407075,-0.024736397,-0.06494218,-0.057428382,-0.040573273,-0.03137319,-0.06624492,-0.0296423,-0.067938894,-0.035343498,-0.05127686,-0.05763175,0.0061433623,0.092252426,0.09717683,-0.002955091,0.023714127,0.0013934526,-0.02758561,0.020787507,0.04622352,0.06260103,0.017812122,0.02654267,0.019970262,0.033585902,0.016656984,0.059864223,0.00082519755,-0.0142065,-0.023565428,-0.052483704,-0.052124437,-0.03148932,-0.050912682,-0.059719026,-0.015203115,-0.08085181,-0.04801654,0.019800443,0.0055732075,0.065900244,0.0318698,0.028241241,-0.028939474,-0.0041200574,0.010662093,-0.00070264284,0.0069050947,-0.0047980584,0.06125488,0.054012276,-0.014574161,0.007172832,0.0152333975,0.05960186,0.09423691,0.0488707,0.01054247,-0.019395346,-0.056641687,-0.07312852,-0.08919231,0.0073312274,-0.008888552,-0.037004128,0.0032427926,0.03929087,0.0054582376,0.043212865,0.019755526,-0.023763074,-0.011036947,0.027431564,-0.0067741824,-0.009323604,-0.021607667,-0.008033148,-0.006572641,-0.010252971,-0.012339249,0.012690257,0.028131053,0.06811648,0.09292672,0.037859574,0.009320047,-0.030570803,-0.11380105,-0.026998032,-0.019871728,0.005677971,0.017596368,-0.047610868,-0.00015558314,0.003643688,0.03213389,0.025609156,-0.044812948,-0.04205103,-0.035404075,-0.01368319,-0.027974699,0.024153894,-0.025540126,-0.0101589095,0.031598452,-0.018917264,-0.018284664,0.0029679092,0.049317643,0.04004992,0.042855646,0.037399627,-0.0065415706,-0.06751275,-0.07247441,-0.036845002,0.019107949,0.04963235,0.0468853,0.00458962,-0.026271332,-0.0031174577,0.02160241,-0.02409637,-0.015886245,-0.037654974,-0.023433724,0.011014165,0.008035886,0.006654434,-0.013360582,0.027803905,0.04146435,0.0013657927,-0.02681174,-0.0654481,-0.0035672253,0.026017878,0.045270484,0.029606875,-0.031492118,-0.102163695,-0.06317443,-0.023214234,-0.035835642,0.08927901,0.09151932,0.004901578,-0.0516451,-0.024153491,-0.023691505,0.022207115,-0.062325086,-0.008130555,-0.025492327,-0.0076640397,0.020866416,0.0021576271,-0.025744462,-0.015870322,-0.010166486,-0.014564741,-0.024064643,-0.031082211,-0.0325057,0.032966074,0.04966114,0.09215196,0.017144544,-0.002454313,-0.0012831569,-0.0062555717,0.040783763,0.043043304,0.031289633,0.019010844,-0.03409938,-0.017309166,-0.016795542,0.011536859,-0.006500612,0.0016641582,-0.061510116,0.014894234,0.008735476,0.018868294,0.012677164,0.026917575,0.042507496,-0.008711261,-0.029617416,0.046353653,-0.00787887,-0.0105359405,0.095475435,0.10693308,0.06039376,0.046154283,0.012736365,0.07665617,0.07663506,0.0685183,0.019124972,-0.042199295,-0.04241811,-0.060372237,0.006855577,-0.050813533,-0.065105796,-0.069867,-0.00839821,-0.01631952,-0.006682705,0.007336382,-0.007928443,-0.006576743,-0.014375883,-0.0021253056,-0.031132834,-0.012807827,0.02858845,-0.025454352,0.027534593,0.021834027,0.039260082,0.02912288,-0.021376837,0.020357843,0.018795848,-0.012939188,-0.057598896,-0.0046230634,-0.06553653,-0.068430096,-0.051181167,-0.024215542,-0.056313414,-0.05235541,0.002192194,0.01853491,-0.013040437,-0.028939094,-0.010508209,0.016840046,0.015241016,-0.010252868,-0.04067396,-0.024634684,-0.0098189255,0.038350854,0.0065672565,0.04354713,0.03811961,0.0155889075,-0.033498194,0.046396073,0.0040980917,0.004999703,-0.029413905,-0.03966118,-0.06487192,-0.036808174,-0.038071826,-0.04018338,0.0026488502,-0.054561507,-0.0024027338,0.019849285,-0.00023993336,-0.02258847,0.0021351567,0.011997407,0.01854068,-0.012754233,-0.022946265,-0.015851634,-0.020203969,0.029791784,-0.0015032904,-0.0038448756,0.0474649,0.07621601,0.06418148,0.008921653,0.06758178,0.068249635,0.04613771,-0.0048912656,-0.0022885588,-0.005716313,-0.052113146,-0.046157885,-0.013994489,-0.03201077,-0.020060053,0.024997083,0.01503207,0.031054886,0.00036858246,-0.017198287,0.023898173,0.0007739346,0.0034749086,-0.011479218,0.019420505,-0.0364637,0.02722116,0.030823922,0.013287808,0.030848257,0.03818739,0.023645947,0.017950986,0.043724395,0.05093869,-0.015915103,-0.023584351,0.0035696845,-0.0076125953,0.010220393,-0.005029946,0.0020356637,-0.008915302,-0.008082119,-0.020548688,0.023890788,0.032602794,0.014071866,0.0040653385,-0.0083395,-0.035389036,-0.0060740174,-0.020981424,-0.028570522,-0.012070046,-0.011692167,-0.011851259,-0.047520928,0.015676247,-0.03969084,-0.017960813,-0.021500163,-0.0056536035,-0.007191635,-0.026491143,-0.013252658,-0.02439249,-0.022286387,-0.009547201,0.005599805,-0.03556165,-0.025302483,0.027901832,0.016149461,-0.0009549125,0.0011271593,0.0051162317,0.01101723,-0.022030149,-0.0095635,-0.034749832,-0.035455126,-0.014069173,-0.021956166,-0.0028528047,-0.023456974,-0.036096353,-0.025237346,-7.6464494e-05,-0.0240407,-0.0017136354,-0.0100717265,-0.040534813,-0.010918773,-0.036288455,-0.022227159,-0.026263425,0.024214277,-0.033876237,0.033960216,0.013390981
-0.024135476,0.029588912,-0.007869985,-0.03022577,-0.004921584,0.017785475,-0.03455697,-0.0049557094,0.01206347,-0.014042768,0.0027223153,-0.0145345805,-0.024964733,0.024822088,-0.027401729,0.0023317565,0.011216305,-0.024040965,0.01358517,-0.03225642,0.033243187,0.015456974,-0.0049703135,-0.030144192,0.001054692,0.012662106,-0.019396765,-0.0044977237,-0.035592016,-0.035703678,-0.003878735,0.030001892,-0.0014995959,0.011565271,-0.015708497,-0.014631302,-0.006849947,-0.019603193,0.020446286,0.020819072,-0.032454815,0.0048128776,-0.017124971,-0.019744113,-0.00852418,-0.016589772,-0.022429118,0.0017725943,0.019315554,-0.00500564,-0.0031491183,0.0019142536,-0.015996644,0.016258845,0.029288752,-0.0054733097,0.0024277866,0.028776292,0.029252108,-0.026475793,-0.016449096,-0.03488916,0.01956963,0.024447044,-0.014903727,0.009435442,0.008056456,-0.03155119,0.009872208,0.015199519,0.0024067862,0.0039614607,0.0073493654,0.024626015,0.029940922,-0.0009301057,0.012214094,-0.009663911,0.021198912,-0.013797706,-0.030257067,0.01256085,0.009263589,0.006413213,0.015195306,0.004253105,0.012082744,0.014345742,-0.018965967,-0.0017805393,0.004075669,-0.005550322,-0.027004061,0.008118129,0.025748257,-0.022110265,0.028008102,-0.0005627344,0.010956965,-0.015984394,-0.034994848,-0.022188446,-0.0043414272,-0.023687715,0.028099712,-0.027155401,-0.024591783,-0.010228559,0.02911281,-0.023174794,0.029952584,0.01707016,-0.005423987,0.018658204,0.017104452,-0.016649688,-0.0034969803,0.038178816,0.023697427,-0.013146118,-0.0058367103,0.023719937,0.016231682,-0.009964295,-0.037331365,-0.02597925,-0.010794638,0.0109133655,-0.016640356,-0.035353515,-0.026740648,0.019707888,-0.038238816,-0.045539413,0.009087186,0.030476533,-0.03816619,-0.03414694,-0.010562606,0.037291344,-0.020297352,0.003494365,0.029115984,-0.010679634,-0.0072366516,-0.02172821,0.005009109,0.036470406,0.0076649087,0.018580077,-0.0076474417,-0.015389409,-0.015603982,0.018096596,-0.018848334,-0.065302365,-0.045492105,-0.008119522,0.011760329,-0.022753257,-0.03233966,-0.040474605,-0.04287509,0.0064034136,0.028205328,0.015267498,0.015848337,0.029287223,0.024427194,0.020309776,0.018940719,0.011439333,0.015562019,-0.029961826,-0.021035763,0.0053912583,-0.0068587265,-0.047078937,-0.027018277,-0.021525744,0.03425,0.024609929,-0.037360977,-0.043174177,-0.05515652,-0.011426526,-0.08119597,-0.052909642,-0.036249164,0.008808414,-0.02875079,0.01936466,0.025147466,-0.0068586776,-0.0063344757,-0.005803707,0.015248193,-0.014110041,0.014698524,0.0036440587,-0.03371643,-0.027529418,-0.011722478,0.035593897,0.0030365167,-0.01841892,-0.026389739,-0.027094651,-0.010910169,-0.031027105,-0.0681526,-0.09731965,-0.09021854,-0.09178693,-0.04547076,-0.01905433,0.0039767516,-0.04126756,0.017373336,0.00663548,0.027009748,-0.00200053,0.020304397,-0.03046193,0.011193918,0.027423814,0.014312551,-0.034576744,-0.0074214432,0.0055410336,0.037112415,0.0066532,-0.0014993248,-0.028695075,-0.017720046,-0.008835934,-0.02823705,-0.019609874,-0.007394886,-0.019961191,-0.051086187,-0.007224927,-0.00016788882,-0.038745377,-0.020932892,-0.026667455,0.0042115487,-0.004168812,-0.0050007943,0.027407039,-0.015318891,-0.023415832,-0.027399348,-0.02314246,0.029385712,-0.018910307,-0.0015041571,0.035726584,-0.010887776,-0.008177641,0.01756786,-0.02388899,-0.029555416,-0.0077611757,0.0130504,0.028422296,-0.0015437835,-0.054548714,0.010820343,-0.044609603,0.02059916,-0.013069813,-0.024199314,0.023857065,-0.04355978,0.0055604163,0.023274614,0.023706703,-0.035571378,-0.002957865,0.035849802,-0.039038114,0.0026854593,-0.02044613,0.018441748,-0.010280823,0.017194295,-0.017939866,0.002636848,-0.017331643,-0.017251289,-0.0021775896,-0.00022882558,-0.006342124,-0.010137164,-0.04439632,0.012546623,-0.0421392,-0.026052741,-0.022502925,-0.04889593,-0.0042659924,-0.014774157,-0.02372056,-0.0015412715,0.027278338,0.009177565,0.025057942,0.0015492005,-0.013643285,0.022128426,-0.027388712,-0.02766929,0.021228656,0.0077701407,-0.039307136,-0.025524247,-0.03885086,-0.0086708395,-0.00018364767,0.02470559,-0.0083417045,0.015566998,-0.010652325,0.009017842,0.00074371306,-0.023459623,-0.025154753,-0.022226801,0.020536523,-0.0146539,-0.013069131,0.0036350247,-0.024513008,-0.014685507,0.03090081,-0.016770307,-0.0105373645,0.021865774,0.00015068329,0.01875515,-0.043032173,0.000800391,-0.024926037,-0.05588893,-0.03825483,-0.021118788,0.03218884,0.019077195,-0.0065367883,0.056322757,0.016630445,-0.010377688,0.018860217,0.045416385,0.053140406,0.02468947,0.021238456,0.0052950797,-0.00493236,0.0033384177,-0.010637344,0.018598778,0.00046469492,0.010427573,-0.021001939,-0.014891938,0.023563718,-0.006001428,-0.0056339195,-0.052973855,-0.044890765,-0.02324532,0.0017946643,0.050136063,0.02917689,0.06949053,0.021596232,0.0405047,-0.043332636,-0.024965702,-0.035977237,-0.0132475905,-0.009641243,0.009256603,-0.0038627167,-0.0033005502,-0.010260995,0.028896885,0.033018876,0.014705856,0.02816598,-0.0005691114,-0.010914781,0.007326415,0.02412307,-0.008371141,-0.038105793,-0.011334013,-0.04305819,-0.013791991,0.05044584,0.0425832,0.03124935,0.025804197,0.06541895,0.04466225,-0.025482453,-0.01920208,0.008094211,0.023302728,-0.019845117,0.0039193872,0.017440572,0.018023822,0.0002119989,-0.023785114,-0.040859852,0.018679742,0.033336356,-0.010650144,-0.03066213,0.011120652,-0.022270337,-0.020314986,0.00996981,-0.018314136,-0.025251145,0.04669365,0.042141292,0.09606158,0.050465014,0.09233716,0.056883313,0.05374024,0.019606309,-0.0030795,0.030171454,0.046182714,0.024868984,0.015604056,-0.026355201,0.03126258,-0.029505648,0.026460154,0.009681216,0.0029361881,-0.031929135,0.032382023,0.02278744,0.032541525,0.012774049,0.0115404725,-0.014395224,-0.031812392,-0.0011873642,0.030488078,0.047703333,0.08109078,0.07242676,0.01911028,-0.0017293338,0.004185351,0.026614934,0.019730195,-0.014552285,-0.000751979,0.01378663,0.013705419,0.022127375,0.00847795,-0.023881622,-0.003291959,-0.017200137,-0.02295147,0.020703755,-0.0047020447,0.016996745,0.0272386,-0.00062263117,0.0134628,-0.040120278,-0.0041817403,-0.019651545,0.0035053769,0.04154803,0.012294923,0.07423362,0.06739835,-0.009732311,-0.0016251708,-0.041273102,0.0015640515,0.017618027,-0.025246255,0.016431801,-0.005788041,0.040596485,0.03834475,0.013921667,0.022752635,0.0082675945,0.030780744,-0.003279383,0.00891138,-0.0067274915,-0.0031562718,-0.015712768,-0.023355385,-0.007686964,-0.018574715,-0.06376905,-0.09501036,-0.035794444,-0.05374932,-0.001488644,-0.030195218,0.012964201,0.012247726,-0.021041991,-0.03675288,-0.02416717,0.025846703,-0.0013759191,0.009444787,0.0014184531,0.020460738,-0.011795025,0.016502578,-0.02785774,-0.00932469,0.0288403,-0.020351574,0.025737643,0.01551553,-0.014677518,0.0056021004,-0.042078905,-0.028312618,-0.040531166,-0.05993817,-0.10330161,-0.08299481,-0.082458034,-0.105723605,-0.048062045,-0.05050067,0.0061505656,-0.0074898335,0.024979193,0.03492513,-0.0030364674,0.005907364,0.0128631415,-0.010100061,0.020906752,0.017603496,-0.028515734,0.022680093,0.024579618,-0.012079309,0.0028088535,0.0010595825,-0.0066875187,-0.030049121,0.014637383,-0.005837871,-0.06440138,-0.09847828,-0.044660266,-0.080836885,-0.08670119,-0.047208074,-0.0627202,-0.0054812077,0.05558029,0.0269326,0.0766753,0.008553017,-0.005604306,0.031682845,0.009531091,0.02085205,-0.006883251,0.006048803,-0.011289472,0.022482969,-0.0028837812,-0.00084793265,0.02352275,0.03109864,0.031594638,-0.034445275,-0.019497344,-0.00938009,-0.02103276,-0.005025073,-0.013938613,-0.039449174,-0.04690928,-0.022431616,0.002427054,0.0070511126,0.0014225203,-0.0008401747,0.04880795,0.028436407,-0.0068369824,-0.013540254,0.01014087,-0.018093912,-0.026808808,0.003178439,0.02875895,0.026090821,0.019629378,-0.027935311,0.018873757,0.017756188,0.013745053,-0.0020287975,0.01488514,-0.0032684421,-0.0011342337,0.002620974,0.009050109,-0.023659205,0.0038098895,-0.03561236,-0.026756706,0.017200198,-0.011998289,0.055866152,0.05597065,0.022070646,0.010024893,-0.020546818,-0.0002554458,0.00010319747,-0.028273612,0.0030604913,-0.0070241787,-0.013748374,-0.0007212859,-0.03466774,-0.024751542,0.005700044,0.039600573,-0.012767337,0.03424113,0.023153927,0.004081767,0.004535544,0.03280681,0.03147084,0.06480439,0.016225327,-0.0026143093,0.060168557,0.021148669,0.0605666,0.055415206,0.023127258,-0.02731398,-0.03887914,0.008126843,0.0019666282,0.015188582,-0.037709665,-0.0091191,0.02841479,0.01787178,0.029739557,0.029081583,-0.00843075,-0.022302482,-0.0148927495,0.02280745,0.0067163645,0.021496605,0.018703096,0.04155897,0.06073587,0.0653385,0.03202538,0.051880524,0.01702556,0.033441726,0.026364423,0.007276127,0.043801107,-0.0104735615,0.00612768,-0.0045735803,-0.0022839105,-0.02113737,-0.005253411,-0.03317148,-0.017313583,0.027290113,-0.033442564,0.005844455,0.005635913,-0.033501368,0.010132805,0.023300892,0.03978307,0.028903296,0.05630325,0.03273838,0.037537936,0.033093344,-0.0067641092,0.017327368,0.009063257,0.078668304,0.055759102,0.0074507035,0.003806525,0.0061669266,-0.033234965,0.00020132672,0.016926976,0.0032049315,-0.0045389496,0.022895414,0.015775945,-0.031780317,0.021038929,-0.02813279,0.020166699,0.030729674,0.0049101096,-0.008568428,-0.009531495,-0.001979659,0.017532358,0.014949792,0.06275446,0.0092566265,0.038234603,0.0006438497,0.053026907,0.06525704,0.0036189517,0.014783132,0.017062934,-0.031504583,-0.021742245,0.01174799,0.03378889,-0.011710144,-0.0011858109,-0.03433602,-0.03415415,0.031059917,0.030307408,-0.010884609,-0.014122048,-0.002294499,0.017926874,-0.031378414,-0.010700385,-0.00058056234,-0.0025734648,0.017416907,0.036937967,0.014925046,-0.023199731,0.0546335,0.05927126,0.03064435,0.02409396,0.01760823,0.02957943,-0.033242676,-0.020015467,-0.0035082486,-0.0066138348,-0.023603048,-0.03482461,-0.027208548,-0.0055467645,0.03031693
0.023677856,0.010294408,-0.021935131,-0.014389613,0.0034331235,-0.034778282,-0.003500394,-0.0038662755,0.019023933,-0.009904094,0.035886332,0.003121566,-0.018264335,0.02903835,0.018874828,-0.0401672,-0.022469698,0.030141693,-0.0012183337,0.044079363,-0.0028679695,-0.003919146,-0.009963249,0.032063108,-0.011693476,-0.006203668,0.023330173,-0.024435513,-0.00017203018,-0.027571471,-0.032962512,-0.008555123,0.0025615697,0.026771968,-0.037384354,-0.022358201,-0.0010280162,0.007041683,0.012928059,-0.03414026,-0.021306017,-0.017223114,-0.046191122,-0.0009987549,-0.051864214,0.02299243,0.028611397,-0.0037421035,0.01251891,0.030430006,0.023565942,0.022928234,-0.020706581,0.011959523,0.028616901,0.0070005883,0.021631163,-0.023625638,0.024399908,-0.0017782615,-0.031831484,-0.009730481,0.025661247,-0.02945268,-0.025302675,-0.03347864,-0.044535533,-0.02304163,-0.0062885913,-0.02387524,-0.01390058,-0.009393068,-0.044133794,-0.014699205,0.019104274,-0.03873282,0.008021916,0.005996254,0.0038918823,0.010540473,0.03650755,0.03463671,0.017500762,0.017863149,-0.019821681,0.0120035345,-0.026620107,0.012751014,-0.026303684,-0.0025749237,0.016889054,-0.0073651876,-0.01818503,-0.047670655,-0.051221736,-0.049098164,-0.021262486,-0.008982434,0.044104345,0.035120312,-0.028888213,-0.018291136,0.0018964896,-0.066335894,-0.022994028,0.03507405,0.018460853,-0.028768169,0.014962679,0.02436784,-0.03476091,0.020247793,-0.022587672,-0.027313333,-0.01774652,-0.01907629,-0.024751678,-0.006228504,-0.013609174,-0.034118596,-0.04305751,-0.11533664,-0.13081141,-0.11892632,-0.05661875,0.012003082,0.14611895,0.117867336,0.014446375,0.028456632,-0.09425161,-0.06283315,-0.09705322,-0.019266242,0.013762696,-0.021309262,0.018592097,-0.01955745,0.019208128,0.032632053,-0.029613998,0.011397031,0.020204064,0.024569679,0.003964592,-0.03719832,-0.05000946,-0.058982782,-0.120307155,-0.1248356,-0.10359047,-0.09699595,0.03495956,0.11097975,0.21397753,0.23180579,0.032367583,0.062041096,-0.051651426,-0.072134465,-0.09290008,-0.04414715,0.01698725,-0.017519165,0.005158382,0.016549716,0.002511347,0.003280598,0.020837206,0.02345079,-0.016134612,-0.04749813,-0.05615524,-0.025270686,-0.07087948,-0.07115461,-0.15996599,-0.19062342,-0.1561368,-0.15464677,-0.02743789,0.1402266,0.23196343,0.16927877,0.040728025,-0.050481305,-0.15904891,-0.15092179,-0.11154833,-0.06240126,-0.054514404,-0.022576686,-0.04456665,0.021784324,0.00707989,0.00683424,0.005319795,0.001577243,-0.0030827387,-0.054765265,-0.04465109,-0.016531644,-0.019592585,-0.08551328,-0.13013679,-0.10350907,-0.16007486,-0.07338426,-0.056416746,0.09839481,0.22319011,0.17701387,-0.016685735,-0.07074146,-0.08122621,-0.08200806,-0.10732944,-0.056317706,-0.0075436155,-0.028335478,-0.042576358,-0.04482052,0.007145444,-0.002942898,-4.2326505e-05,0.0040030372,-0.047032915,-0.05311091,-0.07617855,0.009778339,-0.018263124,-0.0028084943,-0.093694374,-0.16091627,-0.14154738,-0.13401969,-0.12894122,0.08515558,0.276925,0.21526851,0.05185019,0.016089411,-0.09828264,-0.10858646,-0.047890954,-0.057361916,-0.002786736,0.036159832,-0.026005154,0.044322908,0.014306785,-0.028803349,0.007954241,-0.004790925,-0.04665338,-0.054901443,-0.04723201,-0.0025152164,0.02912616,0.016810322,-0.038111612,-0.06478427,-0.13399583,-0.10177989,-0.06510348,0.21165876,0.40546292,0.12594853,0.012261763,-0.04031086,-0.1145116,-0.11442562,-0.043355316,0.043630205,0.011643964,0.049123242,0.027578749,-0.0019582107,0.024230454,-0.0062295063,-0.014872035,-0.017461723,-0.024747152,-0.028366609,-0.050600532,0.043068796,-0.017283073,-0.011642212,-0.021316249,-0.08292978,-0.06254139,0.013798749,0.02909704,0.11486351,0.19733919,0.019217921,-0.06618668,-0.14116415,-0.099142365,0.014994584,0.04624274,0.014086966,0.040464953,0.05327565,-0.035409354,0.024851928,-0.0049333493,-0.012449365,2.008958e-05,-0.019438704,0.007031181,-0.012841657,-0.030983208,-0.0118250465,0.02936691,-0.03001554,-0.008671258,0.03795149,-0.028049856,-0.045115057,-0.015201149,-0.057550006,-0.0643979,-0.042757887,-0.02599711,-0.10223709,-0.06613249,0.033934172,0.066839576,0.063451864,0.0039363564,0.020980086,0.008201629,0.014150416,-0.0014510636,-0.02992019,-0.036366522,0.003962602,0.0016941285,-0.038906395,-0.049001645,0.0015871571,-0.024361013,0.046641827,0.023995765,0.060820892,0.019924898,-0.086941235,-0.13410634,-0.14376608,-0.12537277,-0.094628,-0.043309644,-0.074630834,-0.0613432,0.037684105,0.053439822,-0.035888698,-0.005896297,-0.030144185,-0.010933644,0.009347725,0.0072400845,-0.013932599,0.0022553557,0.019006351,-0.027620435,-0.015874505,-0.048013687,0.005619303,-0.01202847,0.016339352,0.040748265,0.13627301,-0.010560235,-0.028314376,-0.115902014,-0.12400253,-0.1489646,-0.17123562,-0.10245931,-0.06115504,-0.06005851,-0.038521793,0.0073420927,-0.024418214,-0.12224384,-0.08746183,-0.03772902,-0.021757584,-0.031735945,0.017137066,-0.004074318,-0.009783057,-0.016774846,-0.022025099,-0.039035153,-0.023810005,0.025796197,0.048413184,0.052889485,0.09683324,-0.041480653,-0.074133426,-0.043308083,-0.07644464,-0.117465034,-0.13766415,-0.036980845,-0.13594876,-0.13798758,-0.047106143,-0.057107452,-0.1093563,-0.08503061,-0.1199212,-0.034071937,0.0137642855,-0.034633175,0.0001132286,0.019269222,-0.012784639,-0.019579578,-0.022548733,-0.039642565,-0.017351162,0.049044438,0.04282507,0.047324024,0.068130285,0.0049168123,-0.02634779,-0.017028578,-0.052119784,-0.060270213,-0.08318084,-0.027847849,-0.08986983,-0.07942284,-0.06156211,-0.10238164,-0.16618069,-0.07935575,-0.021055734,0.005157527,0.02781464,0.023168158,0.012058044,0.013158762,0.043924533,0.015098087,0.03224547,0.06317959,0.042824887,0.078979015,-0.010689023,-0.007885229,-0.0021072328,-0.0032415802,-0.053841922,-0.04416485,-0.029898735,0.10541179,0.05783061,0.037577223,-0.045204904,-0.10042159,-0.09767238,-0.06331444,-0.062123213,-0.005125075,-0.013257841,0.047077198,0.026953636,0.020406218,0.035317596,0.00048186298,-0.0031625442,0.014005512,0.06931288,0.11625654,0.084046334,0.050909534,-0.026034057,-0.006285197,0.02076868,-0.04033518,-0.07777554,-0.09553069,-0.027491832,0.05158885,0.0374909,-0.016129708,0.04041905,-0.0054359403,-0.051375758,-0.04420872,0.023451174,0.04758338,0.07346376,0.120526545,0.052158874,0.0051542255,0.006448713,0.03432821,0.04103974,0.068367556,0.06838285,0.09835268,0.018719783,0.03891399,0.0022718727,-0.022735659,-0.073301286,-0.1456608,-0.056112114,-0.06654375,-0.027527282,0.038747422,0.107771546,0.02785601,0.10496294,0.032295074,-0.032315418,-0.06261065,0.053814117,0.042262495,0.06186082,0.0938159,0.044194918,0.03880973,0.055485964,0.0054849894,-0.0007454932,0.054627247,0.04949659,0.11869592,0.04490733,0.07245886,0.017625384,-0.04095344,-0.077185735,-0.07293212,-0.058655202,-0.04283746,0.057583958,0.10372189,0.21565633,0.16357565,0.17329264,0.09826572,0.07159137,0.043041646,0.018054659,0.07278675,0.06395866,0.111512646,0.09157909,0.025264258,0.04750938,0.048733223,0.03434544,0.010687925,0.064155765,0.10000282,0.03982513,0.05321462,0.015069681,0.0063519427,0.0013298811,-0.0012725688,0.024458515,0.0059822733,0.016081804,0.15455605,0.20288296,0.17035471,0.0915519,0.15308928,0.12233886,0.034001853,0.06604131,0.08952459,0.10388309,0.064735286,0.013539632,0.020276966,0.02134168,0.006774936,0.0346023,0.0091358675,0.08135064,0.10830027,0.09876035,0.06701146,0.03736943,0.07567832,0.06634917,0.1001323,0.058418296,0.0644488,0.057383496,0.10585743,0.11927765,0.06847106,0.04762819,0.067648366,0.07318852,0.06481944,0.04544472,0.027294978,0.080000356,0.029046617,0.0656395,0.015393862,0.042955536,0.03289795,0.00964883,0.039991047,0.076460466,0.044266544,0.05727179,0.0589157,0.06627494,0.121270694,0.13783866,0.06442483,0.08783297,0.038422022,0.09019415,0.044531707,0.03788728,0.023518229,0.039843597,0.016444737,-0.012981115,0.05562953,0.022814913,-0.0111658685,0.01407654,0.029797016,0.040383063,-0.0067494367,-0.014881814,0.02226208,-0.012178602,-0.0022451128,-0.010035636,0.03503707,0.012367724,0.050694697,0.069164306,0.11465096,0.066043094,0.13086224,0.027162425,0.03310539,0.00027539668,0.01899968,0.046993904,-0.086062826,-0.013505908,-0.048510868,-0.008872958,-0.026418876,-0.029432587,0.024912322,0.011880531,0.02285434,-0.023401648,0.009524814,0.033041116,0.006784424,0.01101604,-0.019083105,-0.022368426,0.021296043,-0.042478185,-0.0062011667,-0.025152685,0.029732322,-0.012805142,0.06954374,-0.0034768388,-0.12834781,-0.08933433,-0.10858453,-0.113422,-0.11862867,-0.027533451,-0.06577695,-0.020311538,-0.05626901,0.010466954,-0.016253635,0.012548331,-0.027516425,-0.028431125,-0.0075501124,-0.019464578,-0.010390373,-0.015285577,-0.008530378,-0.0260501,0.013062561,-0.012066401,-0.037556157,0.02211429,-0.026633149,-0.08673605,-0.10211969,-0.13199218,-0.10006479,-0.13458256,-0.1892853,-0.17207286,-0.17082691,-0.11725597,-0.07492132,-0.108723775,-0.073042974,-0.047416598,-0.035735335,0.010436377,-0.047337677,-0.028093848,-0.011942046,-0.03469781,-0.032141697,-0.010721285,-0.00627306,0.026422173,0.010124764,0.027661297,0.012048284,0.006286285,-0.04944344,-0.07562499,-0.09010902,-0.059673347,-0.061564904,-0.10801635,-0.100040905,-0.081961684,-0.11765269,-0.08182702,-0.07796483,-0.061556406,-0.07018334,-0.0111460155,-0.046842776,-0.04321482,0.012668465,-0.032922834,0.027633293,0.015863165,0.013783891,-0.0044227107,0.006789031,0.009580188,-0.017186383,0.022063874,0.015795661,-0.016236717,-0.02343304,-0.051993333,-0.03822052,-0.036411077,-0.043777905,-0.079369694,-0.05879098,-0.07464857,-0.08691969,-0.1371794,-0.09028752,-0.008980692,-0.048670106,-0.03357638,0.0031566562,0.024646742,0.0052196207,0.006240532,-0.0018956416,0.0009000227
0.014410675,-0.033595044,-0.034573305,0.024032071,-0.03494898,0.019121973,0.025327707,0.014700087,-0.0049436423,-0.022785868,0.0056148157,0.013875689,-0.024035955,-0.063397124,-0.023315005,-0.048022423,-0.018565103,-0.05741659,-0.039089974,-0.044874202,-0.01186821,0.02420108,0.0054383106,0.031932507,0.027284423,-0.026153969,0.03052493,0.001983676,0.029903006,0.006908528,-0.0061001596,0.030277831,-0.026465451,-0.0014455544,-0.012354559,-0.01119104,-0.03787909,-0.0039421692,-0.02104635,-0.008039114,-0.01620111,-0.0106718885,-0.04318039,-0.09895728,-0.07494818,-0.06429219,-0.06708926,-0.056005105,-0.015208768,0.024813358,-0.02645832,0.016753927,-0.016998155,0.02342146,0.018483266,0.01442673,0.031497777,-0.026912201,-0.030242758,-0.018049194,0.0041771573,0.019617572,0.010544883,-0.0008248981,-0.033452306,-0.051328838,-0.0059272656,-0.066700526,-0.059101433,-0.04383056,-0.047485534,-0.054136977,-0.035565104,-0.03610568,-0.027269423,-0.04473824,0.009332693,0.01807135,-0.019889085,0.027336298,-0.005625904,-0.026354095,0.0019563406,-0.010519672,0.029727837,0.0024034183,-0.0076109604,-0.02758142,0.02257551,0.013507649,-0.024129217,-0.028295677,-0.044906657,-0.034074403,0.010505915,-0.048269182,-0.050040364,-0.0876166,-0.05654745,-0.10049863,-0.05916538,-0.046813276,0.023053244,0.00030342143,-0.04182905,-0.019514568,0.0057678693,0.01968163,-0.014770472,0.009850792,-0.0038389077,0.018721424,-0.01932635,-0.023033593,0.018383,0.0018916451,-0.0114243245,0.021026507,-0.03567226,-0.063624665,-0.040766604,-0.056669306,-0.021485807,-0.06341911,0.0061460244,0.017770562,-0.081476636,-0.052269258,-0.04207648,-0.0496881,-0.043892752,-0.035077915,-0.004239145,0.025440801,0.034059674,0.022628456,0.050581932,-0.017082283,0.00045632795,-0.03153093,0.017699732,0.009653953,-0.017370291,-0.020180209,0.0030326897,-0.011526918,-0.034609027,-0.05820211,-0.05618501,-0.0067663183,-0.013054485,-0.0110176755,-0.011538535,-0.0047636586,2.0857842e-06,0.01776903,-0.0003672891,-0.051547885,-0.013320843,-0.044598766,0.018867947,0.045563865,0.0054781185,0.06263244,0.020002857,0.027918573,-0.009730678,0.030930307,-0.02852182,-0.010709682,0.012642487,-0.0060832803,0.0131867165,0.043923642,-0.028008528,-0.041684095,-0.03610436,0.04051672,0.02221501,-0.037913643,-0.0056165867,0.014845409,-0.00998171,-0.026864028,0.030803183,-0.0075889425,0.033058297,0.008516535,0.058457434,0.047834467,0.0751796,0.052050684,0.041734256,0.0575898,0.011274989,0.0050915824,-0.033416905,0.03480271,-0.008363328,0.030445445,-0.0146027915,-0.010076938,0.003983386,-0.045615822,-0.05958489,0.011957336,-0.025410015,-0.06156542,-0.05072428,-0.03951016,-0.044736166,-0.022586064,0.005772211,-0.05170685,-0.037460122,0.072776936,0.025630558,0.020975519,0.07876073,0.10215964,0.02955741,0.07226832,0.06069901,-0.005007852,-0.032289654,-0.020406878,-0.007482465,-0.0071168165,-0.0110117635,0.0040919357,-0.024851475,-0.06023065,-0.00051937083,0.0014557731,-0.016961327,0.011147981,-0.027681705,-0.013545911,-0.034059066,0.021697266,-0.049039595,0.0050652814,0.031757593,-0.010155837,0.022810558,0.05868119,0.0022349663,-0.003456663,0.039204694,0.053495735,-0.0047532157,-0.0048829485,-0.009670697,0.02820703,0.010384412,0.0024629394,-0.027079627,-0.010754131,-0.006002116,-0.0032345923,0.006746215,-0.07457072,-0.04068112,0.04844578,0.02722689,0.038602922,-0.037332367,-0.012811938,-0.02974868,-0.060525727,-0.10108849,-0.024266219,-0.016374376,0.012402706,0.010157431,0.03579355,0.043836705,0.07039682,-0.0033649795,-0.033922855,-0.015159888,-0.02584163,0.033647764,-0.019038277,-0.009230672,0.024695804,0.006824768,-0.074092045,-0.065251365,-0.021617308,-0.04955262,-0.043686777,-0.0043157777,-0.025696237,-0.062381223,-0.019097526,-0.11078811,-0.058952678,-0.11067562,-0.06393005,-0.0070160446,-0.005720177,-0.0019951826,-0.07387256,0.014243252,-0.023774993,-0.03208589,0.015451502,-0.020469172,-0.017805327,-0.0059201154,-0.032657508,-0.015981382,-0.021445232,-0.01999505,-0.046726808,-0.005867408,-0.05793448,-0.015233508,-0.04463468,-0.0024675983,-0.025162306,-0.038072992,0.018735137,0.0009178066,-0.070438325,-0.037262097,-0.05634221,0.027066171,-0.014665042,-0.05206126,-0.06350357,-0.070307545,-0.01742909,-0.034158427,-0.03340724,-0.0096651465,0.007712677,-0.010536783,0.032086134,0.045290288,0.02368375,0.014831124,-0.033460796,-0.049533654,-0.06707803,-0.080740765,-0.016438073,0.007949962,-0.07817054,-0.081111304,0.037935175,0.023646677,-0.011943554,-0.03582958,-0.0077264416,0.018980386,-0.0510356,-0.056307845,-0.084677994,-0.07404739,-0.03814301,-0.035431057,-0.016425196,0.008026806,-0.0035206089,0.02336784,0.043775942,0.023658153,0.05182855,-0.01361631,0.0046976204,-0.017678022,-0.09073472,-0.035024513,0.0023504803,-0.02468796,-0.10263413,-0.019603381,0.07746877,0.04607818,0.056070548,0.00054163404,0.022457158,0.0066327415,-0.02948086,-0.031110423,-0.107536376,-0.069030076,-0.026185412,-0.01705112,-0.027236735,-0.02789088,0.004911047,0.031443212,0.0314163,0.005296598,0.015372582,0.02236668,0.022957418,-0.091613926,-0.04845429,-0.102490425,-0.063372605,-0.072799146,-0.1173646,-0.084228456,0.05996355,0.0782255,0.019134013,-0.03509238,-0.0031661687,-0.02000333,0.02887119,-0.034515694,-0.045316808,-0.056574762,-0.06108323,0.008687986,-0.038861573,0.011638266,-0.028738262,0.022138303,0.024642643,0.07783858,0.06307932,0.02874776,0.078742586,-0.0062262192,-0.007959961,-0.0031621114,-0.05059648,-0.08275777,-0.1171623,-0.058262628,0.01070026,0.08743242,0.04908254,0.025912894,0.012233417,0.00089778844,0.0209068,0.007257656,-0.06396202,-0.052204203,-0.074862376,-0.055219494,-0.016451424,-0.010474295,0.015285858,0.031547785,0.016467331,0.06401031,0.057295304,0.1441996,0.17477724,0.13438965,0.096832454,0.04750063,0.016734751,-0.05160971,-0.11886654,-0.058073226,0.036447074,0.06633841,0.072036654,0.06770896,0.05809582,0.028095113,0.05942339,-0.010100091,0.009675227,-0.039302465,-0.072525196,-0.038065787,-0.032454785,0.020714408,0.020927979,-0.0144787785,-0.03910634,-0.035053276,0.011142643,0.10034242,0.14563666,0.13987894,0.09263523,0.13103561,0.0043084626,-0.017756395,-0.024191648,0.05307805,0.13252598,0.12799457,0.12473164,0.088968165,0.05531159,0.03860016,0.013174232,0.008252242,0.029337568,-0.07928113,-0.043097712,-0.020322887,-0.009424835,-0.029583493,-0.021885332,-0.03013971,-0.041754577,-0.08753362,0.012258195,-0.034429196,0.007886506,0.04654486,0.042453438,0.07393817,0.004802532,-0.06938496,-0.03617808,0.04421815,0.13791978,0.18627337,0.16691908,0.0729054,0.03417516,0.040063612,0.027378177,0.01719427,-0.06731689,-0.037201725,-0.05257822,-0.016134653,0.0020603181,-0.016291,0.009262522,-0.042587955,-0.023137083,-0.07195105,-0.046032082,-0.02257768,0.030241638,0.008803241,-0.057459105,-0.023503914,-0.028469391,-0.13182484,-0.07308875,0.006699122,0.1422235,0.12678537,0.08506428,0.063303724,0.09493722,0.016474653,0.038378406,-0.013460387,-0.0636418,-0.020052109,-0.07102392,-0.0054431926,-0.016366092,-0.013870569,-0.037706725,-0.0022397356,-0.031121686,-0.052320592,-0.029439364,0.033185776,0.044110954,-0.06623134,-0.10570834,-0.10872112,-0.12995173,-0.18508707,-0.13593991,0.005846974,0.09954835,0.111068256,0.09552081,0.056965157,0.06318842,0.060384247,-0.007817103,-0.009963777,-0.030319069,-0.004138393,-0.012428391,-0.028470365,-0.021660186,0.011889578,-0.019766241,-0.05003208,0.004462998,-0.047788583,-0.03259513,0.014092055,-0.027108116,-0.13750046,-0.08450845,-0.10410685,-0.1113641,-0.12036347,-0.068921514,0.03287698,0.051208023,0.1256398,0.11006893,0.10009255,0.10588866,0.12004392,0.020349395,-0.0064456644,0.040720347,0.029577147,0.0092317145,0.035828795,0.0010387023,0.034572616,-0.021940064,-0.036373597,-0.02834,0.009367194,-0.06068687,-0.023568576,-0.07562936,-0.137729,-0.12494326,-0.08341888,-0.0998449,-0.1348591,-0.021806562,0.08005748,0.019044692,0.09689764,0.14509705,0.10231266,0.09778823,0.09696928,0.044270672,0.06785183,0.011409401,-0.0032418533,0.0021991704,-0.023661923,-0.03392429,0.009265624,-0.0049181334,-0.016388144,0.0059067234,0.0035004513,-0.030055983,-0.056518216,-0.04562754,-0.09016359,-0.06534849,-0.059803706,-0.03208088,-0.02349915,0.020398758,0.036881793,0.06632401,0.14711925,0.1735269,0.092619635,0.10052847,0.085168466,0.05663507,0.0028756845,0.043738246,0.00021184895,0.028464999,0.015077883,-0.0032841964,-0.0030353619,0.01225767,-0.017458113,-0.012961506,0.0043557393,-0.059580535,-0.029710561,-0.040441893,-0.074403845,0.004287848,0.02595032,0.040044885,0.00992759,0.04028771,0.05506969,0.0662321,0.1208937,0.1415512,0.14187479,0.092405245,0.10751759,0.011728672,-0.02522773,0.035255957,-0.02644005,0.033958685,0.03570322,-0.02117603,0.02354633,-0.0068598897,-0.010955178,0.0024930744,0.0087728035,-0.048158467,0.007958475,-0.0032200685,-0.037185643,0.017475637,0.021338072,0.04613298,0.03512637,0.037984796,0.054019064,0.111979134,0.09370522,0.14450867,0.1306284,0.10060739,0.05580251,0.03411928,-0.015848797,0.038996685,-0.014182019,0.020955967,0.012094075,0.025698315,-0.03386953,-0.0034528263,-0.03614986,-0.032587547,0.004659629,-0.024936354,0.00432606,0.007837253,-0.0027616906,0.008401642,0.04269468,0.063833326,0.05181764,-0.00471609,0.051402654,0.037079252,0.03821684,0.08131003,0.086908184,0.042758565,0.06203672,0.0411492,0.027850436,-2.7589922e-05,-0.0018343087,0.016060764,-0.025560867,0.033749815,0.0044387653,-0.03319677,-0.02065484,0.017429644,0.0075773178,0.019361835,-0.029045187,0.010887762,0.03746711,0.035677575,0.023595255,-0.0071745343,0.069881596,0.052007854,0.04957613,0.053796567,0.066558674,0.026078494,0.037999462,0.046907857,0.028361982,-0.0085250875,0.031221999,-0.0148922615,0.035895273,-0.01884296,-0.0009712485,-0.013808971
-0.019555246,-0.011779424,0.023017745,0.011795808,-0.0032956237,-0.02868349,-0.019827668,0.02495489,-0.012256979,-0.02629448,-0.020977993,-0.016757846,-0.027759371,0.00013802953,-0.022993065,0.01763676,-0.04268444,-0.027887356,0.0016404131,0.011446847,-0.022477152,0.008550558,-0.022195954,-0.023004843,0.019390212,-0.00217671,-0.026135573,-0.0013813749,0.031432096,0.008153982,-0.007147232,-0.006470246,-0.02129678,0.02009921,0.0005861491,-0.015518324,0.006601809,0.013976099,0.0014578669,-0.010314647,-0.04945445,-0.0242522,-0.039374754,-0.02231315,-0.03220711,0.0010279475,-0.03192565,-0.019870425,-0.02649162,-0.023787387,-0.005944351,-0.019950666,-0.016678553,0.0035433914,0.014991588,-0.01699744,0.019552935,0.010998947,0.027768783,0.0034846694,0.029236339,-0.032514624,0.009140201,-0.033659663,0.01282915,-0.011043736,-0.00563291,0.022846125,0.019558908,-0.026062762,-0.039999772,-0.00454204,-0.04068066,-0.032583967,-0.034734417,0.028924698,-0.005734364,-0.00082095555,-0.027043076,0.010706835,-0.03750325,-0.009938202,-0.005518014,0.020826802,-0.0026815098,0.0058234725,0.027972275,0.012943103,0.029044716,-0.012598776,0.021119315,-0.00819305,-0.0058304286,0.007436123,0.036361303,0.00036731074,0.0024521695,-0.0046240655,-0.033059895,-0.015942546,-0.04503096,-0.034263276,-0.0065730326,-0.0023094118,-0.009198492,0.022052106,0.011077774,-0.00055546156,-0.023717972,-0.015730219,0.030059358,0.007085866,-0.03204652,-0.0044137547,0.008756661,0.010386137,0.031131413,0.0012768722,-0.0035914737,0.027907435,0.0017937304,0.015230182,-0.021585062,-0.006274738,-0.001573555,0.031528726,-0.024219526,0.00021840923,-0.055876855,-0.051455855,-0.017058482,-0.03818165,-0.03993961,-0.009613678,-0.020649817,-0.009493573,0.014439007,-0.01288162,0.0022058147,0.03344978,-0.014650729,0.014699832,0.030993301,-0.004007638,0.031229347,-0.010219892,-0.007531442,0.009573036,-0.009075277,-0.009937625,-0.00044215677,0.015032624,-0.0028999448,-0.02804229,-0.03781215,0.0077478723,0.0022922782,0.0024763234,-0.029849596,-0.033033893,-0.0857918,-0.0624512,-0.0024444682,0.010036385,-0.020797266,-0.020563764,-0.03091444,-0.018463612,0.012580515,-0.019889146,0.022514004,-0.009308246,0.031904597,-0.014031106,-0.0076634204,0.008488818,0.016046835,0.0332624,0.047128174,-0.009237561,0.059713174,-0.002120647,0.022874247,0.016852243,-0.0112361,0.03771266,0.021204168,-0.023007879,-0.053839304,-0.05036096,-0.043032203,-0.020794604,-0.008108498,-0.0298838,0.010587607,-0.025273545,0.02299654,0.034106173,0.009490507,0.032693215,-0.0032116536,0.01923172,0.02288056,-0.03739759,-0.037417993,0.005527471,0.032840103,-0.016856136,-0.004850333,0.018676283,0.006440221,-0.01673029,0.008583848,0.067859106,0.007430065,-0.05833844,-0.08775855,-0.06977973,-0.04137718,0.017399864,-0.009325526,-0.030668462,0.0064375256,-0.0013142941,-0.01989804,-0.031216146,0.011668493,-0.0015796948,-0.014962299,-0.019858835,-0.004366888,0.03366448,-0.031088255,-0.0055412776,-0.0059760218,0.0057482403,-0.014830938,0.009729473,-0.026325852,-0.0055712834,0.031771798,0.014321789,0.030874046,0.0038827166,-0.0141703,0.012033233,-0.03499142,0.014499338,-0.03359969,0.015722433,0.010941686,0.00067016203,0.010707918,-0.03394697,0.034855492,-0.005401369,0.03253437,0.014742407,0.00058014994,0.03859175,-0.004070615,-0.025509981,-0.029337466,-0.07564023,-0.056556214,-0.043086305,0.044226266,0.032063168,0.04642765,-0.006865596,-0.03884026,-0.024551975,-0.03185643,-0.00030323846,-0.038774624,0.0072340504,-0.04938622,0.0016818662,-0.035319917,0.02812158,-0.010907808,0.022675935,0.0025579208,-0.019118793,-0.009618498,0.008592654,0.03868254,0.045329116,0.038891844,-0.024977377,-0.049533915,-0.042303342,-0.025276797,0.026802879,0.079125375,0.057089213,0.037209343,0.0100632,-0.04001458,-0.04411936,-0.06366503,-0.09069066,-0.03703595,-0.019982772,-0.027493315,-0.022239745,-0.010002817,0.0013258518,-0.012161702,-0.0003656765,0.018567603,-0.018999917,0.001290311,-0.02168137,-0.029862296,0.013360538,-0.02568337,-0.03034041,-0.039199278,-0.033639405,0.03259957,0.022204315,0.10518628,0.08236689,0.033002555,-0.039857905,0.026441615,-0.06547115,-0.08789192,-0.07685826,-0.030718666,-0.054294158,0.008242649,0.0071833036,0.020728633,0.0254117,-0.014934286,-0.00579642,0.022296729,0.021099327,0.033111613,-0.022916468,0.006825883,0.011553555,0.0006866072,-0.06819715,0.02421555,0.026553573,0.07676543,0.08522623,0.013223382,0.03672838,-0.025528273,-0.015027591,-3.1479078e-05,-0.09097136,-0.107992254,-0.076160096,-0.017822875,-0.026052864,-0.038037546,0.023831462,0.017269824,-0.008392384,0.009728138,0.0091983685,0.03883697,0.025225773,0.010847277,-0.005198789,0.011169203,-0.020251036,0.0019428176,-0.011437507,0.022488145,0.08206126,0.070788376,0.0065008574,-0.015797578,0.016504275,-0.024654374,-0.046011772,-0.0034118723,-0.10290815,-0.03700018,-0.008240577,-0.034630854,0.007004994,0.020697692,-0.03483756,-0.019560883,0.0036103688,0.013182787,-0.022646494,-0.027426073,0.03893608,-0.009067365,-0.032709494,0.019537734,-0.001804384,0.0013946677,0.0023550107,0.05475262,0.076552175,0.11261264,0.013928613,0.031491306,-0.03391054,0.01571519,-0.02018665,-0.054118004,-0.033907566,-0.039300963,-0.04050672,-0.034779318,0.0029209005,-0.018458923,0.016493717,-0.027490748,-0.024982208,0.030921487,-0.01424107,-0.03394858,0.03137382,0.0024290842,0.00910212,0.01955254,0.0135490745,-0.020348916,0.03352184,0.08070713,0.075223766,0.09964722,0.061220545,0.019141566,-0.030417988,0.04023314,0.026686031,-0.029542424,-0.050594103,-0.05827401,-0.0067926855,-0.023399577,0.024541773,-0.04183287,0.0041005486,-0.0027651545,-0.0009979914,-0.0046995347,0.015689533,-0.028564014,0.012938371,-0.013354244,0.016426358,-0.010231838,-0.00079981313,0.022054225,0.0066063493,0.0038194244,0.024818968,0.0745229,0.026416687,0.073360965,0.008151606,0.0054776296,-0.0061548427,-0.035653636,-0.041461237,-0.0049224067,0.0014205495,-0.013661672,-0.023180602,-0.014671259,0.0044280468,0.0036307184,-0.01880327,0.025016854,-0.003400901,-0.014250423,-0.012785075,0.0025818143,-0.026147705,-0.0320082,0.008304028,0.020541612,-0.048691817,0.0037103158,-0.027081933,0.06812681,0.119401105,0.07469047,0.02823714,-0.009283004,-0.07404915,-0.06620251,-0.05658356,-0.017662592,-0.0069985893,-0.020349301,-0.0414941,0.0017492876,0.0097166,-0.028800225,0.01759954,-0.007558289,0.012617747,0.001243705,0.008989786,-0.032323655,-0.042622104,-0.052960742,-0.0646582,-0.061751977,-0.047325622,-0.04947189,-0.010346074,0.06814865,0.097202465,0.08844917,0.028381862,-0.0581664,-0.07138098,-0.08753558,-0.05532234,-0.041524637,-0.06299467,0.0017370456,-0.04297524,-0.009675492,-0.002084149,-0.035668653,0.005021455,-0.013410349,-0.015638638,0.010496005,0.008655018,-0.039912175,-0.046331115,-0.020178372,-0.06706256,-0.08193844,-0.08990541,-0.06525186,-0.028824769,0.038678303,0.026299454,0.03989527,-0.025845887,-0.05855068,-0.065331295,-0.09531828,-0.09963087,-0.06321567,-0.023619993,-0.02463924,-0.031062488,-0.05632248,0.0062971776,-0.033479802,0.0046023666,-0.02431379,0.025105337,0.023673814,-0.027585942,0.015417476,-0.037726592,-0.07442405,-0.049567144,-0.07110201,-0.030445335,-0.057573684,-0.059782386,0.001182904,0.013707369,-0.015690563,-0.014725599,-0.09824586,-0.055887666,-0.065437704,-0.08137152,-0.041661903,-0.032437127,-0.05368072,0.011035783,-0.019213254,0.019652765,-0.013955419,0.02178559,-0.016050784,-0.02514647,-0.03262442,-0.024722207,-0.02784066,-0.005692383,-0.045768026,-0.034114096,-0.017142937,-0.028286174,-0.03572235,-0.00490361,-0.016301999,-0.05110769,-0.0018816473,-0.05852952,-0.047891814,-0.09148583,-0.053127542,-0.016738443,-0.048042975,-0.07071386,-0.058528773,-0.049352482,-0.034088112,0.0077826916,0.011623739,0.017168948,-0.031720463,0.022842273,0.030900212,0.0111949425,-0.015564503,-0.036236897,0.040479455,0.0038249248,0.020590553,0.017102875,0.016517865,-0.04241853,-0.010485495,-0.055258676,0.019151347,-0.06634419,-0.06470406,-0.0705205,-0.056023315,-0.050992675,-0.049285024,-0.024254343,-0.051696125,-0.021466251,-0.0016831157,0.02379117,-0.031371217,-0.015573862,-0.023620386,-0.017186916,-0.018679073,-0.0027779518,0.015355088,0.0019082804,0.02259525,0.015798394,-0.018238507,0.040365104,0.049772326,0.030067133,-0.013722529,0.007813474,0.0024286937,-0.008275634,-0.04796745,-0.07065525,-0.08552999,-0.020613877,-0.07483491,-0.03942543,-0.030154308,-0.023582166,0.008387702,0.028192164,0.02779337,-0.01834433,-0.01577911,0.014015842,0.019829573,-0.026307985,-0.0077832416,-0.0027539334,0.007009523,-0.0046960115,-0.009829349,0.027788756,0.01692719,0.039344426,0.02192275,0.004384675,0.03722727,-0.021016378,-0.016730005,-0.07583378,-0.06597928,-0.020606108,-0.017494293,-0.040896032,0.01568896,-0.017086597,-0.0059569096,-0.006979607,0.025715292,0.007774439,0.016156686,-0.008128171,0.03500204,0.01491114,0.024085594,0.004514093,-0.012451253,0.04498274,-0.012536569,0.001558538,0.013700345,-0.002803955,-0.015328139,0.031183558,0.0071572335,-0.0259068,-0.016898863,-0.021736274,-0.060335457,-0.030219952,-0.03778915,-0.020411396,0.0046189763,0.0063971533,-0.017290024,-0.013518116,-0.03130675,-0.022458838,-0.0023504908,0.001104735,0.019789314,0.023662563,0.032141685,0.009903639,-0.021969633,-0.009582265,-0.028802214,0.013888267,0.028730161,0.013644692,0.025206454,0.05035529,0.02441192,-0.019435855,0.0076092863,0.005735725,-0.04436819,-0.0051559084,0.019075438,0.015534418,0.036445137,-0.024391001,0.0034981444,0.034500614,-0.022431051,-0.01923522,0.02419959,0.017992202,0.028095799,-0.006406603,0.021597752,-0.030770488,-0.022423264,0.000852655,-0.035513867,-0.002244589,-0.016490046,0.032423932,-0.016398078,0.017127346,0.015842563,0.024004057,-0.019955067,0.002535855,-0.03908383,-0.029846726,0.020226328,0.024443826,-0.017273162,0.028121848,0.010105769,-0.020240745,0.017223373,0.03551126
