0.023057032,-0.2477802,0.23167273,0.049961317,-0.3297033,-0.21778293,-0.15077443,0.003264303,0.05438686,-0.06700778,0.013587238,-0.07685414,-0.082512416,-0.22929418,-0.371117,0.18933433,0.29940164,-0.14717612,-0.1214734,-0.15581411,0.07714624,-0.19851172,0.19882005,-0.2001113,0.3185389,-0.17590156,0.00198858,0.12987475,-0.08093124,-0.49863297,-0.14651428,0.1935861,-0.02081465,0.28416723,-0.32172164,0.10604917,-0.05128604,-0.032086443,0.17802596,0.39725175,0.011806183,0.14348704,-0.04152564,-0.07842303,-0.0841098,0.34398526,-0.07338433,0.20882416,0.034810934,0.00055463426,0.0021961967,-0.31187943,0.09668257,-0.06935108,-0.089806795,-0.3269387,-0.2860106,0.02912817,0.16045928,0.04493887,-0.09941487,-0.034869704,-0.34501326,-0.16268057,0.61061996,-0.027014416,-0.11097718,0.094602324,-0.61642045,-0.26770115,-0.11579246,-0.058860466,0.008187253,0.25266802,-0.16992195,0.28803957,0.040725905,-0.15250528,-0.13291718,-0.07147845,-0.0372901,0.3278813,0.10661135,0.26689708,-0.16044176,-0.18156594,-0.0045279237,-0.2989305,0.00013508333,0.21685445,-0.16037579,-0.015157117,0.11164939,-0.012856642,0.31900513,0.046770945,-0.15774675,-0.41388604,-0.080339134,-0.24889055,-0.06605861,0.11250258,-0.074201666,-0.0073284637,0.10759885,0.04218942,0.44268698,0.26876163,0.29620793,0.17092636,0.021186441,-0.17097057,0.17748572,-0.17098005,-0.11073577,-0.16097763,0.21976842,-0.2785056,-0.098856434,-0.14267763,-0.16104916,0.28383324,-0.26858836,-0.36980423,0.20893669,0.040286567,-0.18178692,-0.09635799
0.056139532,0.18105812,0.11331887,0.022110997,0.29175633,0.044259414,0.119174674,0.10079795,-0.06454077,0.07813989,0.17095561,0.101193585,-0.23398553,0.006807032,-0.041360933,0.023228219,-0.07116216,0.15407753,-0.041373834,0.010367627,0.019690441,0.061539743,-0.15450384,0.05805302,-0.28319287,0.36276776,0.064413495,-0.055639602,-0.061211646,0.25061864,-0.0739499,0.34808493,-0.25775808,-0.16237141,0.17217936,0.14442787,-0.030082414,-0.11976004,0.053997397,-0.08882228,-0.027645577,0.13510796,-0.05091904,0.21270669,-0.0686596,-0.06830835,0.06250005,-0.16377239,0.21474841,0.043561723,-0.047569875,0.23366652,0.075357445,-0.3549863,0.042275626,0.31856704,0.23419352,0.026066067,-0.26498038,0.047729917,0.011736959,-0.07894639,0.197125,0.20353186,-0.5327303,-0.05018961,-0.04211781,-0.059995703,0.24255663,-0.07089687,0.1767091,-0.06572219,0.10541328,0.013207422,-0.07009712,-0.15823875,0.057137426,0.025918901,0.31587988,0.048755717,-0.03371931,-0.18440193,0.13382237,-0.16987768,0.19676305,0.036056485,0.19721255,0.0017820529,0.0757395,-0.022053,-0.07042444,-0.07315441,-0.012987826,0.2499465,0.07630636,-0.102413386,0.13274756,0.028249405,0.11070385,0.09971551,0.035483856,0.07237114,-0.17901208,0.029542128,-0.17963526,0.11075126,-0.24848427,0.005611119,-0.06897765,-0.045868006,0.14098373,0.09173397,0.13177983,-0.016258646,-0.11844905,0.34269056,0.06857994,0.03951607,0.2165876,0.0991295,0.28255525,-0.3192336,0.029906005,0.19544494,-0.0504108,-0.11393168,0.2573608,-0.03849935
0.03605104,-0.023833713,0.041787874,-0.03702167,-0.0575814,-0.012485896,-0.11485575,-0.104247846,-0.17053026,-0.10413239,0.061101716,-0.030636266,-0.038048007,0.03846988,0.050037906,0.09034687,0.12149465,-0.11305926,-0.12672018,-0.03448639,0.00542836,0.09221458,0.010965352,-0.084017985,-0.05815037,-0.19296715,0.03546604,-0.08165362,0.062183578,-0.04172476,-0.07164909,0.0040082266,-0.035496492,0.07391124,-0.025149703,-0.077193625,0.07603906,-0.1399628,-0.052548345,-0.04543348,0.07945239,0.07418503,0.060439482,0.010619642,-0.12629916,0.13777454,0.029361779,0.17233135,-0.049574837,0.09381686,-0.03447254,-0.112561226,0.0019085035,-0.0042154402,0.08141771,-0.055308927,-0.12149059,-0.045183964,-0.0037638845,-0.08430187,-0.03424734,-0.06948378,0.07543667,0.03488103,-0.091939695,-0.043069754,-0.014661957,-0.09200045,0.009037577,-0.015876874,-0.03016305,-0.053515848,-0.062307335,-0.04640561,-0.024756964,0.029203752,0.010638119,-0.110791706,-0.13042648,-0.01352012,-0.08941935,0.06275672,0.05949835,-0.016862437,0.03209027,0.00379296,0.002412898,-0.026028238,0.0023657738,0.14700669,-0.023296637,0.012195756,0.011107518,-0.024146806,0.115485854,-0.048757937,-0.037899222,-0.14927207,0.052476216,-0.054700658,-0.0473467,0.10109465,-0.014084111,-0.087755844,0.020065656,0.06669619,0.019558623,0.16328314,0.06806168,-0.065919496,-0.05143922,-0.1368709,0.02409149,-0.0702395,0.069655955,-0.062077712,-0.028045867,0.029814279,0.07911835,-0.018332122,0.06099366,0.09941563,-0.15308544,-0.15789516,0.039309558,0.1357588,-0.0848866,-0.06118442
-0.027619062,0.16651593,0.056187823,-0.046110038,-0.27948222,-0.119328305,0.13604547,-0.20428988,0.32488078,0.23797028,0.17171025,0.4346606,0.031052867,-0.006837949,-0.089389525,0.062471226,-0.1112173,0.014379377,0.15388711,0.14984559,-0.093284234,-0.01618518,0.27362812,0.2609838,0.185079,-0.27879798,-0.15225467,-0.11753446,-0.29302683,0.084388375,0.2937879,-0.12916571,-0.07706372,0.06348919,0.07090795,0.26541805,-0.054584857,0.19873285,0.1192795,0.17196892,0.010360775,-0.059177965,0.19788001,-0.10939839,-0.053752486,0.09359288,-0.02457388,-0.21927005,0.052570194,-0.009833719,0.09978413,-0.13476382,0.099482894,-0.036179803,-0.17313036,0.08958123,-0.10384693,-0.17375426,0.15603176,0.039951492,-0.018170364,0.20483366,0.13118544,0.26791236,-0.15362008,0.039760124,-0.052380104,0.051501323,0.034013588,-0.09779606,-0.07531814,0.19880188,0.11452537,0.2125127,0.0579448,-0.1716214,-0.03521347,-0.4006975,0.30767414,0.12350184,0.2188698,-0.032213632,-0.0031725918,-0.46785286,0.13902159,-0.15365972,-0.036157843,-0.15728974,0.037315417,-0.16645427,0.0337275,-0.064634524,-0.2944055,-0.049037896,-0.05299532,0.043829672,-0.011705442,0.4117901,0.0060525066,-0.5931362,0.091107175,-0.010662275,0.38322058,0.19061543,0.11423568,0.08866228,0.35506216,0.16108222,-0.01595611,0.2363319,-0.1541056,-0.3051871,-0.057682768,-0.5003558,-0.03660203,0.009679269,0.09267167,0.3306866,-0.081761636,-0.1985848,-0.18736206,0.017433988,-0.20746201,0.25155455,0.10492904,-0.008225636,0.24006529,0.2509519
0.045086406,-0.10111875,0.032878578,0.06758181,-0.028584532,0.08907402,0.038794827,0.040785834,-0.0384092,0.09927343,-0.08374274,-0.07626732,-0.032911737,-0.047139905,0.04869205,-0.11834257,0.008142783,0.08474325,0.014821708,0.12045557,0.028782673,-0.04458718,-0.0766604,-0.070499174,-0.09256471,0.04128204,0.017521424,0.14888383,-0.04289714,-0.041870676,-0.002243348,0.068571895,0.008620608,-0.021336839,-0.03187786,-0.019243985,0.07502108,0.028822847,-0.08469387,-0.059246648,-0.053534508,-0.04524352,0.13555053,-0.013142294,0.08950379,-0.06520369,-0.05014485,0.007467438,-0.027591074,-0.060396332,0.09780566,0.047007058,0.03123925,0.024756772,0.058031186,0.024770476,0.028872816,-0.06636591,-0.02090855,-0.02709666,-0.020427326,-0.04614479,-0.03178723,0.082080774,-0.03495791,-0.03526848,0.08806733,-0.041063633,0.0045234677,-0.088447064,0.005353987,-0.034738436,-0.04963135,-0.056517515,0.05115447,-0.060599763,-0.019766636,0.021648638,0.050315782,0.047013674,-0.051407997,0.033501264,-0.045953505,0.09429197,-0.02856784,-0.030150358,0.031208577,0.054808356,-0.015442457,0.048790906,-0.02183529,-0.07489794,0.01807773,0.0014908072,-0.047511604,-0.0017808335,0.049095802,-0.04329547,0.022169214,0.015351061,0.077129,0.08388959,0.031810433,0.046150614,0.05264388,-0.07412652,0.101835504,-0.06284287,-0.12359175,0.059124913,-0.061445583,-0.045131423,-0.03221039,0.01981209,-0.027547274,-0.04139611,-0.096284926,0.034138624,-0.0032585496,0.0033629597,-0.11159595,-0.03504797,0.1050977,0.024765419,-0.03227152,0.048824117,-0.07492684,0.07423733
-0.017136266,0.16019985,-0.12235582,0.021566475,0.2577648,0.1458709,0.095840685,0.110775456,-0.10142211,0.028397037,-0.016613498,-0.17972487,-0.03909855,-0.07034248,-0.02410036,0.035785228,0.14360817,0.32878003,-0.021749377,0.20439588,-0.012214643,-0.25325316,-0.25923184,-0.1622148,-0.17595352,0.06694235,0.2154763,0.113416225,0.15766864,0.31107062,0.19076575,0.12083204,0.002357697,-0.20619413,0.24669662,-0.07121247,-0.043075718,-0.02983368,-0.11912852,-0.28784442,-0.0788926,-0.03030105,0.059668887,0.2600187,-0.019864883,-0.11203046,-0.0126983635,-0.18685175,0.14211988,0.09371098,0.019057598,0.26382688,0.008256503,-0.036353476,-0.02580353,0.111349784,-0.13018262,0.07840766,-0.16244838,0.07261888,0.16352938,0.18221597,-0.09255533,0.0032633173,-0.39931834,0.17537373,-0.057923537,0.099093884,-0.033181086,-0.12097107,0.2671629,0.1955385,0.036299326,-0.14740384,0.1862751,-0.009028731,-0.0044763973,0.19669123,0.03903696,-0.075971946,0.0278697,-0.405683,-0.1079617,0.032672416,0.01861448,0.08906521,-0.06582108,-0.00973029,-0.0025816436,-0.04364134,0.15606216,0.032968488,0.022946946,0.119248465,-0.094398364,0.014501449,0.15332036,0.26681888,-0.051210597,0.31561813,-0.209241,0.14182697,0.04460167,-0.10949983,0.19591126,-0.1968281,-0.34270868,-0.26206028,-0.10109167,0.4446312,0.28885913,0.18611152,0.03978707,0.1198193,-0.14585511,0.1800593,-0.095899045,0.1519225,0.0089063365,0.2212206,0.21022664,-0.10695259,0.3391457,0.04269646,-0.46692732,0.11674361,-0.0001290052,-0.20589927
-0.08138229,-0.06971662,-0.058675796,0.039965864,0.058772203,0.04845457,-0.049060263,0.030146131,0.078834444,0.008806821,0.083386704,0.039118566,-7.628052e-05,-0.0039222036,0.033996027,0.025929872,0.09406762,0.023820493,0.013512768,0.024950055,-0.006455206,-0.04831872,0.015558308,0.046690002,-0.06431337,-0.021417046,-0.06649756,0.012127669,-0.025384663,0.11241213,-0.017522063,0.04654322,-0.05447262,0.05585317,-0.04868025,-0.02565836,0.01406552,0.057585575,-0.023152651,0.0030475175,-0.058960173,0.03732607,-0.02905778,0.055106692,0.0661731,0.021008298,0.078026935,-0.049143914,-0.04880203,0.04996996,0.0046058483,0.04543213,0.085758366,-0.0037381514,0.088724114,-0.03580164,0.04421106,-0.01591455,-0.08403419,0.0555984,-0.048845965,-0.049290847,0.03558168,-0.040132027,-0.05893062,-0.04277958,0.06110834,0.09399753,-0.020881098,0.007296132,-0.07875894,0.022259926,-0.01340205,0.06972898,-0.0609209,-0.0244747,-0.06972948,-0.0311258,0.06655088,-0.039487846,-0.033286322,-0.07664211,0.006959194,0.07220567,-0.0053364215,-0.095328026,-0.06633584,-0.04192027,-0.038834427,-0.008614492,0.058702182,-0.0080558695,0.020261532,-0.049829237,0.0019657486,-0.0128444955,-0.0063987765,-0.056572977,0.060006645,0.055376474,-0.085092396,0.020284262,0.03219891,-0.053959604,0.057713665,-0.03333214,-0.014048614,-0.012916923,-0.06467111,-0.07098867,-0.008440883,0.013806802,-0.055826064,-0.018029397,-0.08832325,-0.038026918,0.03583881,-0.025778221,-0.085275486,-0.008661705,-0.053723916,-0.08861364,-0.008537616,-0.052425083,-0.018253395,-0.044567373,-0.049075704,-0.044061672
0.020700073,-0.10131504,0.20626867,-0.0135119045,-0.15235092,-0.12149919,-0.049620364,-0.18703654,0.04852705,0.095182806,0.040860686,0.04423921,-0.18101397,-0.0769273,-0.18355015,0.0030361111,0.06118263,-0.033866804,-0.09616932,-0.03837609,-0.104099035,0.044033535,0.19954222,0.02718912,0.24331996,-0.14853345,0.093757875,-0.018165937,-0.009470506,-0.20587215,-0.055531092,0.23135477,0.034316834,0.09784224,-0.14041817,-0.0063176285,0.019458,0.12062386,0.14005321,0.2809227,0.06622473,0.07331406,-0.060401663,-0.041771762,0.03967387,0.038507905,0.017146338,0.119033605,-0.022240505,-0.04038267,0.011042192,-0.24845596,0.09938732,0.036925122,-0.05982065,-0.036028203,-0.102667585,-0.21364579,0.15033546,-0.014162285,0.0018182555,-0.18525594,0.031138584,0.046837576,0.4362514,-0.022992564,0.060904145,0.01987476,-0.12006388,0.06679669,0.0366236,-0.05214094,-0.04794457,0.12051421,-0.15134977,0.0887252,-0.0022580372,-0.11982268,-0.14416799,0.032021463,-0.017350378,0.23801064,0.16334003,-0.0016459078,-0.10896418,-0.09084268,-0.07575104,-0.18530458,-0.085922465,0.16740157,-0.11474169,-0.08952008,0.022966811,-0.05017436,0.09879905,-0.03453052,-0.22323838,-0.17351931,-0.0165599,-0.23859252,0.12380124,0.048433367,0.11146029,0.12042349,0.08751883,0.15307917,0.391961,0.19166622,0.16001087,-0.20997465,-0.060394865,-0.12979864,0.10654537,-0.056251153,-0.0041626818,0.041471865,0.18225747,-0.1720096,0.1595559,-0.27450287,0.033191904,0.10272721,-0.19645119,-0.098547876,0.11393778,-0.011730054,-0.03922946,0.1081848
0.07853783,0.041063752,-0.05369099,0.027493274,-0.014629276,-0.056077335,-0.08572804,0.059416797,0.009811477,-0.03583698,-0.052689105,-0.06591368,0.032103747,0.0056281127,-0.0741086,-0.08166075,-0.0024392272,-0.05233091,0.053183526,0.040286127,-0.058322996,-0.030414084,-0.014097298,-0.030830361,-0.02434714,-0.024563666,-0.07803366,-0.0649868,-0.04714924,0.016181655,-0.08914538,-0.08834976,0.04893927,0.027897896,0.019740442,0.001945781,-0.052466065,-0.042649344,-0.027136143,-0.026641255,-0.0039583845,0.029074011,-0.017594475,0.058543123,0.06468018,-0.019717542,-0.08099546,-0.06747582,0.040463865,-0.0004295532,0.0047057504,-0.05945776,0.078233235,0.05692567,-0.039759066,0.050492443,-0.035423733,-0.06370436,-0.06367029,-0.091330215,-0.04881637,-0.018555464,0.016445575,-0.060091294,0.07051566,0.025691308,-0.05986757,0.046642646,0.057097685,-0.015168737,0.011780583,-0.022402065,-0.008380178,0.048321735,0.0801698,-0.070166044,-0.0026983437,0.077334285,0.00723503,-0.020327728,0.007863567,0.009342163,0.015883407,-0.012379716,-0.10024039,-0.0008631113,-0.07947206,-0.004387592,0.0015237714,-0.06846261,-0.009411483,-0.086116046,0.04029442,0.05190324,0.007082868,0.015564706,0.07775673,-0.04278131,0.066451564,-0.0074588275,-0.05467524,0.0033256968,0.07521509,-0.059335344,0.053557333,0.06872367,-0.008856153,0.050896782,-0.056823686,0.048091616,-0.0162545,0.044857524,-0.009931519,-0.054014638,-0.021841832,-0.06608209,-0.04127157,0.014251146,-0.08529284,-0.07952908,-0.07029672,-0.047481105,0.041792084,0.002919132,-0.013565074,0.08431488,0.039771684,0.07231514
-0.11811067,0.08701081,0.20963836,-0.063120805,0.05442316,-0.1337048,0.05118681,0.20723549,0.16069181,0.14110014,-0.23121715,-0.15477805,0.28328344,0.11356845,0.067001686,0.28645554,-0.07829467,-0.1590684,-0.2399852,-0.20309027,0.08077976,0.42149648,0.0676338,0.036747597,0.044566043,0.069453105,-0.0675256,0.011071657,0.1981367,-0.17199923,-0.32048494,-0.05835903,0.24390516,0.35410878,0.028318996,-0.017168788,0.036774144,-0.039430827,-0.12608533,0.17090939,0.04703757,-0.11430098,0.094287775,-0.06822814,-0.059702918,-0.16318735,-0.06441774,0.19478701,-0.115965806,0.0811146,-0.013147263,0.009899415,-0.061120354,0.070652515,-0.11614009,-0.018247467,0.14288482,0.25802955,0.27185413,0.029101577,0.15337704,0.09654726,0.2075526,-0.17613876,0.02408048,-0.09951738,0.26002604,-0.07101995,0.2078577,0.34386575,-0.03462118,-0.20539975,-0.041440733,-0.07025425,-0.056948133,0.07532927,0.13292737,0.0370383,-0.0060106716,0.03743183,-0.078553975,0.16559148,-0.15727955,0.07713911,0.058311183,0.2153792,0.014106308,0.17711964,0.025936192,0.033719383,-0.019951155,0.20741415,-0.11117961,0.11428612,-0.018937591,-0.08023112,0.07221552,-0.13484561,0.12997745,0.12788929,0.051475696,-0.0035127604,-0.19185807,0.015409416,-0.107404724,-0.023158103,0.17952998,0.019666525,0.17770174,-0.32867834,-0.10169548,0.28251985,0.04043325,0.16474977,0.3106375,-0.1772351,-0.02545638,-0.02542725,0.07778445,0.24702282,-0.016388664,0.09723383,0.28328225,-0.20222124,0.16128749,-0.0049878345,0.06842899,-0.047199007
-0.10797567,0.10416158,0.06830681,-0.0252754,0.3214893,-0.28794974,-0.0092634875,0.20532784,0.082098536,-0.0009327072,-0.20301692,-0.30108213,0.15596786,0.045967996,0.1450566,0.36292747,0.08877996,-0.28430226,-0.3096054,-0.36490306,0.17411876,0.52773744,0.13350596,-0.076757774,0.034202494,0.16437013,-0.011540854,0.06572275,0.19203362,-0.020188974,-0.41541424,0.0028424505,0.1782571,0.2682544,0.22402382,-0.015808247,0.08494704,-0.19651884,0.11076771,0.086502254,-0.0040111076,-0.024900466,0.03663914,-0.19931085,-0.012488433,-0.058511145,0.07804097,0.20365702,-0.105934255,-0.0026286931,-0.33665967,-0.06899416,-0.061585333,0.11568351,-0.056009497,0.018029515,0.46600005,0.19732444,0.13604191,0.08481913,0.29060766,0.045262035,0.33816588,-0.058427636,-0.2019059,-0.13686733,0.21774681,0.045570035,0.41098738,0.5162228,0.050749194,-0.34612957,0.079570934,-0.10589288,-0.24138027,0.057252336,0.12665261,0.09256656,0.09641409,-0.06312148,-0.0644432,0.11581768,-0.015010654,0.016795889,0.10699627,0.07946036,0.04887019,0.18209927,-0.055108603,0.048442163,-0.07451795,0.19269536,-0.06351265,0.23423734,0.16346054,-0.0647053,0.162584,-0.17965391,0.14164776,0.11957162,0.08226796,0.030910555,-0.34215456,0.15034914,-0.13420634,-0.057342816,0.06037628,0.06724261,0.21926725,-0.44059178,-0.09558265,0.41014004,0.024174979,0.4127654,0.23114835,-0.012188257,-0.04948333,0.2486484,0.15461427,0.324742,-0.052107126,-0.13247664,0.27837455,-0.10847493,0.13769192,-0.10426454,0.20470616,-0.1018101
0.078245275,0.037042294,0.17587212,0.021916045,-0.26517925,-0.192966,-0.12870409,-0.1089561,0.23166847,0.11168554,0.3110282,0.47005945,-0.32191125,-0.22577035,-0.3569833,0.15248579,-0.010757104,-0.026867844,-0.060490992,-0.2059716,-0.11215821,-0.23196682,0.36480922,0.20558396,0.41796172,-0.17669761,-0.07734949,-0.2660571,0.06663504,-0.26285347,0.031675573,0.08585479,-0.014102503,0.2304751,-0.17567624,0.4293528,-0.07215101,0.10089703,0.19223465,0.29181856,0.057991818,0.36099103,0.17778333,-0.02293727,-0.10913978,0.29251644,0.033218052,0.0742896,-0.06928727,-0.09431778,-0.17110422,-0.19937082,0.08662884,-0.20272128,0.25484166,-0.07903939,-0.22663169,-0.19953811,-0.26868692,0.10097149,-0.11799578,0.019060258,-0.10744031,0.2964189,0.012662712,-0.12662293,-0.051636882,-0.03223508,-0.14425991,0.10918429,-0.015854001,-0.048536155,0.18184844,0.3348851,-0.08910198,0.05980804,0.22042084,-0.38875964,0.3404746,0.123916574,0.28096265,0.2079753,0.17512088,-0.13495581,0.11756556,-0.18263978,-0.082839616,-0.15827408,-0.0011797671,0.15196875,-0.105029404,-0.13076638,0.03972925,0.21609767,-0.13762984,0.04031293,-0.15113874,0.028891811,-0.067226626,-0.4250096,0.057821713,0.20981793,0.3507064,0.2021132,-0.027947553,0.15815416,0.26071188,0.115447484,0.5057726,0.24014528,-0.028035063,-0.24047284,0.07773437,-0.5310808,-0.1965146,0.06164503,0.119184464,0.23781642,-0.13295828,-0.2881295,0.0063065276,-0.12799619,-0.47922584,0.16766357,0.14200097,-0.0036515729,0.32027212,0.2461869
0.07084715,0.049827773,-9.456316e-05,0.035827987,0.1383284,-0.09694022,-0.10844129,0.13880849,-0.10192454,-0.15423448,-0.13879104,-0.43624434,-0.010352636,0.004433546,-0.10810685,0.12576322,0.07970866,-0.17120023,-0.21194859,-0.19398823,-0.032437008,0.05076349,-0.15151462,-0.20559578,0.030433979,0.034338433,0.02685811,0.11261333,0.018462496,-0.052389245,-0.20500319,0.111491196,-0.116538145,-0.007528211,0.14681907,-0.05696431,0.02808997,-0.042210482,-0.120603,0.07104648,0.041271515,-0.005178675,-0.06943869,0.036113292,-0.17267376,0.020416044,0.070256926,0.20835215,-0.049010076,0.00031918572,-0.092614524,-0.034840263,0.020613695,-0.026102226,0.09233189,0.04836009,0.087674,0.17934106,-0.11205127,-0.082883336,0.070901744,-0.056995846,0.080662675,-0.19888578,0.17955714,-0.08232668,-0.1540816,-0.0033624962,-0.061649725,0.03272804,0.058610614,-0.17472748,0.08623813,-0.12587029,-0.07487013,0.14254951,0.034279473,-0.0011941382,-0.12651241,-0.00027885375,-0.08403747,0.114951156,0.1541553,0.329823,-0.05748231,0.056298535,0.10441098,0.09250159,0.07493184,0.1401694,-0.105735555,0.0061844504,0.17737176,-0.05934956,0.21961136,0.015450616,-0.08281348,-0.19972251,0.07633917,0.3029444,0.061322592,0.14447469,-0.2817898,-0.19555116,-0.16091654,0.034540344,0.03985181,0.15170051,0.17507815,-0.020652222,0.044649124,0.13474922,0.010352629,0.11928188,-0.070033446,-0.00043783485,0.02293298,-0.103977956,0.018044645,0.10989596,0.16034275,0.06860769,-0.04019043,-0.22126968,0.04421034,0.01621855,-0.2865369,0.08029559
0.06392738,0.07850942,0.10101574,0.0868829,0.06906202,0.06934682,0.003449229,0.12189991,-0.054908253,-0.07454111,-0.111723036,-0.035508376,-0.027740825,0.0007325694,-0.04771538,0.073369436,-0.0057899863,-0.036180798,0.08130158,0.12598258,-0.022124326,-0.06700259,0.12785281,-0.059477914,0.07713882,-0.015833212,-0.078409575,-0.090122215,0.025356421,0.015382901,-0.10307151,0.04886993,-0.063390665,0.19170804,0.057227407,-0.004386798,-0.075321816,-0.03323615,-0.05695921,0.05788677,0.03926966,-0.1529547,0.1260171,-0.02803779,0.033531163,-0.08839753,0.022665622,-0.0062656575,-0.054118194,0.09232163,0.017238762,0.03264561,-0.07312156,-0.04179827,0.123230755,-0.012078827,0.041064754,0.000756786,0.03632824,-0.01640183,0.006598584,0.1020687,0.083565645,0.015206673,-0.06817181,0.04381354,0.07679536,-0.08970697,-0.07298088,-0.046857037,0.04659472,0.03200525,0.024938053,-0.14772946,0.06257424,-0.06927765,0.032405294,0.061936967,0.06979875,-0.056549415,-0.022101847,0.0061146673,-0.018153721,0.077155024,-0.09298109,0.091255754,-0.028404713,0.033236563,-0.04115054,-0.05932628,-0.073721945,0.042675562,0.11842797,-0.11700126,-0.039783217,-0.000551123,0.09340388,0.16349892,0.027575959,0.05322858,0.07590812,-0.07103841,0.041959524,-0.1406549,0.025471337,0.015914392,0.07057536,0.06158055,-0.07047027,-0.008046369,-0.00067143474,0.026892545,0.042921267,-0.046109486,0.06917352,-0.046702284,-0.033785176,0.04755769,-0.0038152882,-0.047372423,-0.13489355,-0.07701365,0.0027221062,0.045721527,-0.04352188,-0.0060241316,-0.0946378,-0.07660443
-0.07187352,-0.03602041,-0.20465045,-0.067635216,0.18196937,0.24729049,-0.012386278,-0.11681784,-0.031342093,0.017971523,-0.18495744,-0.06189472,0.18704417,0.14902142,0.24072352,-0.18975434,-0.17661461,-0.06474445,0.291985,0.11051599,0.017678441,0.11682693,-0.15991263,-0.06526493,-0.08568354,0.12858906,0.10669456,0.14519909,0.15409979,-0.02795088,0.06429234,-0.12526286,0.0009252254,-0.09054605,0.090002246,0.050787147,-0.06655669,-0.014531635,0.0072596595,-0.14582036,-0.05808477,-0.17307906,0.19877502,-0.10774618,0.15428138,-0.0120305,-0.08077186,0.02961521,-0.023435634,-0.20103495,0.1340385,0.30021048,-0.20106782,0.11755692,-0.018502362,-0.13393702,-0.1333497,0.09144418,0.049646746,0.0659204,-0.07543568,0.008493256,-0.0094050085,-0.17917857,0.2161316,0.0550488,-0.058484137,0.16921282,0.06856142,-0.074832365,-0.18650115,0.17560695,0.0015693244,-0.20762567,-0.05935364,-0.16685666,-0.008712213,0.29789907,-0.24679267,-0.01328645,-0.13656437,0.042016447,-0.14635304,-0.003227066,0.08252011,0.14106905,0.10675954,0.20814322,0.008728788,-0.0027393633,0.0080681825,0.022177974,-0.047292873,-0.013115572,0.032502286,-0.012868152,-0.03267867,0.043300502,-0.12409922,0.02879735,-0.047285393,-0.05993744,-0.20091322,-0.15406814,0.0058132755,0.14614056,-0.13459142,-0.019413676,0.00041944237,-0.045561597,-0.033993434,0.051223062,-0.07132951,0.26888576,0.19793922,0.027067369,0.09124484,-0.03455459,-0.08276831,0.1657476,-0.1616742,0.08771545,0.05501916,-0.09273669,0.037654903,0.063236654,-0.16757119,0.31744742
-0.013991099,-0.013216936,-0.39583063,-0.077610366,0.056252662,0.22161841,0.05460935,-0.015684884,-0.08353692,-0.086513765,0.0663551,0.21363382,0.1595539,0.041186668,0.27752224,-0.15574135,0.030059392,0.059653137,0.2148151,0.06701799,0.05479001,-0.22303088,-0.26659465,0.101722844,-0.23085257,0.37118387,-0.32653692,-0.09556574,-0.08256493,-0.24712974,0.16360906,0.01526425,-0.2350445,0.0055838,-0.29285917,-0.0136732785,0.08530168,0.098772876,0.15705593,-0.3596925,0.040343117,0.060678147,0.23675336,0.044892788,0.20637237,-0.023702348,0.06975063,-0.13335262,0.05139714,-0.20029949,0.28205326,0.33355376,-0.04605891,0.014599634,0.11872408,-0.17399077,0.15390322,-0.057388738,0.0020376947,0.12950878,-0.3044762,0.04532024,-0.3001153,-0.050806496,0.08648772,0.09580321,-0.044709954,0.05014966,-0.09183498,-0.16566288,-0.4231239,0.16737027,0.075832225,-0.14639904,0.030282347,0.059045255,-0.019727318,0.30460414,-0.31993684,-0.13753426,-0.09899339,-0.18860671,0.25369778,0.035588905,0.07781305,0.24010415,-0.03424028,0.1268249,-0.067960866,-0.028114451,0.029574642,-0.172322,0.23105255,0.049787693,0.16803648,-0.050712597,0.15735632,-0.04397997,-0.06819006,0.1495742,0.14108548,0.15734398,-0.018326614,-0.15066858,-0.027930055,0.07045835,-0.22893888,-0.08341543,-0.12956898,0.025097929,-0.15793507,0.010480299,-0.28839824,0.21904899,0.20003697,0.20249984,0.3688354,-0.2628157,-0.36442214,0.17917268,-0.27483013,0.11765191,0.14041206,0.10380691,-0.073447585,0.04734242,-0.17464976,0.1635821
0.05253988,0.13778256,0.36983788,-0.039906397,0.120988995,-0.07133377,0.021657368,0.27862313,-0.15999591,-0.08516339,-0.26326948,-0.19322458,0.14017309,-0.05141606,-0.20773067,0.10610578,0.15947135,0.07984515,0.18592814,0.001694932,-0.23789899,-0.21371144,0.09064079,-0.14009288,-0.014229003,-0.25125346,0.039329894,-0.122678846,-0.052422155,-0.20880912,-0.02401696,-0.2630325,0.017892111,0.26057774,-0.012268193,-0.24195577,-0.057070024,0.044991493,-0.4557786,0.16901085,-0.06105697,-0.19353664,0.23172677,0.2589067,-0.19646472,-0.28706732,0.046851117,0.056509618,0.07629969,0.28019992,-0.030282067,-0.15276553,0.03506765,-0.14805469,0.40346637,0.08548703,-0.081020266,0.06721419,-0.13430677,0.031451676,0.1139218,0.2588663,0.054517433,-0.14315157,-0.3158745,-0.17598143,0.0044092997,-0.17709091,0.11029732,-0.08338254,0.012897269,-0.15602072,-0.20494261,-0.29285052,0.1576932,0.08066629,0.1669017,-0.015746994,-0.030540437,0.041730937,-0.04250785,-0.16267513,0.052784953,-0.08803901,-0.3362859,0.16083889,-0.08788217,0.08078816,-0.04862528,-0.19168521,-0.0147210155,-0.06637112,0.11942841,-0.2648841,-0.06396541,-0.02451886,-0.009429219,0.15208541,0.069071144,0.17259,-0.030263867,-0.027307367,0.12412741,-0.23632838,-0.09217178,0.10512859,0.065744005,-0.06448808,-0.12688938,0.34318015,0.17525287,0.09559962,-0.08106214,-0.1587455,0.0014276352,-0.24633405,-0.2621047,0.067659006,0.36721236,0.17719431,0.20934473,0.07805504,0.009809306,-0.059752725,-0.09317183,0.22213854,-0.29418626,-0.15365365
-0.04974635,0.040448822,0.088438354,0.03725618,0.005374059,0.012940567,0.0076535395,-0.14026543,-0.031974785,0.0042709373,-0.25599965,-0.21567582,0.06936376,0.19562171,0.08568744,-0.062700845,-0.05899746,-0.035670828,0.20622103,-0.18605128,0.16161032,0.31316668,0.13141446,0.017512169,0.17664227,-0.28510946,0.22120792,-0.19125487,0.11656021,0.26229927,0.19270755,-0.3216473,0.31867433,0.052458417,0.22980855,-0.1780622,0.010201923,-0.033270072,-0.13710159,-0.008306344,-0.04739643,-0.29695293,-0.021741832,-0.1337764,0.007899346,-0.07171843,-0.011855057,0.049647745,-0.29031724,0.12136869,-0.023194332,-0.12506509,-0.14696819,0.24935983,-0.056624316,0.04181404,0.059996847,0.01765439,0.17617257,-0.10019989,0.33580822,0.06407954,0.3568823,-0.077726945,-0.024786621,0.0016472285,0.10931564,0.1426467,0.2907852,0.30269462,0.18164513,0.041448638,-0.045478035,-0.16216019,-0.055391163,-0.17792477,0.061601926,-0.07926314,0.01634617,0.014297118,-0.08633109,0.0344803,-0.27801642,-0.08080986,-0.036383085,-0.0071406495,-0.07487748,0.26342714,0.029023355,-0.055062704,0.011185192,0.14355838,0.017846683,-0.14821538,0.014786633,-0.08515201,-0.009361658,0.28460205,0.058177993,-0.19285001,-0.040198248,-0.17463475,0.008877582,0.059193943,-0.100003764,-0.14659531,0.06495128,0.26807487,0.10250857,0.039063074,0.012568699,0.16629493,0.17354695,-0.08338849,0.22591366,-0.30306473,-0.13143863,0.27380842,0.26912868,-0.12930167,-0.13852796,0.15316328,-0.038356885,-0.2737753,0.037527785,-0.109984584,0.010360784,0.12926225
0.051190406,0.10873817,-0.017818341,-0.061512638,0.08689132,0.124049135,-0.0113347005,0.17519948,-0.2622139,0.022583254,0.060094874,-0.27613574,0.012559624,-0.12143174,-0.010193485,0.07925969,0.23454629,0.33311182,-0.060931947,0.19760282,-0.016526716,-0.23917015,-0.3444839,-0.24637032,-0.061495066,-0.06332278,0.12627243,0.31407884,-0.12274984,0.16582175,0.120263524,0.02929691,0.010500548,-0.22714418,0.1925665,-0.13723055,-0.08134936,-0.004153503,-0.080092944,-0.13908271,0.015960062,0.05905017,-0.089748085,0.39644787,-0.04222263,0.039215297,-0.026650006,-0.08066269,0.1273598,0.056030393,-0.2678743,0.1674608,0.24598557,-0.059085827,-0.10887613,0.0397356,-0.119839415,-0.08332257,-0.15437327,0.06385907,0.13939384,0.19686663,-0.090369105,-0.084537506,-0.4026454,-0.02547896,-0.15872748,-0.065748975,-0.047587246,-0.13851772,0.37599438,0.23200382,-0.06213002,-0.066259384,0.29891,0.13280353,0.025701798,-0.038407188,0.07886504,-0.021800857,0.08279233,-0.38766643,0.12503344,-0.0039028865,-0.13105866,0.23276743,-0.07065686,-0.06577608,-0.07627098,-0.0939281,0.00574422,-0.08769661,0.07437515,0.032546185,0.052408777,-0.06840378,0.06283421,0.33144426,0.095617175,0.038859945,-0.074304454,0.10838738,0.04436117,0.08341082,0.087519795,-0.035534065,-0.19121476,-0.2084912,-0.15711865,0.4081416,0.37895003,0.031866968,-0.03674225,0.01483916,-0.075985156,0.09397355,-0.23850638,-0.0050226543,0.1248772,0.063278034,0.3756024,0.0313699,0.31428045,0.09753266,-0.3410619,0.296854,-0.03345542,-0.3765091
0.008025829,0.0026095137,-0.039314397,0.06497925,0.112806134,-0.04823616,-0.024608474,-0.009995368,-0.031144012,0.08568371,-0.09024367,-0.09969046,0.06564551,-0.015832687,0.101925075,0.022494772,-0.09449081,0.039439764,0.07341633,0.044466533,0.009212812,0.0391392,0.056374315,-0.07717632,-0.026232725,-0.060765926,0.0917546,0.021980064,0.06603611,0.028867755,0.06696746,-0.06472947,-0.047442667,-0.041533444,-0.048039746,-0.112628885,-0.014633243,-0.05268752,-0.036241516,0.078173466,0.015155508,-0.1568615,0.11032541,-0.114363395,0.054569364,-0.023679327,-0.024137584,-0.089220315,0.009956221,-0.03971107,0.0003767279,0.011126603,0.05135248,0.001044904,0.10079516,-0.026377369,0.021418074,0.09839267,0.031263947,-0.004108004,0.114798166,-0.04743108,0.024194373,-0.083381526,0.06918467,0.04711346,0.047760878,0.060420904,-0.002540462,-0.058778197,-0.06920932,0.12960507,-0.013902717,-0.040970504,-0.073138736,-0.124735735,0.07484986,0.121827796,-0.05246936,-0.03453824,0.017464632,0.009887227,-0.008383946,-0.051244844,-0.08928906,0.10464204,-0.012229857,-0.03372426,-0.058754064,-0.12138324,0.10647519,0.029538833,0.09240381,-0.040768895,0.039821617,0.04680413,0.0074023735,0.14267871,0.046569377,0.032227997,-0.018428352,-0.026023554,0.03347104,0.031688455,-0.07419192,0.033812396,0.036457412,0.09238484,-0.09327051,-0.0635728,0.055953283,-0.034264196,-0.065957576,-0.028676003,-0.108238,-0.050977774,-0.08652069,0.045916557,-0.019771975,-0.006926338,-0.11999419,0.06733963,0.0039636507,0.0891769,0.06578202,-0.06255469,-0.017105956,-0.037917335
0.09352102,-0.013394476,-0.046819523,0.08048371,-0.13953893,-0.07296409,-0.019385714,0.02542425,-0.0379938,-0.1515786,0.17522177,0.0008285737,-0.03858317,-0.14732611,-0.30227318,-0.023899231,0.22208844,-0.10506828,0.12129257,-0.10169454,0.051097874,-0.28404763,-0.077816,-0.15430611,0.15710759,-0.1414737,-0.025438342,0.04425837,0.087164,0.04079762,0.079689346,0.14302355,-0.17179398,-0.13759491,-0.18142799,0.063079156,-0.0049203266,0.08671072,0.30357274,0.10029594,0.06638206,0.1268654,0.19444884,-0.072724335,0.055554066,0.1996936,-0.080907375,-0.05217603,0.05005388,-0.13294743,-0.07095178,0.010318911,0.18138972,-0.14965864,0.016028734,-0.14658087,-0.3902923,-0.018093824,-0.18935819,0.084247164,-0.06281261,0.017574284,-0.3598521,-0.1312865,0.054891326,0.020811087,-0.16700996,0.1600733,-0.41160256,-0.18351196,0.10676697,8.4620144e-05,0.13123424,0.1200533,-0.24245118,0.1528758,0.047505368,-0.09921149,0.12067654,-0.051188804,-0.0746047,0.03085738,0.002876643,0.07898977,0.18915126,-0.07392648,-0.025432069,-0.2723709,0.06232643,0.1525747,-0.008520007,-0.119407594,0.07401642,0.29243293,0.2168493,0.068469256,-0.048341963,-0.22475146,0.036807373,-0.15360601,-0.12455582,0.14387399,-0.0692738,0.14242837,0.049398042,0.09826624,0.058639966,0.19417599,0.13488287,0.21923716,0.11039751,-0.15801463,0.08480368,-0.11312246,-0.17915587,3.3794204e-05,0.053936947,0.019107493,-0.24001116,-0.07050958,-0.10640851,0.08931259,-0.08536136,-0.16206402,0.012728202,0.15057926,-0.044960894,0.07995259
0.042422563,-0.01779124,-0.115555815,0.035393517,-0.021587288,-0.007837021,0.0018750294,0.18833795,0.10988382,0.042334717,0.17286733,0.05661737,0.1657769,-0.024456242,0.08330781,0.19490036,-0.0110849785,0.014836715,0.099818274,-0.1705692,0.08721201,-0.0100252535,-0.030386636,0.018121082,-0.08559229,0.141379,-0.24223284,-0.0882976,-0.01040041,0.025397709,0.11345356,-0.03997969,-0.026758524,0.1514759,-0.1580199,-0.0477604,0.03986212,0.11065006,-0.009395267,-0.12740205,0.07446935,0.05058227,0.08023977,0.08326075,-0.038790368,0.067666724,0.07608345,0.01929161,-0.14472584,-0.1052673,-0.053779494,0.019271292,0.034840975,0.10799093,0.0064959945,-0.058340423,0.027470767,-0.024350066,0.07860572,-0.04482628,-0.20836216,0.06157958,-0.13530499,-0.015305805,-0.052928872,0.054946445,0.100193694,-0.046480764,-0.152596,-0.0067314696,-0.15991454,0.0066315234,0.108823776,0.020568643,0.10009611,0.33483475,-0.033417374,0.02902849,0.16410153,0.042881038,0.062200353,-0.07990887,-0.039544243,-0.058463074,0.06974503,0.028706996,-0.006248858,0.023676237,-0.047115553,0.02793524,0.045010887,-0.005588759,-0.099500634,-0.025239175,0.012767767,-0.015959855,0.19077782,-0.021858428,0.08703492,0.067032374,-0.01842496,0.14140244,0.082096554,0.11622587,-0.036139473,-0.022449302,0.037629645,-0.06804961,0.0684096,0.13287137,-0.16721095,-0.006586675,-0.1661959,-0.008979114,0.10236543,0.09734646,-0.034993272,0.10295772,-0.09063164,0.22585921,-0.022512684,-0.06353928,-0.08122907,0.03589692,-0.023306906,0.062608816,0.1227335,-0.014360512
-0.1214043,0.14133474,0.15907823,0.041283775,-0.058467377,-0.067698486,0.14917311,-0.06748593,0.10647586,0.13389835,0.19939858,0.44422477,0.034194063,0.09569649,0.19169039,0.062426537,-0.21334997,-0.047432095,-0.023103155,-0.07659159,-0.049200553,0.2025203,-0.0013644663,0.2528617,-0.019323152,0.06111572,-0.098485425,-0.10073187,-0.051761985,0.09905667,0.07639196,0.022927677,-0.09641666,-0.03903411,0.15227905,0.2232222,-0.070023045,-0.04751274,0.07991724,0.10052498,-0.040249694,0.10334335,-0.2583655,-0.034278806,-0.038468823,0.02599333,-0.0018210926,0.024420636,0.011816558,-0.012563774,-0.043234386,0.08985699,-0.08230425,-0.1045698,-0.15567528,0.19682218,0.30102372,-0.16794868,-0.020839056,0.08839187,0.06481271,-0.13536073,0.18864922,0.15074831,-0.04546849,0.06776704,0.16442634,-0.1413856,0.17143795,0.20046084,0.08344649,-0.021623602,-0.012343058,0.22822326,0.08158918,-0.030329427,-0.020507555,-0.10104167,0.17085679,0.004863059,0.08670585,0.0013361666,-0.009234549,-0.2442441,0.099013776,-0.12608828,0.04172532,0.10081424,0.009955404,-0.10408002,-0.01904339,-0.0069105695,-0.2558562,0.18928805,0.030521428,0.013351433,-0.031730823,-0.0055405144,-0.076452926,-0.13516286,0.10084924,-0.17859197,-0.04059803,0.1625858,-0.01773628,0.083965935,0.07642538,-0.053239334,0.045792997,-0.28785923,-0.08735139,0.10253671,0.03993924,0.0014334089,0.03782543,0.123189636,0.09198345,0.07449803,-0.09562207,-0.09602038,0.11897486,-0.03758618,-0.07866566,0.09158214,0.061868355,-0.14900738,0.15406907,-0.059665386
-0.031504236,-0.070337266,-0.21976398,-0.0821219,0.08042064,0.046780538,0.114140496,0.23833835,-0.0023113007,-0.054565936,0.15641482,0.2008869,0.06985126,0.028724696,0.12204825,0.07095019,0.022398291,0.059187,0.08886094,-0.049369987,0.030048747,-0.056426976,-0.046773475,0.16270576,-0.18228847,0.08209201,-0.31300652,-0.15173225,-0.0021650153,-0.20388468,0.14265315,0.046963535,0.0005979112,0.12808084,-0.32305327,0.11847778,-0.05046177,0.121731825,0.06548847,-0.21035768,0.013771341,0.1002077,0.13647622,-0.1490846,0.14312232,0.03729607,-0.06549686,-0.044479728,-0.0016578239,-0.11907924,0.17189503,0.10039561,0.038125593,0.07731445,0.15434833,-0.09487034,-0.0041589355,0.06096017,0.067250334,0.044800684,-0.36917973,0.08017515,-0.25726172,-0.0050372,0.054144382,0.0036465032,-0.1205025,0.020393072,-0.08322388,-0.00309557,-0.23921044,-0.04374597,-0.024078207,-0.0196341,0.040316135,0.31996295,-0.08915298,0.14300992,-0.13612723,-0.123878404,0.08021104,-0.18302886,0.013430675,0.08206363,-0.05139043,0.09309091,-0.016993718,0.0849781,-0.027845934,0.026075605,0.034802146,0.053977013,-0.054310292,0.027163329,0.016224107,-0.051242243,0.14452334,0.02103214,-0.10863985,0.012257516,0.06965248,0.16486968,0.02029588,0.047679555,0.08676809,0.0010810478,-0.13057096,-0.03760364,-0.028700957,0.06693947,-0.30141684,0.03827831,-0.2832046,0.12663993,0.16545424,0.14613765,0.21344331,-0.05549168,-0.37948015,0.27805358,-0.2693509,-0.020344887,0.03351036,-0.028246282,0.03216761,-0.041615155,-0.017271312,0.14663398
0.11545741,0.1048948,0.13906598,0.058172595,0.27296203,-0.04131498,0.031150235,-0.062114265,-0.12737408,-0.02849319,-0.3331755,-0.22391568,0.186085,0.20036115,0.1333718,0.052634858,-0.022332756,-0.05218833,0.32309395,-0.17864798,-0.029726284,0.20012566,-0.022865776,-0.14611942,0.035227854,-0.25985515,0.25375408,-0.05443858,0.14429682,0.047978487,0.10229089,-0.23959975,0.15317999,-0.017333275,0.38830563,0.011007468,0.0027366038,-0.1175234,-0.18330431,-0.022630684,-0.018580368,-0.16949166,0.09399748,0.038910728,0.05068531,-0.17914523,-0.06990113,0.0825672,-0.102150805,0.115875654,0.043671813,-0.09612167,-0.14732413,0.26904553,-0.064233854,0.11155072,0.07071701,0.011247451,0.080828,-0.09423534,0.30691034,0.062489722,0.4298809,-0.16572413,-0.11569792,-0.048303843,0.024507754,0.035278443,0.42890638,0.31693715,0.20540215,-0.09154357,0.026365539,-0.1918823,0.08753236,-0.16587552,-0.007314969,-0.035694573,-0.014236376,0.016470917,-0.054671984,-0.08172107,-0.14216392,0.054048564,0.026709763,0.052061014,-0.066702604,0.26328272,0.09436814,-0.14471635,-0.030835077,0.1557289,-0.11033193,-0.044301365,-0.004981776,0.021396829,0.045864835,0.30616862,0.07228512,-0.05004795,-0.112510234,-0.11530623,-0.13637659,-0.11984258,-0.23510228,0.16431233,-0.08386885,0.17127915,0.091911644,0.05198917,0.05699771,0.2517874,0.15859093,-0.004555766,0.1307844,-0.109853186,0.021801963,0.11020924,0.46822152,-0.020558365,0.19428985,-0.0326831,0.033252668,-0.15491521,0.039016347,-0.07540243,0.041721202,0.09810544
-0.02906209,-0.24234428,0.09260784,-0.0057026176,-0.32898006,-0.13044117,-0.05571609,0.07587069,0.28943747,0.067158416,0.08934437,0.15836912,0.007327977,0.07327012,-0.017873751,-0.07850809,-0.0011536643,-0.032859687,-0.11835876,0.22425222,0.050765295,0.105818965,0.2955125,0.15145686,0.2492964,0.16962111,-0.013213941,0.31129345,0.021349797,-0.039160524,-0.07094172,-0.09831703,0.16090368,0.2468715,0.024425657,-0.064384595,0.06394791,0.27001432,-0.0046782256,0.18603128,0.07473302,-0.04537845,-0.022452831,-0.032496605,0.192234,-0.008013008,-0.041258816,-0.030287882,0.11489709,0.07793563,0.1162934,-0.021467859,-0.06481404,0.07324622,-0.36497337,0.011273702,-0.0018578961,-0.042621497,0.49928495,0.10340731,0.15646946,-0.010171429,0.16804352,0.10853572,0.54353225,-0.03020612,0.1856716,0.010401524,-0.06347812,-0.010041604,0.0070023825,0.03969561,-0.14673337,0.16111918,-0.0125659555,0.08849964,-0.11568948,-0.027984174,-0.09322557,0.043000028,0.13501194,0.30366802,-0.09426079,0.11489878,-0.11213637,-0.11055458,-0.099149756,-0.1659921,-0.022211064,-0.040160377,0.046000484,0.16430537,0.05840329,-0.19231059,-0.07517951,0.08673219,-0.120777585,-0.23154783,0.045060046,-0.123883694,0.04308973,-0.08590525,0.18925501,0.27300644,0.20518222,-0.08425093,0.5074478,-0.059502654,0.11313049,-0.11677723,0.066739075,0.12555215,-0.09018636,0.15543741,0.121399395,-0.045094844,0.22069705,-0.14007089,0.06305908,-0.11683444,0.07128447,0.23600127,0.20700713,0.03319134,0.12945154,-0.07138596,0.10414812,-0.018221071
-0.06735804,-0.037212104,-0.061785594,0.06833365,0.10821971,0.11108576,-0.03437438,0.08988041,-0.009975252,-0.012942613,-0.012324238,-0.1262292,0.25020704,-0.025373587,0.11979572,-0.064589076,-0.123594105,-0.0993674,0.29972208,0.2436429,-0.052070912,-0.29668114,0.124487706,0.06269474,0.081955016,-0.16783333,-0.17827551,-0.104976244,0.1029799,-0.33746958,0.2478902,-0.1823265,-0.11657352,0.20986229,-0.3089715,-0.012297968,-0.082991965,-0.07183711,-0.17714372,-0.18576585,-0.056846034,-0.18024781,0.51424956,-0.21530133,0.085302554,-0.1435835,-0.0058188755,-0.18298373,0.17640536,-0.1324734,0.2580492,0.022380939,0.010064836,-0.23648731,0.24250543,-0.16650297,-0.24747695,0.0668349,0.21186109,0.08180155,-0.15749784,0.2709951,-0.21428868,-0.045635976,0.21825613,0.16643785,-0.23335338,0.07267883,-0.24001691,-0.17217842,-0.13946714,0.22347875,-0.005422728,-0.2309608,0.01295967,-0.1358645,0.19743416,0.035351656,-0.06296016,0.03541403,-0.06856894,0.18309781,-0.0120635135,-0.04780983,0.088109806,0.2073386,-0.051653743,0.057570532,0.053628787,-0.11324376,0.05342671,-0.12121806,0.21783601,-0.19474791,-0.04011947,-0.0025151318,-0.19702435,0.22895932,0.015708193,0.084931746,-0.0055758567,-0.25219375,0.018002223,-0.24076623,-0.028204279,0.1583062,-0.10822394,-0.02168967,-0.2967614,0.2467067,-0.18974733,-0.0315985,-0.118249774,0.0135253845,0.19003595,-0.1312252,-0.07561771,-0.05919685,-0.36639842,0.06365723,-0.38174233,0.19850364,0.031679068,-0.10474653,0.23110811,0.04769732,-0.122557744,0.35713997
-0.022771891,-0.036194034,0.035366498,-0.03720115,0.11874481,0.043454528,0.015373758,0.13317743,0.029420381,0.08844257,-0.0069323974,-0.13721435,0.16970833,0.14615399,0.13402218,0.06235307,-0.10304905,-0.08179389,0.06639314,0.07563118,0.09607981,-0.014709288,-0.035641495,0.024249844,-0.08492106,-0.09248951,-0.08450248,-0.06618028,0.15002424,-0.108772025,-0.02862011,-0.09640325,-0.029527673,0.21151741,-0.11066881,-0.073020846,0.035125565,-0.0045867404,-0.09777636,-0.012064318,-0.03721661,-0.16341333,0.110987335,-0.10917919,-0.032911938,-0.054280054,-0.060506653,0.10070919,-0.15080105,-0.042221572,-0.0076276036,-0.043240547,0.044310477,0.033890862,-0.03372172,0.012145611,-0.12941238,0.07744305,0.2003305,0.059009008,-0.073752366,0.17329013,0.0038488484,-0.10769386,0.10494489,0.061645836,0.021557666,0.10757681,0.062368635,0.09355402,-0.077202775,0.022888696,0.038336713,-0.049075045,-0.046994276,-0.044766456,0.1399447,0.13426909,-0.041294634,-0.058662713,-0.0940225,-0.040706463,-0.03761481,0.0043086554,0.117767744,0.1471015,-0.03386023,0.024609894,-0.020956047,-0.0039135013,-0.015287057,0.10885745,-0.091385044,-0.10828831,-0.21139707,0.07659791,-0.032615602,0.08114119,-0.08559085,0.14399497,0.023276702,-0.070542395,-0.006788729,-0.02695254,-0.07404593,0.05718325,-0.016161304,-0.17462404,0.04424008,0.016427346,-0.058022354,0.010542456,-0.010804895,0.010467487,0.093768165,-0.08831144,-0.07347381,0.02276974,0.048739735,0.15471181,-0.21060365,-0.02013039,0.031445134,-0.23228937,0.036568936,0.027798852,-0.082329825,0.14002214
0.07693937,-0.0351812,0.08887191,-0.0008883143,0.03297156,0.13632321,0.011288095,0.066968635,-0.0917913,-0.016212517,-0.056694515,-0.08804744,-0.0134644965,0.05148561,0.0018445331,0.06323476,0.07269399,-0.005947223,0.021294946,0.06447672,-0.05135493,-0.14770031,-0.04127681,-0.05446058,-0.0914331,-0.09664726,0.13357957,0.063304275,0.033412144,0.13493311,0.1286935,0.05436741,-0.09136709,-0.21042505,0.08193383,0.016158866,-0.043843076,0.053369462,-0.017659483,-0.05621785,-0.03638177,-0.078306094,0.17400327,0.047576305,-0.025221761,-0.008981509,0.06365419,0.035902325,0.08942548,-0.07072063,0.0151378,-0.04100309,0.02833725,-0.058718238,0.1320446,-0.0032626174,-0.13917182,-0.010417926,-0.10070026,0.09270382,0.025366953,0.13895899,-0.13160029,-0.09000758,-0.2072545,-0.07720252,-0.071116336,-0.06873066,-0.05034503,-0.0831113,0.08042431,0.037796512,-0.038053803,-0.001727777,0.05290822,0.0032135625,0.05745163,0.07244367,-0.005208289,-0.07346258,0.02331391,-0.16465124,0.05530603,-0.011526841,0.049507298,0.03399674,-0.01563779,-0.024287894,-0.046782456,0.07956811,-0.029447258,-0.11950443,0.19364038,0.06106822,-0.037459973,-0.095923185,-0.04047085,-0.04529565,-0.07209242,-0.008687865,-0.11687729,0.02921563,-0.070372224,0.019380968,-0.054473754,0.08226259,-0.0005043263,-0.014276068,-0.048594523,0.29064798,0.076753065,-0.116953835,0.050596338,-0.0044855718,-0.034892984,0.0128556695,-0.059254795,0.050497685,-0.16762093,-0.017072035,0.019290484,-0.017736157,0.01288799,0.056689624,-0.120056465,0.17085399,-0.12840998,-0.044937197
-0.04861419,-0.1571272,-0.035540488,-0.07045365,0.24082342,0.22460192,-0.08352535,0.020745179,-0.042745054,-0.1422525,-0.24968025,-0.30172157,0.1694877,0.078115985,0.007130325,-0.13131215,0.07028191,-0.16002637,0.20425925,0.205145,0.0743914,-0.19828151,-0.033600178,-0.1787273,-0.12320139,-0.25056317,0.2298591,0.13650426,0.11636722,-0.15015817,0.14039923,0.010901473,-0.20059343,-0.17772634,0.090678975,-0.17107993,0.045466684,-0.117916904,-0.20449911,-0.005563363,0.036340825,-0.13258125,0.32453033,-0.09934483,-0.03842899,0.0006157108,0.04027525,-0.12499375,0.1517939,0.008992273,0.22669114,0.018135786,0.078506574,-0.08505311,0.14920758,-0.09660711,-0.21941678,0.27245787,0.047040697,0.05061431,0.046331104,0.24389088,-0.042705785,-0.1860008,0.1388824,0.12786992,-0.15136082,0.17692943,0.0688442,-0.16672926,-0.14782402,0.17556013,0.058778893,-0.18937157,-0.068941645,-0.08937996,0.20478222,0.20222563,-0.18432856,0.10848074,-0.23271929,0.1660527,0.072150044,0.20328109,-0.035302088,0.09323398,-0.011377078,0.06435716,0.016643807,-0.095678106,0.13280301,-0.16088247,0.34105,-0.20375395,0.24446,-0.05244329,-0.17458327,0.027181454,-0.112153314,0.3133279,0.034543063,-0.06379373,-0.3095244,-0.15475498,-0.16722688,0.09076905,-0.0383015,0.13082178,-0.21882589,0.124416254,0.03012867,-0.05297732,0.13107921,0.10477636,-0.12556596,-0.18564127,-0.03864001,-0.10651513,-0.057197176,-0.049506553,-0.021605436,0.15781009,0.17578436,-0.059713278,0.13469455,0.24473543,-0.33447203,0.19327308
-0.016498864,-0.22720927,0.14498627,0.048725713,-0.1677731,-0.08477044,-0.012860228,0.32525447,-0.008031758,0.09349875,-0.0008434703,-0.0861798,0.03263713,0.18959346,0.27962014,0.13454987,0.10128558,-0.13242814,-0.08502276,-0.12705684,0.29178113,0.32774192,0.12116099,0.10475314,0.4883088,0.06099725,-0.059068818,0.08332426,-0.06144657,0.08347515,-0.3253573,-0.28387716,0.53093505,0.36870933,0.091799535,-0.37791198,0.05216332,0.07756998,-0.14668286,0.13316391,0.03354023,-0.18184699,-0.24849404,-0.09729089,-0.12920448,0.115500964,0.0023291453,0.35259926,-0.35950467,-0.06894855,0.08518039,-0.23904534,-0.004352168,0.48229343,-0.058852866,-0.18051416,0.10381148,0.12489473,0.65351486,-0.13372375,0.2995397,0.14393699,0.23574263,-0.054692887,0.23187387,0.035426635,0.45460927,0.106647536,0.15679067,0.5745387,0.12956288,-0.22740269,-0.32648078,0.025123462,0.10976496,0.34046876,-0.26221707,0.13665652,-0.20699544,-0.1279735,0.16530369,0.106111914,-0.24242756,0.22169577,-0.2703643,-0.073813,-0.26328868,0.118257724,-0.028001172,0.05345942,-0.10594745,0.37893865,0.09100867,-0.4507757,0.0980866,0.03278948,-0.007393633,0.12977484,-0.06271845,-0.08998371,-0.13995859,-0.2819647,-0.11788409,0.26722345,0.3180224,-0.40327537,0.35233945,0.08307414,0.090998,-0.028036911,0.07546872,0.42440963,0.07572571,-0.023046024,0.35464802,-0.40951252,-0.2053026,0.0770124,-0.02931015,0.08071704,-0.12989485,0.25375178,0.30583578,-0.22236636,0.054392032,0.14337,-0.032679293,-0.23131073
0.04154099,0.159483,0.09717551,0.016484642,0.40490404,-0.1722726,0.046154562,-0.15559776,0.10018157,-0.095559865,-0.12819603,0.06430166,-0.12307877,-0.12854335,-0.35079032,0.11968792,-0.1990408,-0.20348078,-0.18168357,-0.27433267,0.031761985,-0.023106148,0.2518867,-0.05540376,-0.06012648,-0.077669546,0.5061141,0.12803984,0.14605905,0.2558464,-0.011351791,0.3381849,-0.23713711,-0.13218701,0.15130146,0.14443748,-0.08634846,-0.1751768,0.40762725,0.16652802,0.07785241,0.09095172,0.05671624,-0.2955789,0.015588796,-0.02701347,-0.02915031,-0.23062769,0.08197627,-0.14613807,-0.0104033565,0.13186257,-0.035908166,-0.19871058,0.09384894,0.21356788,0.10143138,0.12585737,-0.22960275,0.10474479,0.18112431,-0.08463602,0.20184681,0.1419291,-0.10528298,0.090992376,-0.0076476657,0.04325235,0.09046967,0.15552309,0.12611495,-0.006811446,0.28195825,0.13729006,-0.24526806,-0.41108897,0.10638771,-0.28058746,0.337912,0.22918212,-0.0018826023,0.17006946,-0.16703944,-0.12491961,0.36610726,-0.25956726,0.22144371,-0.13639355,-0.026652606,0.20313306,-0.011396387,-0.033379715,-0.11901877,0.43085632,-0.025826862,0.018178577,-0.11928725,-0.11356077,-0.10640705,0.17379759,0.15774064,-0.026616244,-0.09069704,-0.009975882,-0.27665687,-0.0073331594,0.20011945,-0.017850772,0.2678547,-0.23418514,-0.008631718,-0.10092641,0.32597923,0.28188393,-0.26178515,0.38317737,0.11335237,0.037726585,0.054452714,-0.2308037,-0.12213027,-0.23503451,-0.1965091,-0.08563202,0.22611013,-0.019963792,0.27107027,0.28167534
-0.020368982,0.06903722,0.12317603,-0.01278238,-0.056965437,-0.14366265,-0.056248117,0.049133755,-0.0032466731,0.08892628,-0.085076585,-0.050187144,0.17519431,-0.08354185,-0.075018845,0.19698375,0.0691031,-0.107201844,0.056129426,-0.09355569,0.039798904,0.0477196,0.02936218,-0.022410206,0.008658665,0.0070346775,-0.15642402,-0.13226005,0.02281274,-0.021933753,0.09772923,-0.059856344,0.09631164,0.19934042,-0.13736454,0.024146508,-0.057182886,-0.0124165,-0.086952776,0.04778916,-0.013351924,0.04471493,0.15268454,-0.09167627,-0.04210043,0.08119398,-0.029974088,-0.07185284,-0.030330796,0.029885055,0.0035154885,-0.07748192,-0.058821417,0.0400193,0.116182916,-0.027550103,0.026260154,-0.13733006,0.0146514075,-0.022087362,-0.1369758,0.068078056,0.018726688,-0.10401419,-0.14100647,-0.09388845,-0.060341433,-0.08104231,-0.033233758,-0.029938992,-0.064085566,0.0202931,0.007906393,-0.1042888,0.021161292,0.06583249,0.116302975,-0.099290915,0.17217053,0.053177644,0.008047943,-0.06412242,0.046485268,-0.124247484,0.057347693,0.10553741,-0.027117189,0.062281363,0.031461015,-0.04911093,-0.08464436,0.069905914,-0.050729286,0.03301346,-0.10621666,0.021823058,-0.02628564,0.0073602335,0.016113454,-0.26097587,-0.0074150558,-0.04111041,0.093913704,-0.008123552,-0.012191806,0.12709713,0.023632592,-0.10017863,0.011880468,0.018035762,0.01263629,0.033351604,-0.14110352,-0.09820657,0.13256556,-0.13396943,-0.114674576,0.1746299,0.1039989,0.12563421,-0.15987869,0.050984833,-0.1422912,-0.14895399,0.00011739219,0.020668957,0.015834099,0.05230096
0.1202689,0.12077736,-0.09088988,0.061495233,-0.23698495,-0.13192573,0.0037989581,0.0070110983,0.11426054,0.100448586,0.05619534,0.21761046,0.18183084,-0.13133563,-0.09163924,0.35965583,0.10484727,0.02753659,-0.013382798,-0.17425719,-0.10441963,0.023249405,0.110447474,0.0781174,0.026710955,0.13876535,-0.4131535,-0.05529128,-0.007819569,-0.009747634,-0.04804711,-0.046276473,0.12077355,0.24324124,-0.26252195,0.026362425,-0.045797456,0.19169234,-0.0051006945,-0.06810875,-0.056419507,0.12107929,0.09931285,-0.047494832,-0.04234636,0.14870422,0.07391644,-0.030229649,-0.11165419,-0.13022523,-0.100998424,-0.094270945,0.050594833,0.0019464941,0.090085216,-0.03178175,0.024331793,0.028354956,0.07392487,0.038334254,-0.27541378,0.15360071,-0.13016601,-0.045524143,-0.08083829,-0.038561445,0.07997927,-0.06691014,-0.14535204,0.05048088,-0.17047648,-0.02607853,-0.023063194,0.03169331,0.09988764,0.32809466,0.014452292,0.01113512,0.18659772,-0.09838023,0.0027888967,-0.16050601,-0.011460487,-0.046267617,-0.027699707,0.100814804,0.013043612,-0.033222474,-0.07246489,0.022121806,-0.06246524,-0.08933671,-0.11338231,-0.053881694,0.065986395,-0.025004122,0.08607055,-0.026716594,0.015294013,-0.16134524,-0.046768874,0.09685625,0.19370832,0.07825874,-0.011610551,0.004079655,-0.01640891,0.06884749,0.05047553,0.1559121,-0.18748458,-0.07515679,-0.14716506,-0.1874769,0.18691991,0.030651703,-0.0547281,0.11703251,-0.19416207,0.22321643,-0.12016586,-0.0025538967,-0.17827111,0.03441443,0.049034398,0.00364064,0.10571826,0.0075927568
-0.010808319,-0.04553102,0.22126837,-0.0642547,0.21006264,-0.06612918,-0.07621434,0.021952637,-0.06120972,-0.013357962,-0.057975516,-0.15950274,-0.18324505,-0.08662022,-0.24861869,0.012196985,0.019265164,-0.10838586,0.0012250482,-0.16376461,-0.014180144,-0.11014173,-0.02212118,-0.13062023,0.045087393,-0.057369046,0.15636908,-0.10428145,-0.08732252,0.0023878755,-0.11970892,0.045524042,-0.09654048,0.002995767,0.013119534,-0.05866954,0.04821898,-0.137608,-0.048171464,0.08602939,0.007449506,0.062963136,0.103918634,0.19093695,-0.039171174,-0.011855909,-0.08045744,-0.1406721,0.07328177,0.19671564,-0.031235505,-0.13825978,0.027566653,-0.19329232,0.121240675,0.12196101,0.07341897,-0.06751909,-0.21923812,0.11381456,0.0647002,-0.078828305,0.1660813,0.00775001,0.0012042575,-0.104129866,-0.012118199,-0.17245984,0.122284144,0.014970625,0.20261793,-0.096260145,-0.02120845,-0.12992439,-0.090610094,-0.098002285,0.07922601,-0.061340448,0.20049536,-0.011691738,-0.11987559,0.06847967,0.08971059,0.13589777,-0.0025499759,-0.13882396,0.046944335,0.02100869,0.060314137,-0.027562656,-0.12842044,-0.087000385,0.10270435,0.12640545,0.08327826,-0.035276234,0.023053557,-0.12464847,0.13113265,0.10197948,-0.025852995,0.08680498,-0.030535394,-0.06221468,-0.09612788,0.06753525,-0.016515588,0.083173916,0.13223645,-0.17844333,0.17800437,-0.15263864,0.05981148,-0.0126776565,-0.2434799,0.1112528,-0.024072787,-0.048163593,0.23223267,0.009287504,0.25099197,-0.005113799,-0.17186052,0.048394542,0.10281971,-0.021235544,-0.031243796,-0.035369314
0.043158315,0.2929977,0.0012564436,0.058752984,-0.047785807,-0.31607246,-0.005353378,-0.17281087,0.0913348,-0.008833807,0.09300203,-0.08376791,0.08786482,0.097519815,-0.065031946,0.12075738,0.0957763,-0.14979166,0.006563866,-0.36413512,-0.032290954,0.21954916,0.12667747,0.007854344,0.12994398,-0.36663625,0.09699512,-0.31561115,0.075538695,0.20775832,-0.08731626,-0.2181996,0.10500925,-0.13767752,0.2558575,0.13980077,-0.0781444,0.012650893,0.081958726,0.07733828,0.0751234,0.15223572,0.20086524,-0.010027498,-0.14882746,0.16526535,0.03303757,0.21746413,-0.28267783,0.099688575,-0.2417636,0.089802876,0.024741685,0.21179873,0.12092825,0.04250471,0.13613509,0.114330515,-0.09154164,-0.058309432,0.30210274,-0.18003774,0.22548358,0.039131295,-0.28976077,-0.18328957,-0.041404434,-0.101284154,0.29462698,0.3863516,0.16947442,-0.19660044,-0.02287212,0.033528138,-0.19347309,-0.11937292,0.101670705,-0.27778754,0.060053222,0.054281674,0.03203367,-0.0413266,0.10076159,-0.15021132,0.13611667,-0.12208441,0.008532001,0.20063215,-0.07033519,0.10516623,-0.13294993,0.034745097,-0.18342121,0.18753958,0.043666698,0.021913178,-0.14512178,0.010967593,0.06305193,-0.20446941,0.08565027,0.22348438,0.10839384,0.14351228,-0.27913308,0.117655426,-0.027726594,0.039727837,0.3573741,-0.21396409,0.05056603,-0.016732445,0.19717026,-0.14188358,0.045234807,-0.0627119,0.16571973,0.37302148,0.12067596,-0.19139275,0.10036614,-0.025349848,-0.3624334,0.075066276,0.09606276,-0.00513079,0.04064409,0.31935132
-0.13390142,0.039353516,0.12470236,0.022081539,0.04067461,-0.16701432,0.067819394,0.13622831,0.15419972,0.14417185,0.11028388,0.1894167,-0.016177094,-0.050400212,0.030749217,0.021073684,-0.07205774,-0.022628983,-0.14709699,0.034163907,-0.039117597,0.26554543,0.095674455,0.22607344,0.064159684,0.20913225,-0.07329587,-0.054230534,0.013765528,-0.1604385,-0.05334968,-0.019247046,-0.008120534,0.30525097,0.07049423,-0.017827947,-0.06000879,0.010689646,0.12297002,0.15281162,0.042850915,0.08343671,-0.15974702,-0.010802556,-0.064342804,-0.07005015,-0.034084827,-0.056319688,-0.04665228,0.012512438,-0.10804917,-0.058146596,0.032673426,-0.09076203,-0.06102028,0.030491665,0.23257399,-0.034093585,0.00085461215,0.09140546,-0.092735246,-0.034723278,0.2314579,0.09063861,-0.062390223,-0.09733711,0.2568488,-0.07545044,0.17269798,0.07928582,-0.00084913586,-0.13522413,0.05508008,0.08259072,-0.036448557,-0.07278103,-0.06522065,-0.118810855,0.07532615,0.07906772,0.121718965,0.0685238,0.060533393,-0.03399699,-0.076510236,0.017623201,0.036090232,-0.04289876,0.073115736,0.035922594,0.055353217,0.05667345,-0.11153037,0.11255603,-0.01607358,-0.040017333,0.03252796,-0.028660355,-0.06696869,-0.09055966,0.12698342,-0.08669134,0.05118658,0.072249584,0.060037766,-0.023698213,0.018943066,0.036322214,0.07207656,-0.324556,-0.15148744,-0.0084733125,-0.09906996,0.060862377,0.113367796,0.013333004,0.122718886,-0.053298052,0.12494413,0.07022183,0.026890773,-0.06090015,0.14959274,0.15083143,0.15241183,-0.14512922,0.046425696,0.021825979
0.055777688,0.0034261842,0.081445485,-0.083288476,0.053444684,-0.0779536,-0.049022857,0.033568263,-0.060076654,-0.07841459,-0.036291584,0.025337515,-0.0034888112,-0.066222325,0.07056233,-0.034276344,-0.037864115,0.076022945,-0.02536131,-0.018648285,0.006961134,-0.05387214,-0.029897386,-0.00606116,-0.033978384,0.08484335,-0.08148852,0.041466404,0.013606866,-0.03892937,0.027000338,0.08052949,-0.05094084,-0.07501454,-0.045988932,-0.06444267,-0.064830855,-0.036678087,-0.04057124,-0.023520306,0.08283058,-0.076671585,-0.008728833,0.051741615,0.0017864044,-0.020238983,0.05244472,-0.025424346,0.059216287,-0.07472795,-0.071089424,0.023925003,-0.027149025,0.020134129,0.069721036,0.008318215,0.005146149,0.025645271,0.0027113545,-0.027110806,-0.05339827,0.015764127,-0.056138065,0.051025227,-0.030284617,-0.062369008,0.0605504,0.06987023,0.002812794,-0.051867176,0.025390208,-0.06609556,0.07883822,0.017907258,0.054293133,0.045251153,-0.02053075,0.07675661,-0.006999548,-0.058828153,0.08330914,0.033145778,0.029936923,-0.04505389,-0.004967163,-0.029581187,0.018070249,0.024312006,-0.021092745,-0.030604968,0.0022482865,-0.07946266,-0.05115491,-0.059743,0.04886476,0.046045426,-0.033907134,0.06566281,0.08245119,0.044498276,-0.0039623715,-0.07537784,0.05205223,0.07317627,0.011439787,-0.09791496,0.07579592,0.041276492,-0.049103096,-0.031031387,-0.08062955,-0.039245024,-0.04141221,-0.041851,-0.062579915,0.0027382928,-0.018651925,0.059218995,-0.0732619,0.014396662,-0.06229664,-0.07945481,0.053337093,-0.0007924507,-0.076713026,-0.07123363,-0.07378263,-0.04207602
-0.032049414,0.034667805,-0.070894696,0.075472035,0.02544092,-0.06769813,-0.076536365,0.01662486,-0.036729064,-0.026334653,0.07074462,-0.071833484,0.012976696,0.0797971,0.033776112,0.040534176,-0.055321965,0.066590436,-0.07744994,0.026193801,0.026017804,-0.019553246,0.066628456,-0.029871007,-0.045082923,-0.06591301,-0.0050166594,-0.085343525,-0.023707367,-0.06462425,-0.020572813,-0.050670743,-0.04452094,-0.08688792,-0.05940154,-0.03469734,-0.05654905,0.03960517,-0.07220076,-0.02466694,-0.08048609,-0.037277307,0.009098254,-0.015674338,-0.02289683,0.011377909,-0.06078196,-0.02508875,0.027544633,0.035012368,-0.053459305,-0.0574824,-0.0764403,0.05946229,-0.07809469,-0.042962663,-0.029234953,0.06779639,0.04812669,0.0678108,0.04510686,-0.04658727,0.029106261,-0.031056633,-0.07556358,0.014467195,-0.03626649,-0.0028949422,-0.023623258,0.023966018,0.08197371,-0.06597827,0.04961961,-0.034384266,0.07696301,-0.056802765,0.046425316,0.07575397,0.010968495,-0.06911638,0.002326775,0.013771112,-0.020171208,0.010212146,0.07421817,0.004893422,0.01021604,0.07537409,-0.006672259,-0.0472935,0.0026347393,-0.036747985,0.0056544924,0.031805877,-0.038324997,0.05033847,-0.06748336,0.033353757,-0.030511552,0.027130654,0.009157232,-0.07730575,-0.061689865,-0.013173752,-0.07330902,-0.09476957,0.0101943165,-0.038111024,-0.012940768,0.019234646,0.07954717,-0.016122218,-0.06893379,-0.035957783,-0.04355951,0.06670105,-0.027176015,-0.0312445,-0.039549343,0.008256626,0.017692987,-0.06567283,-0.008093017,-0.024288394,0.034347754,-0.085189864,0.05332999,0.075069316
0.09263174,0.06923249,0.08499582,0.059940495,-0.030255023,0.0045704353,0.04680487,0.017042188,0.041120738,0.0851542,-0.0024073985,0.07638046,-0.10133619,0.014486732,0.06768119,-0.0032933012,-0.045811515,0.02369071,0.008341801,0.018375345,-0.07862891,0.08311474,-0.011216974,-0.06667823,-0.03486379,0.0053081806,0.06376436,0.0050025503,-0.08900878,-0.042752873,-0.035522547,-0.0012569887,-0.026191818,0.038711857,-0.011194869,0.08574136,0.021063566,-0.05590201,0.07279541,0.06566097,0.04700354,0.051813528,-0.06957364,-0.01376284,-0.05177878,0.09545116,0.014498254,0.0123188235,-0.05876274,-0.085645966,0.037168093,-0.055228878,-0.037363384,0.025751356,-0.080870084,-0.055686474,-0.094991244,-0.04551793,0.018602468,0.018065471,-0.00206608,-0.039861467,0.031394076,0.09084676,-0.004652746,-0.013105032,-0.061459087,-0.005795704,0.02459858,-0.107092515,-0.059491005,-0.081924334,-0.06311313,0.12914687,0.071425274,-0.0025537775,0.06288199,-0.009552447,0.074737296,-0.008799097,-0.012594553,-0.052197766,0.040046547,0.06305015,0.01662797,-0.04833576,0.01699563,0.042258218,-0.0733956,0.057130612,0.028109755,0.022385832,-0.0028670726,-0.06033361,0.009770454,-0.05410922,0.0458409,0.05410124,0.029822433,-0.06447588,0.05807425,0.06693148,0.07365219,0.08789326,0.089072764,-0.009200101,0.12211734,0.004074476,-0.044658512,-0.07832116,-0.12200854,-0.06301417,-0.03213255,-0.0034555802,-0.028976804,0.0029592214,-0.034293428,-0.07284128,0.09767509,-0.050737064,0.05737585,0.036091007,-0.08840554,-0.012585363,-0.024860363,-0.007073943,-0.030272081,-0.042426217
0.0026247734,0.13374813,-0.41875398,0.08260192,0.00920129,0.19238417,-0.0075549646,0.00077266287,0.32064694,-0.07379364,0.18619424,0.31396773,-0.010918993,-0.08086105,0.08388463,0.014178634,0.07013682,0.15356947,0.08166886,0.25301635,0.09636429,-0.36007598,-0.045270264,0.086401194,0.05050534,0.046078242,0.018433798,0.105645545,0.19347423,-0.058208708,0.29223394,0.018597446,-0.23749414,0.008651703,-0.05373435,0.30556437,-0.021922974,0.15699999,0.28994146,-0.08598648,-0.042428922,0.13786957,0.0429547,0.0010831461,0.20511821,0.18000413,-0.059901707,-0.0107505815,-0.01334976,-0.2921489,0.21485828,0.31802595,0.07464264,-0.07109977,0.08195544,-0.055873033,-0.32537624,-0.04550121,0.003610809,-0.03096347,-0.20652482,0.160049,-0.5535246,0.07699505,0.039514575,0.060055085,-0.15286894,0.19496754,-0.20070595,-0.22180572,-0.05969698,0.15059851,0.0047608004,0.12590799,0.015175468,0.26473656,0.101023205,0.19044062,0.10536543,-0.030881643,0.12474685,-0.27347267,-0.026047444,-0.07116469,0.07130655,0.16093852,0.12461598,-0.07607049,-0.08728422,0.06094922,0.15205504,-0.044932302,-0.052694496,0.33956027,0.033557218,-0.03723583,0.116448775,0.21894689,-0.09304484,-0.122331455,-0.029373666,-0.01846701,0.1765307,0.15533967,0.1756859,0.13321157,-0.14615783,-0.106515475,-0.077264264,0.54644775,-0.15024358,-0.06228708,-0.086534366,-0.1540838,0.09134454,0.06699894,0.2051336,0.10443863,-0.6174994,0.10726343,-0.3068154,-0.0697573,0.016263803,0.0616356,-0.0750677,0.05644873,0.15263644,0.14432201
0.025832282,-0.008937577,-0.34499288,0.013873486,0.13186508,0.27397215,-0.09650326,0.09268426,-0.073459566,-0.15198402,0.07341544,-0.38718197,-0.109786086,0.002024592,0.015276547,0.08375281,0.3379406,0.10664289,-0.024325112,0.17719899,0.1697765,-0.11302637,-0.25285995,-0.2846322,-0.057890728,0.112763576,0.17941402,0.22720474,0.20447779,0.31601256,0.040856887,0.13115458,-0.064475805,-0.31583694,0.10755482,-0.18468173,-0.017967353,0.00023660841,-0.06333571,-0.19883406,-0.024004113,-0.03544426,0.021315798,0.01346375,0.022296647,0.20560457,-0.018240392,0.14228119,-0.08601949,-0.19745857,-0.09050936,0.1739653,0.072624594,0.10754705,0.033393137,-0.20278697,-0.275572,0.2825819,-0.14399749,-0.004862731,0.21245672,0.109857254,-0.24303356,-0.16016732,0.073338985,0.1926605,-0.05680425,0.2502874,-0.16755292,0.052844364,0.051289625,0.17061077,0.00392908,-0.12289602,-0.091833,0.089346595,-0.0617726,0.39721534,-0.1966183,-0.098342255,-0.15484488,-0.06542585,-0.021275224,0.3930064,-0.03743249,0.04661396,-0.0010348775,-0.08354449,0.05645676,0.1376496,0.023037475,-0.009132559,0.1914805,0.00868308,0.3063887,0.029557085,0.10703939,0.0022003166,-0.075767726,0.32223374,-0.10063826,0.260727,-0.30464423,0.00032493894,0.009195306,-0.0720926,-0.259044,0.09439152,-0.097806744,0.32878184,0.25795892,0.006759279,-0.0024554958,0.21317184,0.13310021,0.14529006,0.13869137,-0.1097121,-0.23898497,0.19328706,0.11848912,-0.0011431675,0.26478824,-0.14617196,-0.09766223,0.18538685,-0.16853853,-0.04663699
-0.029019384,0.045853797,-0.07227154,-0.038479965,-0.4010584,0.09259144,0.044563875,-0.1531012,0.19227205,0.052490104,0.29201248,0.25149825,-0.008651969,-0.0040523577,0.234716,0.061964132,0.09742604,0.10512328,0.044265803,0.07850086,-0.04571858,0.2710904,-0.112164885,0.12149057,0.23215501,0.26012275,-0.2764694,-0.19020882,-0.23383471,-0.0036044715,-0.02882172,-0.15292272,0.11022916,0.19387932,0.07254068,0.11436496,0.0011901566,0.18683606,-0.15568486,-0.07136782,-0.06082004,0.17902121,-0.33443496,0.11171976,0.017945476,0.12375944,-0.056763496,0.1365469,-0.16962095,0.046159938,0.07197522,0.0027425266,-0.083422266,0.32617468,-0.06672527,0.040651236,0.18255527,-0.34624556,0.09383186,-0.1568757,-0.043248422,-0.3019061,0.044347342,0.17418675,0.16656879,-0.09332977,0.34030518,-0.10038474,0.06973545,0.24177144,0.055046428,-0.084729575,-0.09833914,0.0144841345,0.23425335,0.18830375,-0.09074214,-0.016761448,-0.08062618,-0.010525662,0.13733026,0.07250197,0.033417664,-0.16143057,-0.03310187,-0.009101407,-0.13383195,0.027430533,0.041117016,-0.026574917,0.073202536,0.08942904,-0.24055181,-0.32853612,0.10508757,0.09400728,0.049648844,-0.057429966,-0.008435917,-0.32300985,0.051459882,-0.11356401,0.28070548,0.18013291,0.08339355,0.079440475,-0.118120454,0.13007239,0.16233239,0.17011997,-0.18831213,0.087960854,-0.26531056,-0.2503927,0.22446224,-0.09404787,0.10944146,0.07920684,0.1373044,0.23020588,0.01494353,0.049738765,-0.14678162,0.25740966,0.0069286195,-0.099775806,0.042835396,-0.115344554
-0.04998441,0.07077382,-0.25395107,0.058016915,0.013420109,-0.055873208,0.017911937,0.036097977,-0.042391337,0.05867451,0.021334874,0.25850165,0.07720305,0.015481496,0.09052876,0.07603223,0.0895245,0.064190015,0.17448595,0.008206162,-0.034702368,-0.1442411,-0.039573826,-0.006325602,-0.08649957,-0.0026780176,-0.2977041,-0.20160396,-0.0577695,-0.35414773,0.103985116,-0.028482134,-0.12664382,0.10310771,-0.29466462,0.07811659,-0.09296422,0.09306182,0.1374605,-0.13926707,0.051274553,-0.016728358,0.119717486,0.036052383,0.015444442,0.095117405,-0.010795748,0.13816547,-0.021352885,-0.15619801,0.08240815,0.026326833,0.02736687,0.033428367,-0.030698065,-0.22592154,0.002877318,-0.06655,0.056166068,-0.019316208,-0.3020376,0.02314543,-0.23186135,-0.086198434,0.22513476,0.052476663,-0.025291918,0.008984909,-0.2867974,0.009280232,-0.3201152,-0.15062863,-0.014892776,-0.017918527,0.10364642,0.18932302,-0.061268628,0.13697967,-0.11350698,-0.04726015,-0.029383803,-0.10066643,0.17457287,-0.067738384,-0.013957771,0.16374066,-0.052003615,0.022191513,-0.047936868,0.10343309,-0.029261122,-0.045060378,0.13107419,0.025691306,0.047792353,-0.078106865,0.03906447,-0.05417104,-0.040311925,-0.08447153,-0.035855427,0.0016317066,-0.05495196,-0.098683074,-0.03698882,0.054239485,-0.056552544,0.009969047,0.04163431,0.12596771,-0.24988556,-0.081935726,-0.22837433,0.046092663,0.22501032,0.06266112,0.3029129,-0.027680805,-0.44434965,-0.007933209,-0.28665408,0.14782028,-0.0865979,-0.0073398105,-0.019749766,0.069673106,0.060046718,0.068025954
-0.1069344,-0.14234692,-0.09957124,-0.009124579,-0.045001958,0.062159054,-0.076777935,0.17014633,0.13778982,-0.015434624,0.09497171,-0.14850736,-0.13064036,-0.12486116,-0.0203821,0.12900755,0.12630337,-0.06642944,-0.27092248,0.020853685,0.25538993,0.02999637,-0.1128524,-0.030962415,-0.15730955,0.35123348,-0.070922665,0.29267865,0.10091625,0.08000829,-0.22714716,0.22607768,0.022487057,0.15940608,0.07682935,-0.07969582,0.0038285085,-0.073500186,0.29020756,0.061726794,0.08657849,-0.05886911,0.030937104,-0.17320915,0.07435593,0.1210248,0.017524065,-0.028539116,0.17461306,-0.22465421,-0.10131941,0.16236675,0.13243593,-0.03189402,-0.16312285,0.0152701745,-0.0024390488,0.14726134,0.11492776,0.08691265,0.092133306,-0.024313383,-0.20637377,-0.020779671,0.0069358894,0.025846692,0.024785707,0.20511286,-0.1447983,0.024466258,0.12824948,0.0852503,0.006545487,0.112766184,-0.0063795,0.106648974,0.048924696,0.22152974,0.07562252,0.021351043,-0.05903601,-0.0038751245,-0.038516186,0.14710522,0.12567443,0.030993557,0.053512335,0.040720686,-0.00062709226,0.038476698,-0.054135703,0.081367895,0.06432571,0.17911778,0.03598385,-0.01722295,0.028357355,-0.2581549,-0.054481048,0.17819081,0.096414335,0.074015595,-0.2192231,0.15413919,0.17710961,-0.08294219,-0.0859016,0.0030410774,0.10502852,0.01254523,-0.007832959,0.1688591,-0.036789887,0.31379092,0.11027663,0.20834741,0.16714981,0.046251394,-0.20120078,0.25408188,-0.024842527,-0.060311753,0.35819766,-0.06560864,0.06971143,0.025302827,0.04061219,0.0072584045
-0.065530114,0.026275005,0.034700315,0.009731523,0.094308764,0.06632832,0.039916646,0.09690492,-0.081717156,-0.10993701,-0.3408973,-0.37311408,0.2777516,0.15368596,0.13908485,-0.06685843,0.068044096,0.030169152,0.1801938,0.08853142,0.053754196,-0.0711158,-0.0064991154,-0.18538538,-0.016104165,-0.07933833,0.16909555,0.05805216,0.25279713,0.037510645,0.13327259,-0.3156431,0.12441082,-0.05302215,0.1028196,-0.21913655,-0.065751635,-0.0007287974,-0.34297585,0.03189765,0.038055267,-0.35512143,0.19598947,0.0015620664,0.058223557,-0.14071527,-0.02571321,0.047642533,-0.099769354,0.048438,0.10088594,-0.042345498,-0.17056373,0.17042528,0.04133462,-0.08088617,-0.06252749,0.21014044,0.21942975,-0.037779063,0.14691833,0.12449793,-0.02151119,-0.124174014,0.10104778,-0.020277457,-0.12543984,0.0118233105,0.110748366,-0.043438073,-0.13211878,-0.02379456,-0.060934708,-0.28936684,0.1173234,-0.031979617,0.15792683,0.27411443,-0.21733922,0.040130325,-0.09307234,0.020677116,-0.07359999,0.1272931,-0.21773034,0.20909327,0.048974562,0.044994097,-0.075513154,-0.10801556,0.023623016,-0.049008843,0.17302212,-0.26616782,0.026335388,-0.09596628,0.0038268277,0.12617849,-0.019140976,0.40927497,-0.1661161,-0.02906012,-0.13362461,-0.24956793,-0.09494253,-0.087370336,-0.025121517,0.043930862,-0.29008937,0.15432385,0.044018526,0.18942666,0.060148418,0.10428991,0.13469882,-0.27268937,-0.28150108,-0.11912994,0.09090247,0.23038357,-0.017384568,0.22049479,0.10286392,-0.16596001,-0.024034629,0.042089928,-0.19541746,0.15482464
-0.05740377,0.119872965,0.20652187,0.055795696,0.14490671,-0.11821779,-0.0052349996,0.14077625,-0.108530626,-0.0046765264,-0.28372052,-0.08720924,0.19993846,-0.06461486,0.007928117,-0.06287583,-0.038724817,-0.0065749637,0.0113769565,-0.029334988,-0.15363623,0.051671863,0.031181913,0.0840318,-0.037465915,0.09028278,-0.018619772,-0.088744886,0.04919856,-0.16443916,-0.06360025,-0.14132452,0.054067187,0.27851933,0.03321904,-0.049267553,0.0111408215,-0.099423945,-0.19251354,0.07013104,0.075484104,-0.10186041,0.09602632,0.048702084,-0.02722009,-0.21985328,-0.031688694,-0.12316617,0.056401167,0.1514019,0.00625626,-0.12921113,-0.034081034,0.017853238,0.1075443,-0.0024461967,0.121264316,0.0065581943,-0.039116696,0.011874314,0.038510274,0.16532248,0.111398265,-0.08295606,-0.12084888,-0.12276852,-0.053384986,-0.16528264,0.10277707,0.025169132,-0.11654373,-0.11692486,0.008148951,-0.11855036,0.07571603,-0.03863787,0.12309282,-0.10264013,0.068367586,-0.040813506,-0.0775866,-0.10303634,0.13560693,0.04780409,-0.19622675,0.17608827,-0.09323526,-0.012459797,-0.040127356,-0.04454386,-0.081713185,0.031081077,0.05175266,-0.022337373,-0.12193173,0.017714249,0.098291755,0.14045823,0.12309168,0.15363933,-0.06298397,-0.011894829,-0.005582097,-0.11382781,0.00036416782,0.0627663,-0.025744162,4.932953e-05,-0.1451317,0.06284332,0.034015507,0.117697984,0.07136447,0.14248124,-0.0511108,-0.022171378,-0.07032167,0.04626033,0.20194362,0.046759166,0.099487625,0.005995328,0.13634638,-0.015892839,0.041242994,0.13489786,-0.18288498,-0.06283413
-0.11631047,0.10906289,-0.026275832,0.07381927,-0.26881918,0.1004358,0.08711858,-0.5801203,0.12909721,0.09098801,0.26625323,0.032373197,-0.09550702,0.10898546,0.17584635,-0.3242749,0.0889981,0.30770403,0.14898382,0.18136619,-0.088189594,0.3837082,-0.0775558,0.26609474,0.187647,0.035548065,0.27594534,-0.022676816,-0.25401917,0.74164265,0.21596904,-0.023001093,0.18390189,-0.43076733,0.50239307,0.035767976,-0.07889296,0.19278534,-0.26428562,-0.060396988,-0.004465971,0.07850642,-0.16549961,0.3586559,0.12776357,-0.047257002,-0.07831297,0.09651499,0.06768241,0.23131949,0.2185176,0.025383245,-0.095414765,0.4874534,-0.10578203,0.25344658,0.20440061,-0.25790614,-0.061518192,-0.07505103,0.4812912,-0.37601146,0.41400337,0.17660326,0.25492778,0.1315715,0.15052406,-0.013195449,0.33892664,0.3174557,0.4074092,0.119820245,-0.029230682,0.16686949,0.17854606,-0.44480875,0.01682394,-0.16403857,-0.14121939,0.051606767,0.078658484,0.12606286,0.08922069,-0.1792173,-0.035167683,-0.23902935,-0.029815305,-0.068839125,0.088374384,-0.16047914,-0.06425891,0.10575827,0.017254446,-0.37037823,-0.05462071,0.06520573,-0.14949116,0.2175102,0.011713654,-0.3831614,0.12558334,-0.042598374,0.42873725,0.38269213,0.11188323,0.005990974,0.04140562,-0.10879478,-0.23529327,0.23349135,0.45319548,-0.10766471,0.0124504175,-0.43220362,-0.13919444,-0.15073884,0.2043001,0.19547111,0.38990304,-0.2653971,0.28662145,-0.14762263,-0.13837104,0.6847791,0.09453002,-0.04174553,-0.02370392,0.054491352
0.042732634,0.054524302,-0.048423443,0.063479155,0.073548645,-0.010093288,0.060554024,-0.05979157,0.04669377,-0.09106243,-0.026260618,-0.019811658,-0.08711957,-0.077363566,-0.045649454,0.030088909,-0.032102384,0.041225266,-0.0002324224,0.10220778,0.042653788,0.02574035,0.03579248,-0.062578544,-0.06949163,-0.071584456,-0.039993133,-0.044942323,-1.4686939e-05,0.07646167,0.10118184,0.018922795,0.08173483,-0.04486052,0.061266378,0.03567108,0.041439224,-0.05710596,0.034321103,-0.015774831,-0.07958044,0.05081859,0.080257714,-0.07958688,-0.07295475,-0.023100505,0.060826633,-0.014640242,0.01914072,-0.025360722,0.08664811,0.096128136,-0.089959346,-0.0037677095,-0.035482313,-0.04658129,-0.0029660584,0.053244416,0.035007533,0.08785855,-0.01741724,0.075725,0.06559997,0.082299896,-0.04249001,-0.034275547,-0.02231149,0.014217616,-0.050857835,0.045611687,0.069518216,0.09109318,0.056490898,-0.073937334,-0.010081825,0.02530971,0.05385411,-0.05107621,-0.07251548,0.058362175,-0.044513028,-0.05489867,0.049772866,-0.057109788,-0.008897812,-0.040649872,-0.03943929,-0.005274888,-0.06367379,-0.044959433,0.04065947,-0.0020576096,-0.07170336,0.032318942,-0.040653747,-0.04836535,-0.061698254,0.017859217,0.07118177,0.08539681,-0.009660379,-0.08401748,-0.030767417,-0.10391071,-0.012075896,0.08225225,-0.10504934,0.005112816,0.004365087,-0.046658244,-0.039912254,-0.07063991,0.032825142,0.04934702,0.010785753,-0.019857915,-0.016504671,0.020467618,-0.09362548,-0.08859019,0.07034074,-0.07303167,0.0036593156,0.0020461685,-0.031058758,-0.08062342,-0.055769958,-0.021219665
0.07227412,-0.02185178,-0.18814899,0.009925393,-0.14310911,0.10254782,-0.090148956,-0.07947088,0.07564906,-0.06415356,0.04321975,0.003692081,-0.076844715,0.079754,-0.060727466,0.081861556,0.083605096,0.013470272,-0.05227035,-0.059080392,-0.058741964,-0.10274874,0.022849202,0.037026394,0.011081532,0.014719934,-0.0756333,-0.08981018,-0.008532984,0.052506376,-0.0026889236,0.018632779,0.03479387,0.048742343,0.013149257,0.05120626,-0.08390976,0.151715,-0.11519812,-0.021105498,0.08099372,0.079179496,-0.12772097,0.06785766,-0.024257109,0.058940798,-0.043446615,0.05569656,-0.04327228,0.08236528,-0.018099526,0.12689735,-0.07495334,0.17764233,-0.1173256,-0.028362395,0.13759665,-0.057896648,-0.04037067,-0.11998066,-0.004619466,-0.1117757,-0.049539044,-0.07036631,0.018462311,0.08488924,0.027785456,0.03561356,-0.10009456,0.0070308223,-0.004733595,-0.021669777,0.011819681,0.0034770276,0.05019686,-0.011135886,-0.05299313,0.050987024,-0.0050953636,-0.086215235,0.0012412841,0.07699256,-0.045940153,-0.025072021,-0.08427479,0.058070883,0.043611366,-0.061380688,0.015080631,-0.02216651,-0.03142494,0.06566941,-0.0632384,-0.1472904,-0.020775054,-0.06803071,-0.0045611407,-0.03612139,-0.031490866,0.08554392,-0.034834024,0.021357326,0.20707272,0.12047887,-0.032049365,-0.021171467,-0.03312753,-0.14023022,-0.02817225,0.2684102,-0.019515887,-0.073203355,-0.08964368,0.017207263,-0.07855028,-0.08217901,0.031350464,0.07619321,0.0043241372,0.010045604,0.10259893,0.035614643,0.0114123095,0.09811088,-0.025803903,-0.08154731,-0.06796787,-0.02590123
0.02973797,-0.16428928,-0.06126435,-0.07685183,-0.1141271,-0.034781456,0.013270563,0.3909288,0.11653373,0.00020034905,0.11305123,0.06197735,0.03676537,-0.10441779,0.014313027,0.12235598,0.087934494,-0.12622795,-0.24678428,0.15213275,0.22078377,-0.073536195,-0.078383215,-0.06162083,0.09885968,0.42163268,-0.3452922,0.2577194,0.004688711,0.059339996,-0.0665677,0.31132984,0.06935322,0.24621572,-0.22001386,0.051648013,0.073537625,0.14749108,-0.02315825,-0.0164182,0.02602942,0.02278757,-0.06742594,0.029637692,0.05043722,0.034754917,-0.011995131,-0.066811495,0.0272668,-0.09842878,0.028140865,0.08098098,0.084400676,0.04840205,-0.16107015,-0.1080641,-0.20017882,0.11852806,0.1113124,-0.018788382,-0.083792344,0.089419305,-0.1567334,0.041368023,0.19709283,0.034158744,0.20525159,0.20533904,-0.3417435,0.022161698,0.05162592,-0.01779973,-0.10256031,0.111200355,0.1467614,0.20042929,-0.13653663,0.25623816,-0.008793111,-0.085144594,0.057755023,-0.023175236,0.01655332,0.06504765,-0.035679553,0.12606058,-0.06794047,-0.1341609,-0.08447881,-0.032719582,0.10496102,0.1605998,-0.07578669,-0.098222986,0.11150665,0.06319239,0.027928308,-0.19122306,-0.08674894,0.044509444,-0.03404959,-0.049955856,0.058095362,0.2449054,0.1957949,-0.007622156,0.13996571,-0.035739083,-0.12293908,0.07568047,0.14986722,0.25959626,-0.11326888,-0.08572689,0.24540795,0.25400612,0.021206908,-0.140879,-0.18869413,0.15742798,-0.1150614,0.07934638,0.25078923,-0.0704877,-0.027408775,0.0024754123,0.065821424,-0.13744305
0.053729724,0.07542531,-0.281621,-0.08098312,0.11269948,0.075718105,0.07551453,0.18620181,0.07211759,0.031901147,-0.03503254,-0.06886052,-0.087426305,0.059968047,-0.046646684,-0.07551725,0.011028879,0.29086974,0.0081652375,0.24714634,0.047392935,-0.24359621,-0.34046432,-0.22035153,-0.23734865,-0.030083226,0.14724831,0.35359842,0.092027545,0.2171935,0.064686075,0.050009344,-0.0011480312,-0.27853927,0.08849436,0.05589638,-0.08592019,0.014594318,0.057282094,-0.1929883,-0.039435152,-0.08223795,-0.011047029,0.10929216,0.034561872,0.035757124,-0.03846262,-0.1492405,0.12279158,-0.15605704,-0.038219377,0.3136587,0.16541182,-0.021703899,-0.06496811,0.10817782,-0.080253676,0.16085811,0.08579011,0.02595142,0.09192896,0.14670926,-0.12146125,-0.035231072,-0.2206109,0.1487231,-0.13025552,0.043514956,-0.11753106,-0.0689156,0.27918166,0.18156423,-0.03877321,-0.009645073,0.061626688,0.09360739,-0.13229816,0.024786312,0.012383485,0.04214347,-0.025779191,-0.4117761,-0.15887399,0.23100536,0.12050935,0.12056404,0.055791393,0.0010295575,-0.022262385,0.009936188,0.16971102,0.110329956,0.010313034,0.21408765,-0.047111537,-0.06767614,0.11169717,0.1470502,-0.019573089,-0.0863858,-0.03696901,0.1217289,-0.025330864,0.09254243,0.04373104,-0.108728886,-0.08702053,-0.25652578,-0.092283756,0.28751773,0.32043168,-0.015973482,0.027439747,0.18127619,-0.06039939,0.15501346,0.09837609,0.13955839,-0.23758537,0.06926355,-0.03690441,0.018969629,0.253843,-0.004526727,-0.29693756,0.15740086,0.067922525,-0.033379167
0.04324466,0.11115308,0.024549915,-0.038408022,0.18405183,-0.0129262265,0.096092805,-0.02973546,-0.02827121,0.00010338122,0.027723378,0.06905785,0.0809012,0.07505625,0.22962071,-0.14810601,-0.028185377,0.06880326,-0.20825388,-0.09757883,0.008786531,0.34080967,-0.1030076,0.0057853516,0.005762017,0.028876191,0.084001735,-0.09474971,-0.065286,-0.027574519,-0.030637028,-0.032785732,0.0596564,-0.0003430562,0.22678259,-0.037904665,0.08838098,0.009544288,-0.107182465,0.04264763,-0.0032718577,0.055796195,-0.11114558,-0.0009153523,-0.12783669,-0.06846635,0.012402585,0.13779148,0.0694344,0.10601457,-0.2818493,0.07756735,0.037467167,0.121374644,0.10348828,0.28807592,0.3364027,0.057637278,-0.054652225,0.07714871,0.30685848,-0.055848166,0.25211582,0.04469786,-0.27988636,0.016718503,0.13294654,-0.117599905,0.39789832,0.13349193,0.22076538,-0.07059356,-0.00014429372,-0.042553075,0.15587144,0.027115919,-0.0632036,-0.04091349,-0.037911035,0.0029061693,0.022445887,-0.05942691,-0.029549895,0.0022346384,-0.0371475,0.028924158,0.013800374,0.18593559,0.020723527,-0.024181025,-0.09754273,0.121466875,0.05630673,0.03186495,-0.032005105,0.029439041,0.14177895,0.19867584,-0.008825058,0.12037954,0.063849516,-0.079664946,-0.013620908,-0.07119845,-0.103871666,-0.040139705,-0.1159673,0.059784222,0.07390193,-0.021247376,-0.027799776,0.17334358,-0.0156752,0.14587107,0.23298892,0.09214624,-0.16096197,0.21095248,0.3319379,-0.1797653,0.24181333,-0.150098,-0.017991759,0.011546244,-0.041815687,0.0013420325,0.033292625,-0.22996596
-0.0053323354,-0.1551085,0.45685878,-0.07694485,0.14161214,0.29848137,0.0679164,-0.3867308,-0.29150268,0.012756639,-0.014192011,-0.22669683,-0.23795211,0.015486598,0.10567527,-0.46497583,-0.06705557,0.023531934,0.34711748,0.29754257,-0.29670313,0.044561718,-0.03999319,-0.15082414,0.06864465,-0.06557592,0.44565523,0.009813048,-0.19359063,0.20782849,0.1771736,0.25535586,-0.16182515,-0.23445447,0.14169805,-0.034278635,0.030373946,0.094178155,-0.44453555,0.22924231,-0.06413097,-0.08159559,0.20586413,0.36580437,0.08556985,-0.38059625,0.056805342,-0.17547494,0.22388843,0.31155217,0.33153218,-0.12280108,-0.048226185,-0.1322349,0.10801018,0.091049515,-0.23294497,-0.2120974,-0.07493313,0.07971312,0.21763769,-0.03423906,0.24566822,0.072743826,0.23946756,-0.09154248,-0.07264432,-0.12975277,0.22659361,-0.24887633,0.089884,0.18262331,-0.09426994,-0.15870573,-0.0016428583,-0.48808327,-0.048832778,-0.09517355,-0.3266688,0.15190142,-0.089037985,0.21709003,0.20092863,0.12144636,-0.052914225,-0.039144672,0.06916389,-0.07166259,0.088192575,-0.10493575,0.03498477,0.0099457335,0.2195378,-0.22833577,-0.047439728,-0.024682488,-0.04790026,0.07202982,0.11280619,0.0009873126,0.14595354,-0.11838168,0.058493953,-0.2388603,-0.17455548,0.30109307,0.17992887,0.20135678,-0.42142117,-0.088148646,0.28923386,-0.13070492,0.1395442,-0.100986496,-0.3447421,-0.04071076,0.010562025,-0.28920662,0.5758482,-0.2754563,0.15726349,0.166536,-0.24422912,0.32651466,0.08584833,0.078996725,-0.32861146,0.020386422
0.02116396,0.008205496,-0.08812816,-0.055373777,-0.009686746,0.01942339,0.040448047,0.11282532,0.060548738,0.0459338,0.15490264,0.0008075753,-0.042293914,0.051730346,0.032231778,0.077011235,0.056981094,-0.062418077,-0.14233084,0.029110577,0.13621637,0.0671277,0.026993448,0.014808139,-0.033999316,0.18458988,-0.1980434,0.11140851,-0.06616578,0.23890164,-0.035723496,0.027865147,0.12832418,0.008898292,-0.043472573,-0.019588972,0.07742474,0.03818434,0.02987818,0.011925922,0.020123392,-0.009173838,-0.0981206,0.017638441,0.07004919,0.095372476,0.025375584,-0.0840607,0.051422976,0.023296194,-0.089647576,-0.014677533,-0.020522261,-0.003342452,0.024928464,0.0026162784,0.054152686,0.14875494,0.10956386,0.059610363,0.09051973,0.07082027,-0.08416428,0.057737593,-0.06508806,0.14428377,0.15422498,0.19267084,-0.15389349,-0.0029404766,-0.012771209,0.037870012,-0.013224855,0.037859842,-0.051090617,-0.03817206,0.0542077,0.09965698,0.061043024,0.062000718,0.067159526,-0.0139868,-0.030761214,-0.029596834,0.09257361,-0.10058615,-0.010144585,0.03861929,0.022721626,0.0052599506,0.00050528976,0.14347792,-0.15944614,-0.11611771,0.07868904,-0.01592563,0.091197215,0.030710476,-0.0686213,0.039544873,0.014115237,0.12600335,0.13391468,0.23119806,0.048594646,-0.07796385,-0.006981594,-0.0032981713,-0.09885612,-0.028974107,0.11135628,0.147145,-0.14902604,-0.1039114,0.08209651,0.22948702,-0.064536795,0.011826383,-0.043791242,0.15040994,-0.023031697,-0.008243293,0.00282288,0.08948879,-0.13856912,-0.031150637,-0.032800153,-0.14608726
0.043157633,-0.023426158,0.014969184,-0.069831595,0.13299926,0.13234392,0.046655,0.059317738,-0.24450867,0.016516278,0.20059194,-0.053855974,0.040785696,0.05558878,0.026060065,-0.107116446,0.07282796,0.030385617,-0.0016438211,0.06451368,-0.02399683,-0.065249674,-0.2573412,-0.16400276,-0.19917248,0.08542778,0.05004647,0.004043016,0.06359595,0.112031095,-0.023791112,0.19763795,-0.093783215,-0.13478465,0.14210089,-0.1431513,-0.07497832,-0.18278717,-0.21814193,-0.087693915,0.062942535,0.04355834,0.040224165,0.051232096,-0.050189894,-0.117450066,-0.02945455,0.09165857,0.04694274,0.07954842,-0.16807546,0.0064819935,0.020073593,-0.10901518,0.04604557,0.11338287,0.119122595,-0.058824833,-0.15934087,-0.060494885,0.07830641,0.03442187,0.06694964,0.06225363,-0.37296695,-0.03211224,0.010724474,-0.009283939,0.040167373,0.093406186,0.06178875,0.10280766,0.085356176,-0.0841804,-0.05921673,0.0058427854,-0.03175565,0.12331597,-0.06802666,0.06939572,0.014165771,-0.11893705,0.13472487,0.08413618,-0.086023204,0.045920268,-0.04537005,0.1157024,0.06854613,0.060322408,-0.044523597,0.01236708,0.15902717,-0.018782297,0.091189146,-0.08706647,0.04290331,0.08068496,-0.008914196,0.061878636,-0.055664185,0.07156286,-0.21447025,-0.124722734,-0.045889534,0.08760597,-0.05897116,0.098776296,-0.15409602,0.10443574,0.10778264,0.09449655,-0.07002561,0.010688346,-0.01845486,0.06686607,-0.08264642,-0.02870895,0.10423423,-0.08123626,0.21529828,-0.0038927065,0.005626469,-0.010005187,0.03343267,0.13181746,-0.03510754,-0.036267035
-0.038452756,0.0038978495,-0.058440994,-0.08805131,0.050534185,-0.08301724,-0.09536334,0.06067685,-0.10575033,-0.17868812,-0.42567405,-0.33521643,0.37939692,0.17378204,0.13718155,-0.04958867,0.10797399,-0.2440773,0.09061707,-0.072907165,0.19798777,0.21407391,-0.085892215,-0.15935542,0.038541824,-0.2926629,0.124881744,0.14425556,0.26607895,-0.041229032,-0.15441163,-0.0662651,0.1554611,-0.12544076,0.15076393,-0.04423771,-0.090541005,-0.09773021,-0.2705263,-0.02800893,-0.021034403,-0.20943718,0.14148974,-0.24117954,0.009722848,-0.105054684,-0.028747268,0.324452,-0.24043761,-0.048878502,0.13617896,-0.025949048,-0.007224035,0.3444544,-0.116295904,-0.17367895,-0.10700719,0.25658947,0.110209234,0.002070247,0.1005261,-0.006475144,0.15273653,-0.30949137,0.36033762,0.046923105,0.020535948,0.13211645,0.23796353,0.2719837,-0.13846406,-0.02423714,-0.10640553,-0.2529417,-0.06126653,0.0017336458,0.15934768,0.14789866,-0.18287745,0.03894912,-0.20253357,0.26553252,-0.07665193,0.33887058,-0.07799453,0.13694425,0.020633489,0.17770104,-0.055776943,0.12040623,-0.02031387,0.122868635,-0.02601795,-0.052230563,0.10739234,0.058204688,-0.057817332,-0.19890203,0.045137264,0.35470465,-0.12345749,0.14700776,-0.24508888,-0.24876134,-0.19814308,0.07814731,0.05573827,0.2418224,0.2024736,-0.15771751,-0.06997672,0.14883164,0.107420154,0.16044043,0.2624238,-0.08570691,0.04544042,-0.009069682,0.13063486,0.19283472,-0.049340405,0.15025137,0.1541757,-0.3157097,0.031439636,-0.072689734,-0.26196754,0.23831473
0.05515886,0.1187125,-0.011067046,0.070083246,0.034643687,0.034536656,-0.04793633,-0.16481319,-0.09341033,-0.013524374,0.09390189,0.066097416,-0.108764805,-0.09645334,-0.14188494,0.034155343,-0.083911814,-0.013551945,0.043785583,-0.21178591,0.049356792,-0.085016206,-0.06043059,0.0008012906,-0.078833714,-0.18252878,0.19885328,-0.070984416,0.06478063,0.038784515,-0.012150145,0.21750511,-0.08173914,-0.18048003,-0.025606338,0.23601383,-0.0676487,-0.10826765,0.16109774,0.11417718,0.046482056,0.2389576,-0.019705392,-0.15418541,-0.11607333,0.12342934,0.079023115,-0.08879679,0.09594165,0.016734228,-0.12209911,0.095026016,0.14928457,-0.103171095,-0.13479957,0.116606586,-0.0001635717,0.04447697,-0.3264632,0.114159465,0.029228227,0.009006305,-0.036428712,0.1382401,-0.2639247,-0.060090818,-0.13246973,-0.028264737,-0.0075720954,-0.009050613,0.04127919,0.051893998,0.16433574,0.036246605,-0.07492655,-0.14835772,-0.006618154,-0.07638401,0.1921716,0.017169708,-0.026892092,0.03334313,0.03109533,-0.15893485,0.13076758,-0.0597728,0.1541963,-0.06514935,-0.049205504,0.081800304,0.011759805,-0.15200584,0.0090459585,0.30325922,0.031793855,-0.015061279,0.011244101,-0.098686084,0.07958064,0.1725858,-0.019064134,0.091299966,-0.11643458,0.027309079,-0.057135127,0.06104864,-0.05394584,0.16333675,0.1313959,-0.16850093,0.058981325,-0.12714164,0.11143412,0.012291987,-0.31039545,0.16066141,-0.017726872,0.079720974,-0.046338666,-0.23238482,0.21008712,-0.17049208,-0.19268695,-0.16311519,0.09186126,0.0005025406,0.17266805,0.046906404
-0.010066992,0.16692704,0.113296956,0.016960414,0.084342085,-0.09851552,0.029711917,-0.12807597,-0.10958954,-0.117140435,-0.13064022,-0.17684473,-0.003699791,-0.0047183456,-0.071369864,-0.1186746,-0.068496846,-0.23480795,-0.0662663,-0.13963109,0.08218875,0.23317884,-0.12848979,0.04034245,-0.13846962,-0.26686606,0.22300759,-0.0839388,-0.05519705,-0.18365708,-0.09657796,0.040997736,-0.06727471,-0.21196817,0.11000708,-0.018840693,0.016887834,-0.15344611,-0.04316748,0.11953063,-0.04510899,0.02986965,0.12084915,-0.09140951,-0.019049903,-0.052271146,-0.08544885,0.16811141,0.0153776,0.06513025,-0.17532033,-0.08283391,-0.086358935,-0.054673333,0.07528801,0.014586854,0.17709522,-0.073493645,-0.1406143,0.040342055,0.12234386,-0.189262,0.2220621,-0.106816985,-0.12438622,0.00406041,-0.10640054,-0.08067853,0.3030726,0.14239733,0.056325708,-0.09800245,0.13646434,-0.21277454,-0.20096406,-0.024129137,0.09743271,-0.08979704,-0.052930217,0.016686182,-0.054883186,0.24716851,0.17488663,-0.07197364,-0.011000081,-0.08961207,0.12118162,0.1407554,0.021471862,0.06714156,-0.02918434,-0.083808824,0.19731344,-0.091841,0.11242215,-0.042986114,-0.17978355,-0.15566228,0.11053096,0.22782877,0.12843686,0.12487276,-0.24290685,-0.22843048,-0.37797537,0.14571981,-0.09266672,0.18834956,0.046328276,-0.19689775,-0.051011126,-0.024443476,0.109895855,0.04669616,0.014369429,-0.0741254,0.13830233,0.026533129,0.23907353,-0.28121138,0.2848462,-0.05381793,-0.29473734,-0.08349761,0.12063548,-0.04156467,-0.09437974,-0.011269077
0.06834485,0.104686126,-0.12496299,-0.07738887,0.0762174,-0.038179055,-0.043735728,-0.12639892,0.012357927,-0.16530615,-0.0695607,-0.33672836,-0.17816406,-0.1041403,-0.32502997,0.13997139,0.19539315,0.042797066,-0.10233215,-0.088633046,0.10556068,-0.11308811,-0.10816949,-0.22165851,-0.10078974,0.011835807,0.41009864,0.20587113,0.19727506,0.38476777,-0.07283684,0.2659817,-0.1289853,-0.38878947,0.31146362,-0.04420244,0.047969103,-0.108734675,0.11154058,-0.10279105,0.0023897577,0.18303809,0.26343673,0.14356348,-0.050910827,0.008700548,0.03216495,-0.08898219,0.14395994,0.049181268,-0.14996566,0.10586776,0.1927679,-0.22645548,0.078787945,0.08431686,0.018474312,0.08090029,-0.41627207,0.09470761,0.36992466,-0.13313942,-0.011762114,-0.17681946,-0.2600322,0.11269881,-0.25085765,0.22673698,-0.07090065,-0.0018042105,0.3922546,0.17767796,0.15349247,-0.13765423,-0.25085694,-0.2734982,0.09305375,-0.058377698,0.26479307,0.12448972,-0.055969305,0.0031710842,0.012589519,0.03289572,0.28436708,-0.29667112,0.19549441,-0.008514681,-0.07907258,0.14995295,0.06472929,-0.078969754,0.058152426,0.2852796,0.16783904,0.042840824,-0.06475899,-0.13691154,0.088293284,0.26237416,-0.019012315,0.10453077,-0.2296842,0.03620558,-0.12615004,-0.082957484,-0.27364686,0.08153183,0.09555581,-0.15451223,0.4090928,0.018157585,0.091209166,0.09042424,-0.17872016,0.19695827,0.03799616,0.1643836,0.047908857,0.064453654,0.17040473,-0.21881579,-0.03747164,-0.08582673,-0.011916671,0.109451935,0.012928348,0.0039014115
-0.13356173,0.08149309,-0.067513674,-0.07729711,0.43875384,-0.15693365,0.12901789,0.20657054,0.20438543,0.11069932,0.087385826,0.113374196,-0.066172585,0.06393122,0.13908689,0.037191074,-0.3276059,-0.012563105,-0.31776243,-0.15193915,0.004101713,0.06671857,0.058776893,0.26750433,-0.19375566,0.34241462,0.12496576,0.00070048246,0.09149689,0.07578879,-0.33055013,0.14156175,-0.22895011,0.17431176,0.08554132,0.1602902,-0.00042082946,-0.025203854,0.37915865,0.023271983,-0.03815225,0.118787125,-0.17341156,-0.3241619,0.004267955,-0.10903655,-0.05914414,-0.039045766,0.14053129,-0.10451385,-0.10425686,0.31706864,-0.13012317,-0.06747776,-0.09888506,0.21858288,0.5348975,0.17182775,-0.19310825,0.08167816,0.0083076,-0.1825536,0.23387027,0.1238332,-0.3298325,0.082513,0.26657236,-0.0073851743,0.117487766,0.28360644,-0.06079285,-0.16322173,0.22822447,-0.043120723,-0.04285906,0.049665295,-0.14621148,0.008809629,0.06867982,-0.055833947,-0.044972852,0.009424403,-0.041128293,-0.03706082,0.18161078,-0.09243069,0.10463886,0.035047527,-0.02534064,0.16177896,0.0374608,0.19341524,-0.17875971,0.5200316,-0.15938403,-0.02953231,0.2462171,-0.18711476,-0.051221814,0.29275858,0.14447385,0.018772755,-0.107690714,0.014562335,-0.05650054,-0.19902337,-0.056560885,-0.20787123,0.049559645,-0.45257127,-0.21400927,0.28292283,0.074858434,0.49012333,0.1002406,0.34958652,0.16894844,0.121831365,0.115829095,-0.028046062,0.14121726,-0.3261511,0.3331935,0.031495653,0.11660048,-0.24928553,0.35045248,-0.045787815
0.03538123,0.11238264,0.026784869,0.073714115,0.046798304,0.031846553,-0.034276213,0.045221318,-0.079922765,-0.07414776,0.0018918705,-0.15419134,0.027855268,0.233207,0.12527594,-0.14956087,0.124501765,0.16788185,0.03507708,0.092563726,0.003412555,0.23687245,-0.023797182,-0.04352504,0.11135588,-0.22827232,0.01430248,-0.13691776,-0.10005295,0.0015960267,0.07064732,-0.2287985,0.18502928,-0.114373356,0.21231861,-0.19614558,0.056393355,0.08085148,-0.21513967,0.0028844448,-0.07874102,-0.08524588,-0.22304162,0.24538805,-0.14632988,-0.03811556,0.068181224,0.083137855,-0.12753113,0.15667622,-0.18557385,-0.08216172,0.00869878,0.26296967,0.11929654,0.075298265,0.029975727,-0.0607174,0.11502726,-0.018383928,0.21894832,0.10810925,0.11453153,0.024332717,-0.05754168,-0.08004968,0.07748696,-0.13417532,0.33965164,0.15855125,0.07665324,0.09385865,-0.15666988,-0.16507663,0.14093944,0.14448076,-0.098114796,-0.035287324,-0.10298386,-0.09576834,-0.01694529,0.014831958,0.080821216,0.04843912,-0.24155171,0.029904699,-0.20688589,0.21043153,0.018073294,-0.15274687,0.025314918,0.07542806,0.05068378,-0.28721604,-0.029856002,-0.039748836,-0.03563775,0.25340843,0.012697994,0.095097475,-0.010402782,-0.05962181,0.06033044,-0.053939894,-0.10679345,-0.11992276,0.09678655,-0.0012650248,0.00027528364,0.3091837,0.13260667,0.10264257,-0.04539208,-0.035826977,0.29921862,-0.22816831,-0.28165323,0.14232057,0.32854056,-0.12863572,0.29486987,0.028107142,-0.13507113,-0.04138854,-0.07386179,0.13146466,-0.031286646,-0.13954411
-0.09955838,-0.009874904,-0.31377822,-0.079386115,-0.03818642,0.23269881,-0.027063346,-0.30989978,0.1230442,-0.13504112,0.39708355,0.03708488,-0.36607826,0.07842027,-0.1012811,-0.16897169,0.056201316,0.14902814,0.1623632,-0.08385758,0.14320105,-0.18328725,-0.05641059,-0.008937415,0.109236725,-0.13302243,0.28868198,0.21654446,0.1081289,0.49202323,0.13792624,0.28547686,-0.09274719,-0.57214695,0.20893097,0.21712083,-0.027556302,0.030806696,0.26926836,-0.20085843,-0.04107527,0.124787204,0.16120227,0.119955756,0.18367332,0.25024155,-0.036135595,-0.16473088,-0.01410414,-0.08764526,0.104924046,0.15803434,0.09136457,-0.13791454,-0.1315791,-0.017584667,-0.10799931,-0.1277782,-0.30211213,0.008438912,0.22687663,-0.166366,-0.11581233,0.10070255,0.09250148,0.14061262,-0.24456301,0.1760558,0.069823,-0.22457437,0.22128959,0.23944981,0.059849568,0.40866175,-0.21525967,-0.2459329,0.03293357,-0.14781773,0.0024165849,0.08625797,0.113222875,-0.10715418,-0.257995,-0.046434265,0.3602636,-0.41728443,0.042981595,-0.11580866,-0.08752829,0.09166815,0.05089829,-0.086660475,-0.04049205,0.17389646,0.07757824,0.055293806,-0.08900091,4.1874107e-05,-0.04438421,-0.36615184,-0.041880444,0.2100315,0.11645672,0.3617049,0.111778855,-0.049864937,-0.1821148,0.08020222,0.06812768,0.23577717,0.21381035,-0.39713585,0.13595738,-0.16622588,-0.23767918,0.09823919,0.11342313,0.11241175,0.05354826,-0.27604082,-0.18417497,0.00014993138,-0.17143528,0.16250712,-0.10352986,0.03888599,0.1130863,0.24875978
-0.13403322,0.10791528,-0.039757766,-0.0023301227,0.2568974,-0.112974495,0.07666784,0.092371866,0.053484395,0.021624872,0.10591466,0.3157353,-0.105190754,0.00024059124,-0.06973041,0.1991496,-0.2370737,0.09973737,-0.15663417,-0.19235808,0.044798452,-0.028959615,0.055925712,0.19562703,-0.09904529,0.2036649,0.0009237372,0.047498703,0.11840805,-0.016305916,0.035764884,0.15977542,-0.19557574,0.14391719,0.074097715,0.17806722,0.06788059,-0.1686701,0.24284251,0.0029560942,0.0053731217,0.2499361,-0.15065409,-0.20438008,0.052780773,0.108990334,-0.05631117,-0.08903811,0.05967416,-0.030760234,-0.13048978,0.26486963,0.035589427,-0.23303209,-0.020907333,0.19599706,0.18138343,0.0126597565,-0.22601259,0.05723563,-0.10760716,-0.08194522,0.16463724,0.22248669,-0.3360482,-0.04370534,0.14196129,0.084372334,-0.042452954,0.098356605,0.03495394,-0.10729706,0.22140884,0.04223809,-0.071184635,-0.034767732,-0.038172252,-0.016491007,0.21592663,0.06478165,0.088499516,-0.07996352,-0.088787474,-0.040913057,0.19486709,-0.1154437,0.08123017,-0.036486857,0.06443043,6.152805e-05,-0.032881264,0.10800932,-0.21101016,0.42956397,-0.11227868,-0.043361653,0.19935855,-0.10488583,0.08254645,0.12497232,0.0041458993,0.056125212,-0.123916425,0.0012210888,-0.044022806,-0.0960311,-0.15771385,-0.11350913,0.1497961,-0.10197613,-0.052806582,0.1483865,0.12866741,0.23037504,-0.061263125,0.30394784,0.0069171963,0.18104662,-0.057035144,0.3244546,0.13189055,-0.19078937,0.17790084,-0.028539808,0.074604884,-0.09088331,0.3902158,0.038034763
